digraph Tree {
node [shape=box, style="filled, rounded", color="black", fontname="helvetica"] ;
edge [fontname="helvetica"] ;
0 [label=<X<SUB>0</SUB> &le; 0.068<br/>entropy = 1.0<br/>samples = 38910<br/>value = [19455, 19455]>, fillcolor="#ffffff"] ;
1 [label=<X<SUB>2</SUB> &le; 0.625<br/>entropy = 0.167<br/>samples = 2671<br/>value = [66, 2605]>, fillcolor="#3e9fe6"] ;
0 -> 1 [labeldistance=2.5, labelangle=45, headlabel="True"] ;
2 [label=<entropy = 0.0<br/>samples = 1337<br/>value = [0, 1337]>, fillcolor="#399de5"] ;
1 -> 2 ;
3 [label=<X<SUB>8</SUB> &le; 0.592<br/>entropy = 0.284<br/>samples = 1334<br/>value = [66, 1268]>, fillcolor="#43a2e6"] ;
1 -> 3 ;
4 [label=<entropy = 0.026<br/>samples = 757<br/>value = [2, 755]>, fillcolor="#3a9de5"] ;
3 -> 4 ;
5 [label=<X<SUB>11</SUB> &le; 0.558<br/>entropy = 0.503<br/>samples = 577<br/>value = [64, 513]>, fillcolor="#52a9e8"] ;
3 -> 5 ;
6 [label=<X<SUB>1</SUB> &le; 0.375<br/>entropy = 0.739<br/>samples = 254<br/>value = [53, 201]>, fillcolor="#6db7ec"] ;
5 -> 6 ;
7 [label=<entropy = 0.957<br/>samples = 119<br/>value = [45, 74]>, fillcolor="#b1d9f5"] ;
6 -> 7 ;
8 [label=<entropy = 0.324<br/>samples = 135<br/>value = [8, 127]>, fillcolor="#45a3e7"] ;
6 -> 8 ;
9 [label=<entropy = 0.214<br/>samples = 323<br/>value = [11, 312]>, fillcolor="#40a0e6"] ;
5 -> 9 ;
10 [label=<X<SUB>0</SUB> &le; 0.379<br/>entropy = 0.996<br/>samples = 36239<br/>value = [19389, 16850]>, fillcolor="#fcefe5"] ;
0 -> 10 [labeldistance=2.5, labelangle=-45, headlabel="False"] ;
11 [label=<X<SUB>0</SUB> &le; 0.164<br/>entropy = 0.748<br/>samples = 12243<br/>value = [9631, 2612]>, fillcolor="#eca36f"] ;
10 -> 11 ;
12 [label=<X<SUB>0</SUB> &le; 0.126<br/>entropy = 0.995<br/>samples = 3763<br/>value = [2040, 1723]>, fillcolor="#fbebe0"] ;
11 -> 12 ;
13 [label=<X<SUB>10</SUB> &le; 0.767<br/>entropy = 0.843<br/>samples = 2246<br/>value = [1637, 609]>, fillcolor="#efb083"] ;
12 -> 13 ;
14 [label=<X<SUB>2</SUB> &le; 0.158<br/>entropy = 0.942<br/>samples = 1601<br/>value = [1025, 576]>, fillcolor="#f4c8a8"] ;
13 -> 14 ;
15 [label=<X<SUB>8</SUB> &le; 0.364<br/>entropy = 0.534<br/>samples = 362<br/>value = [318, 44]>, fillcolor="#e99254"] ;
14 -> 15 ;
16 [label=<entropy = 0.61<br/>samples = 20<br/>value = [3, 17]>, fillcolor="#5caeea"] ;
15 -> 16 ;
17 [label=<X<SUB>0</SUB> &le; 0.103<br/>entropy = 0.398<br/>samples = 342<br/>value = [315, 27]>, fillcolor="#e78c4a"] ;
15 -> 17 ;
18 [label=<entropy = 0.0<br/>samples = 138<br/>value = [138, 0]>, fillcolor="#e58139"] ;
17 -> 18 ;
19 [label=<entropy = 0.564<br/>samples = 204<br/>value = [177, 27]>, fillcolor="#e99457"] ;
17 -> 19 ;
20 [label=<X<SUB>4</SUB> &le; 0.358<br/>entropy = 0.986<br/>samples = 1239<br/>value = [707, 532]>, fillcolor="#f9e0ce"] ;
14 -> 20 ;
21 [label=<entropy = 0.804<br/>samples = 106<br/>value = [26, 80]>, fillcolor="#79bded"] ;
20 -> 21 ;
22 [label=<X<SUB>0</SUB> &le; 0.078<br/>entropy = 0.97<br/>samples = 1133<br/>value = [681, 452]>, fillcolor="#f6d5bc"] ;
20 -> 22 ;
23 [label=<X<SUB>0</SUB> &le; 0.075<br/>entropy = 0.758<br/>samples = 283<br/>value = [221, 62]>, fillcolor="#eca471"] ;
22 -> 23 ;
24 [label=<entropy = 0.928<br/>samples = 166<br/>value = [109, 57]>, fillcolor="#f3c3a1"] ;
23 -> 24 ;
25 [label=<entropy = 0.255<br/>samples = 117<br/>value = [112, 5]>, fillcolor="#e68742"] ;
23 -> 25 ;
26 [label=<X<SUB>16</SUB> &le; 0.203<br/>entropy = 0.995<br/>samples = 850<br/>value = [460, 390]>, fillcolor="#fbece1"] ;
22 -> 26 ;
27 [label=<X<SUB>4</SUB> &le; 0.725<br/>entropy = 0.916<br/>samples = 378<br/>value = [253, 125]>, fillcolor="#f2bf9b"] ;
26 -> 27 ;
28 [label=<entropy = 0.973<br/>samples = 293<br/>value = [175, 118]>, fillcolor="#f7d6bf"] ;
27 -> 28 ;
29 [label=<entropy = 0.41<br/>samples = 85<br/>value = [78, 7]>, fillcolor="#e78c4b"] ;
27 -> 29 ;
30 [label=<X<SUB>18</SUB> &le; 0.589<br/>entropy = 0.989<br/>samples = 472<br/>value = [207, 265]>, fillcolor="#d4eaf9"] ;
26 -> 30 ;
31 [label=<entropy = 0.975<br/>samples = 447<br/>value = [182, 265]>, fillcolor="#c1e0f7"] ;
30 -> 31 ;
32 [label=<entropy = 0.0<br/>samples = 25<br/>value = [25, 0]>, fillcolor="#e58139"] ;
30 -> 32 ;
33 [label=<X<SUB>0</SUB> &le; 0.084<br/>entropy = 0.291<br/>samples = 645<br/>value = [612, 33]>, fillcolor="#e68844"] ;
13 -> 33 ;
34 [label=<X<SUB>6</SUB> &le; 0.798<br/>entropy = 0.872<br/>samples = 82<br/>value = [58, 24]>, fillcolor="#f0b58b"] ;
33 -> 34 ;
35 [label=<entropy = 0.0<br/>samples = 49<br/>value = [49, 0]>, fillcolor="#e58139"] ;
34 -> 35 ;
36 [label=<entropy = 0.845<br/>samples = 33<br/>value = [9, 24]>, fillcolor="#83c2ef"] ;
34 -> 36 ;
37 [label=<entropy = 0.118<br/>samples = 563<br/>value = [554, 9]>, fillcolor="#e5833c"] ;
33 -> 37 ;
38 [label=<X<SUB>1</SUB> &le; 0.533<br/>entropy = 0.835<br/>samples = 1517<br/>value = [403, 1114]>, fillcolor="#81c0ee"] ;
12 -> 38 ;
39 [label=<X<SUB>12</SUB> &le; 0.78<br/>entropy = 0.735<br/>samples = 1320<br/>value = [273, 1047]>, fillcolor="#6db7ec"] ;
38 -> 39 ;
40 [label=<X<SUB>3</SUB> &le; 0.32<br/>entropy = 0.912<br/>samples = 538<br/>value = [176, 362]>, fillcolor="#99cdf2"] ;
39 -> 40 ;
41 [label=<X<SUB>11</SUB> &le; 0.544<br/>entropy = 0.952<br/>samples = 455<br/>value = [169, 286]>, fillcolor="#aed7f4"] ;
40 -> 41 ;
42 [label=<X<SUB>1</SUB> &le; 0.469<br/>entropy = 0.987<br/>samples = 205<br/>value = [116, 89]>, fillcolor="#f9e2d1"] ;
41 -> 42 ;
43 [label=<X<SUB>3</SUB> &le; 0.111<br/>entropy = 0.801<br/>samples = 115<br/>value = [87, 28]>, fillcolor="#edaa79"] ;
42 -> 43 ;
44 [label=<entropy = 0.54<br/>samples = 89<br/>value = [78, 11]>, fillcolor="#e99355"] ;
43 -> 44 ;
45 [label=<entropy = 0.931<br/>samples = 26<br/>value = [9, 17]>, fillcolor="#a2d1f3"] ;
43 -> 45 ;
46 [label=<X<SUB>17</SUB> &le; 0.466<br/>entropy = 0.907<br/>samples = 90<br/>value = [29, 61]>, fillcolor="#97ccf1"] ;
42 -> 46 ;
47 [label=<entropy = 0.246<br/>samples = 49<br/>value = [2, 47]>, fillcolor="#41a1e6"] ;
46 -> 47 ;
48 [label=<entropy = 0.926<br/>samples = 41<br/>value = [27, 14]>, fillcolor="#f2c2a0"] ;
46 -> 48 ;
49 [label=<entropy = 0.745<br/>samples = 250<br/>value = [53, 197]>, fillcolor="#6eb7ec"] ;
41 -> 49 ;
50 [label=<entropy = 0.417<br/>samples = 83<br/>value = [7, 76]>, fillcolor="#4ba6e7"] ;
40 -> 50 ;
51 [label=<X<SUB>28</SUB> &le; 0.913<br/>entropy = 0.541<br/>samples = 782<br/>value = [97, 685]>, fillcolor="#55abe9"] ;
39 -> 51 ;
52 [label=<X<SUB>32</SUB> &le; 0.711<br/>entropy = 0.487<br/>samples = 747<br/>value = [79, 668]>, fillcolor="#50a9e8"] ;
51 -> 52 ;
53 [label=<entropy = 0.614<br/>samples = 475<br/>value = [72, 403]>, fillcolor="#5cafea"] ;
52 -> 53 ;
54 [label=<entropy = 0.173<br/>samples = 272<br/>value = [7, 265]>, fillcolor="#3ea0e6"] ;
52 -> 54 ;
55 [label=<entropy = 0.999<br/>samples = 35<br/>value = [18, 17]>, fillcolor="#fef8f4"] ;
51 -> 55 ;
56 [label=<X<SUB>5</SUB> &le; 0.715<br/>entropy = 0.925<br/>samples = 197<br/>value = [130, 67]>, fillcolor="#f2c29f"] ;
38 -> 56 ;
57 [label=<X<SUB>14</SUB> &le; 0.135<br/>entropy = 0.989<br/>samples = 151<br/>value = [85, 66]>, fillcolor="#f9e3d3"] ;
56 -> 57 ;
58 [label=<entropy = 0.0<br/>samples = 23<br/>value = [23, 0]>, fillcolor="#e58139"] ;
57 -> 58 ;
59 [label=<entropy = 0.999<br/>samples = 128<br/>value = [62, 66]>, fillcolor="#f3f9fd"] ;
57 -> 59 ;
60 [label=<entropy = 0.151<br/>samples = 46<br/>value = [45, 1]>, fillcolor="#e6843d"] ;
56 -> 60 ;
61 [label=<X<SUB>0</SUB> &le; 0.248<br/>entropy = 0.484<br/>samples = 8480<br/>value = [7591, 889]>, fillcolor="#e89050"] ;
11 -> 61 ;
62 [label=<X<SUB>0</SUB> &le; 0.198<br/>entropy = 0.082<br/>samples = 3361<br/>value = [3327, 34]>, fillcolor="#e5823b"] ;
61 -> 62 ;
63 [label=<entropy = 0.165<br/>samples = 1399<br/>value = [1365, 34]>, fillcolor="#e6843e"] ;
62 -> 63 ;
64 [label=<entropy = 0.0<br/>samples = 1962<br/>value = [1962, 0]>, fillcolor="#e58139"] ;
62 -> 64 ;
65 [label=<X<SUB>0</SUB> &le; 0.261<br/>entropy = 0.651<br/>samples = 5119<br/>value = [4264, 855]>, fillcolor="#ea9a61"] ;
61 -> 65 ;
66 [label=<X<SUB>6</SUB> &le; 0.597<br/>entropy = 0.976<br/>samples = 524<br/>value = [214, 310]>, fillcolor="#c2e1f7"] ;
65 -> 66 ;
67 [label=<X<SUB>20</SUB> &le; 0.426<br/>entropy = 0.976<br/>samples = 186<br/>value = [110, 76]>, fillcolor="#f7d8c2"] ;
66 -> 67 ;
68 [label=<entropy = 0.983<br/>samples = 118<br/>value = [50, 68]>, fillcolor="#cbe5f8"] ;
67 -> 68 ;
69 [label=<entropy = 0.523<br/>samples = 68<br/>value = [60, 8]>, fillcolor="#e89253"] ;
67 -> 69 ;
70 [label=<X<SUB>11</SUB> &le; 0.491<br/>entropy = 0.89<br/>samples = 338<br/>value = [104, 234]>, fillcolor="#91c9f1"] ;
66 -> 70 ;
71 [label=<entropy = 1.0<br/>samples = 148<br/>value = [74, 74]>, fillcolor="#ffffff"] ;
70 -> 71 ;
72 [label=<entropy = 0.629<br/>samples = 190<br/>value = [30, 160]>, fillcolor="#5eafea"] ;
70 -> 72 ;
73 [label=<X<SUB>0</SUB> &le; 0.342<br/>entropy = 0.525<br/>samples = 4595<br/>value = [4050, 545]>, fillcolor="#e89254"] ;
65 -> 73 ;
74 [label=<X<SUB>3</SUB> &le; 0.132<br/>entropy = 0.205<br/>samples = 3149<br/>value = [3048, 101]>, fillcolor="#e68540"] ;
73 -> 74 ;
75 [label=<X<SUB>0</SUB> &le; 0.272<br/>entropy = 0.093<br/>samples = 2432<br/>value = [2403, 29]>, fillcolor="#e5833b"] ;
74 -> 75 ;
76 [label=<X<SUB>0</SUB> &le; 0.27<br/>entropy = 0.324<br/>samples = 305<br/>value = [287, 18]>, fillcolor="#e78945"] ;
75 -> 76 ;
77 [label=<entropy = 0.0<br/>samples = 201<br/>value = [201, 0]>, fillcolor="#e58139"] ;
76 -> 77 ;
78 [label=<X<SUB>4</SUB> &le; 0.667<br/>entropy = 0.665<br/>samples = 104<br/>value = [86, 18]>, fillcolor="#ea9b62"] ;
76 -> 78 ;
79 [label=<entropy = 0.394<br/>samples = 90<br/>value = [83, 7]>, fillcolor="#e78c4a"] ;
78 -> 79 ;
80 [label=<entropy = 0.75<br/>samples = 14<br/>value = [3, 11]>, fillcolor="#6fb8ec"] ;
78 -> 80 ;
81 [label=<entropy = 0.047<br/>samples = 2127<br/>value = [2116, 11]>, fillcolor="#e5823a"] ;
75 -> 81 ;
82 [label=<X<SUB>1</SUB> &le; 0.625<br/>entropy = 0.47<br/>samples = 717<br/>value = [645, 72]>, fillcolor="#e88f4f"] ;
74 -> 82 ;
83 [label=<X<SUB>0</SUB> &le; 0.307<br/>entropy = 0.604<br/>samples = 487<br/>value = [415, 72]>, fillcolor="#ea975b"] ;
82 -> 83 ;
84 [label=<X<SUB>11</SUB> &le; 0.441<br/>entropy = 0.808<br/>samples = 270<br/>value = [203, 67]>, fillcolor="#eeab7a"] ;
83 -> 84 ;
85 [label=<entropy = 0.668<br/>samples = 229<br/>value = [189, 40]>, fillcolor="#eb9c63"] ;
84 -> 85 ;
86 [label=<X<SUB>20</SUB> &le; 0.201<br/>entropy = 0.926<br/>samples = 41<br/>value = [14, 27]>, fillcolor="#a0d0f2"] ;
84 -> 86 ;
87 [label=<entropy = 0.242<br/>samples = 25<br/>value = [1, 24]>, fillcolor="#41a1e6"] ;
86 -> 87 ;
88 [label=<entropy = 0.696<br/>samples = 16<br/>value = [13, 3]>, fillcolor="#eb9e67"] ;
86 -> 88 ;
89 [label=<entropy = 0.158<br/>samples = 217<br/>value = [212, 5]>, fillcolor="#e6843e"] ;
83 -> 89 ;
90 [label=<entropy = 0.0<br/>samples = 230<br/>value = [230, 0]>, fillcolor="#e58139"] ;
82 -> 90 ;
91 [label=<X<SUB>0</SUB> &le; 0.347<br/>entropy = 0.89<br/>samples = 1446<br/>value = [1002, 444]>, fillcolor="#f1b991"] ;
73 -> 91 ;
92 [label=<X<SUB>4</SUB> &le; 0.389<br/>entropy = 0.914<br/>samples = 225<br/>value = [74, 151]>, fillcolor="#9acdf2"] ;
91 -> 92 ;
93 [label=<entropy = 0.0<br/>samples = 42<br/>value = [0, 42]>, fillcolor="#399de5"] ;
92 -> 93 ;
94 [label=<X<SUB>1</SUB> &le; 0.898<br/>entropy = 0.973<br/>samples = 183<br/>value = [74, 109]>, fillcolor="#bfe0f7"] ;
92 -> 94 ;
95 [label=<entropy = 0.592<br/>samples = 42<br/>value = [36, 6]>, fillcolor="#e9965a"] ;
94 -> 95 ;
96 [label=<entropy = 0.841<br/>samples = 141<br/>value = [38, 103]>, fillcolor="#82c1ef"] ;
94 -> 96 ;
97 [label=<X<SUB>12</SUB> &le; 0.514<br/>entropy = 0.795<br/>samples = 1221<br/>value = [928, 293]>, fillcolor="#eda978"] ;
91 -> 97 ;
98 [label=<X<SUB>19</SUB> &le; 0.291<br/>entropy = 0.596<br/>samples = 657<br/>value = [562, 95]>, fillcolor="#e9965a"] ;
97 -> 98 ;
99 [label=<entropy = 0.286<br/>samples = 301<br/>value = [286, 15]>, fillcolor="#e68843"] ;
98 -> 99 ;
100 [label=<X<SUB>10</SUB> &le; 0.336<br/>entropy = 0.769<br/>samples = 356<br/>value = [276, 80]>, fillcolor="#eda672"] ;
98 -> 100 ;
101 [label=<entropy = 0.206<br/>samples = 93<br/>value = [90, 3]>, fillcolor="#e68540"] ;
100 -> 101 ;
102 [label=<entropy = 0.872<br/>samples = 263<br/>value = [186, 77]>, fillcolor="#f0b58b"] ;
100 -> 102 ;
103 [label=<X<SUB>0</SUB> &le; 0.374<br/>entropy = 0.935<br/>samples = 564<br/>value = [366, 198]>, fillcolor="#f3c5a4"] ;
97 -> 103 ;
104 [label=<X<SUB>2</SUB> &le; 0.967<br/>entropy = 0.994<br/>samples = 390<br/>value = [213, 177]>, fillcolor="#fbeade"] ;
103 -> 104 ;
105 [label=<X<SUB>6</SUB> &le; 0.745<br/>entropy = 0.994<br/>samples = 311<br/>value = [141, 170]>, fillcolor="#ddeefb"] ;
104 -> 105 ;
106 [label=<X<SUB>7</SUB> &le; 0.726<br/>entropy = 0.99<br/>samples = 222<br/>value = [124, 98]>, fillcolor="#fae5d5"] ;
105 -> 106 ;
107 [label=<entropy = 0.972<br/>samples = 152<br/>value = [61, 91]>, fillcolor="#bedff6"] ;
106 -> 107 ;
108 [label=<entropy = 0.469<br/>samples = 70<br/>value = [63, 7]>, fillcolor="#e88f4f"] ;
106 -> 108 ;
109 [label=<X<SUB>18</SUB> &le; 0.383<br/>entropy = 0.704<br/>samples = 89<br/>value = [17, 72]>, fillcolor="#68b4eb"] ;
105 -> 109 ;
110 [label=<entropy = 0.198<br/>samples = 65<br/>value = [2, 63]>, fillcolor="#3fa0e6"] ;
109 -> 110 ;
111 [label=<entropy = 0.954<br/>samples = 24<br/>value = [15, 9]>, fillcolor="#f5cdb0"] ;
109 -> 111 ;
112 [label=<entropy = 0.432<br/>samples = 79<br/>value = [72, 7]>, fillcolor="#e88d4c"] ;
104 -> 112 ;
113 [label=<X<SUB>4</SUB> &le; 0.582<br/>entropy = 0.531<br/>samples = 174<br/>value = [153, 21]>, fillcolor="#e99254"] ;
103 -> 113 ;
114 [label=<entropy = 0.0<br/>samples = 105<br/>value = [105, 0]>, fillcolor="#e58139"] ;
113 -> 114 ;
115 [label=<entropy = 0.887<br/>samples = 69<br/>value = [48, 21]>, fillcolor="#f0b890"] ;
113 -> 115 ;
116 [label=<X<SUB>0</SUB> &le; 0.527<br/>entropy = 0.975<br/>samples = 23996<br/>value = [9758, 14238]>, fillcolor="#c1e0f7"] ;
10 -> 116 ;
117 [label=<X<SUB>0</SUB> &le; 0.423<br/>entropy = 0.536<br/>samples = 5706<br/>value = [698, 5008]>, fillcolor="#55abe9"] ;
116 -> 117 ;
118 [label=<X<SUB>0</SUB> &le; 0.402<br/>entropy = 0.864<br/>samples = 1715<br/>value = [491, 1224]>, fillcolor="#88c4ef"] ;
117 -> 118 ;
119 [label=<X<SUB>2</SUB> &le; 0.268<br/>entropy = 0.269<br/>samples = 915<br/>value = [42, 873]>, fillcolor="#43a2e6"] ;
118 -> 119 ;
120 [label=<X<SUB>9</SUB> &le; 0.607<br/>entropy = 0.099<br/>samples = 779<br/>value = [10, 769]>, fillcolor="#3c9ee5"] ;
119 -> 120 ;
121 [label=<entropy = 0.477<br/>samples = 78<br/>value = [8, 70]>, fillcolor="#50a8e8"] ;
120 -> 121 ;
122 [label=<entropy = 0.028<br/>samples = 701<br/>value = [2, 699]>, fillcolor="#3a9de5"] ;
120 -> 122 ;
123 [label=<X<SUB>5</SUB> &le; 0.524<br/>entropy = 0.787<br/>samples = 136<br/>value = [32, 104]>, fillcolor="#76bbed"] ;
119 -> 123 ;
124 [label=<entropy = 0.323<br/>samples = 17<br/>value = [16, 1]>, fillcolor="#e78945"] ;
123 -> 124 ;
125 [label=<entropy = 0.57<br/>samples = 119<br/>value = [16, 103]>, fillcolor="#58ace9"] ;
123 -> 125 ;
126 [label=<X<SUB>0</SUB> &le; 0.418<br/>entropy = 0.989<br/>samples = 800<br/>value = [449, 351]>, fillcolor="#f9e3d4"] ;
118 -> 126 ;
127 [label=<X<SUB>0</SUB> &le; 0.415<br/>entropy = 0.948<br/>samples = 620<br/>value = [393, 227]>, fillcolor="#f4caab"] ;
126 -> 127 ;
128 [label=<X<SUB>0</SUB> &le; 0.409<br/>entropy = 0.988<br/>samples = 489<br/>value = [276, 213]>, fillcolor="#f9e2d2"] ;
127 -> 128 ;
129 [label=<X<SUB>0</SUB> &le; 0.405<br/>entropy = 0.867<br/>samples = 284<br/>value = [202, 82]>, fillcolor="#f0b489"] ;
128 -> 129 ;
130 [label=<X<SUB>9</SUB> &le; 0.505<br/>entropy = 0.979<br/>samples = 94<br/>value = [39, 55]>, fillcolor="#c5e2f7"] ;
129 -> 130 ;
131 [label=<entropy = 0.527<br/>samples = 42<br/>value = [37, 5]>, fillcolor="#e99254"] ;
130 -> 131 ;
132 [label=<entropy = 0.235<br/>samples = 52<br/>value = [2, 50]>, fillcolor="#41a1e6"] ;
130 -> 132 ;
133 [label=<X<SUB>4</SUB> &le; 0.706<br/>entropy = 0.59<br/>samples = 190<br/>value = [163, 27]>, fillcolor="#e9965a"] ;
129 -> 133 ;
134 [label=<entropy = 0.0<br/>samples = 113<br/>value = [113, 0]>, fillcolor="#e58139"] ;
133 -> 134 ;
135 [label=<entropy = 0.935<br/>samples = 77<br/>value = [50, 27]>, fillcolor="#f3c5a4"] ;
133 -> 135 ;
136 [label=<X<SUB>4</SUB> &le; 0.578<br/>entropy = 0.943<br/>samples = 205<br/>value = [74, 131]>, fillcolor="#a9d4f4"] ;
128 -> 136 ;
137 [label=<entropy = 0.493<br/>samples = 65<br/>value = [7, 58]>, fillcolor="#51a9e8"] ;
136 -> 137 ;
138 [label=<entropy = 0.999<br/>samples = 140<br/>value = [67, 73]>, fillcolor="#eff7fd"] ;
136 -> 138 ;
139 [label=<X<SUB>4</SUB> &le; 0.382<br/>entropy = 0.49<br/>samples = 131<br/>value = [117, 14]>, fillcolor="#e89051"] ;
127 -> 139 ;
140 [label=<entropy = 0.0<br/>samples = 7<br/>value = [0, 7]>, fillcolor="#399de5"] ;
139 -> 140 ;
141 [label=<entropy = 0.313<br/>samples = 124<br/>value = [117, 7]>, fillcolor="#e78945"] ;
139 -> 141 ;
142 [label=<X<SUB>12</SUB> &le; 0.561<br/>entropy = 0.894<br/>samples = 180<br/>value = [56, 124]>, fillcolor="#92c9f1"] ;
126 -> 142 ;
143 [label=<X<SUB>4</SUB> &le; 0.485<br/>entropy = 0.732<br/>samples = 156<br/>value = [32, 124]>, fillcolor="#6cb6ec"] ;
142 -> 143 ;
144 [label=<entropy = 0.111<br/>samples = 68<br/>value = [1, 67]>, fillcolor="#3c9ee5"] ;
143 -> 144 ;
145 [label=<entropy = 0.936<br/>samples = 88<br/>value = [31, 57]>, fillcolor="#a5d2f3"] ;
143 -> 145 ;
146 [label=<entropy = 0.0<br/>samples = 24<br/>value = [24, 0]>, fillcolor="#e58139"] ;
142 -> 146 ;
147 [label=<X<SUB>0</SUB> &le; 0.473<br/>entropy = 0.294<br/>samples = 3991<br/>value = [207, 3784]>, fillcolor="#44a2e6"] ;
117 -> 147 ;
148 [label=<X<SUB>10</SUB> &le; 0.243<br/>entropy = 0.072<br/>samples = 1964<br/>value = [17, 1947]>, fillcolor="#3b9ee5"] ;
147 -> 148 ;
149 [label=<entropy = 0.0<br/>samples = 5<br/>value = [5, 0]>, fillcolor="#e58139"] ;
148 -> 149 ;
150 [label=<entropy = 0.054<br/>samples = 1959<br/>value = [12, 1947]>, fillcolor="#3a9ee5"] ;
148 -> 150 ;
151 [label=<X<SUB>4</SUB> &le; 0.64<br/>entropy = 0.449<br/>samples = 2027<br/>value = [190, 1837]>, fillcolor="#4da7e8"] ;
147 -> 151 ;
152 [label=<X<SUB>5</SUB> &le; 0.803<br/>entropy = 0.289<br/>samples = 1485<br/>value = [75, 1410]>, fillcolor="#44a2e6"] ;
151 -> 152 ;
153 [label=<entropy = 0.174<br/>samples = 1347<br/>value = [35, 1312]>, fillcolor="#3ea0e6"] ;
152 -> 153 ;
154 [label=<entropy = 0.869<br/>samples = 138<br/>value = [40, 98]>, fillcolor="#8ac5f0"] ;
152 -> 154 ;
155 [label=<X<SUB>13</SUB> &le; 0.354<br/>entropy = 0.746<br/>samples = 542<br/>value = [115, 427]>, fillcolor="#6eb7ec"] ;
151 -> 155 ;
156 [label=<X<SUB>2</SUB> &le; 0.033<br/>entropy = 0.529<br/>samples = 409<br/>value = [49, 360]>, fillcolor="#54aae9"] ;
155 -> 156 ;
157 [label=<entropy = 0.993<br/>samples = 31<br/>value = [17, 14]>, fillcolor="#fae9dc"] ;
156 -> 157 ;
158 [label=<entropy = 0.418<br/>samples = 378<br/>value = [32, 346]>, fillcolor="#4ba6e7"] ;
156 -> 158 ;
159 [label=<entropy = 1.0<br/>samples = 133<br/>value = [66, 67]>, fillcolor="#fcfeff"] ;
155 -> 159 ;
160 [label=<X<SUB>0</SUB> &le; 0.618<br/>entropy = 1.0<br/>samples = 18290<br/>value = [9060, 9230]>, fillcolor="#fbfdff"] ;
116 -> 160 ;
161 [label=<X<SUB>0</SUB> &le; 0.543<br/>entropy = 0.692<br/>samples = 3513<br/>value = [2862, 651]>, fillcolor="#eb9e66"] ;
160 -> 161 ;
162 [label=<X<SUB>0</SUB> &le; 0.534<br/>entropy = 0.898<br/>samples = 634<br/>value = [199, 435]>, fillcolor="#94caf1"] ;
161 -> 162 ;
163 [label=<entropy = 0.992<br/>samples = 279<br/>value = [154, 125]>, fillcolor="#fae7da"] ;
162 -> 163 ;
164 [label=<X<SUB>18</SUB> &le; 0.52<br/>entropy = 0.548<br/>samples = 355<br/>value = [45, 310]>, fillcolor="#56abe9"] ;
162 -> 164 ;
165 [label=<entropy = 0.377<br/>samples = 288<br/>value = [21, 267]>, fillcolor="#49a5e7"] ;
164 -> 165 ;
166 [label=<entropy = 0.941<br/>samples = 67<br/>value = [24, 43]>, fillcolor="#a8d4f4"] ;
164 -> 166 ;
167 [label=<X<SUB>1</SUB> &le; 0.322<br/>entropy = 0.384<br/>samples = 2879<br/>value = [2663, 216]>, fillcolor="#e78b49"] ;
161 -> 167 ;
168 [label=<X<SUB>0</SUB> &le; 0.557<br/>entropy = 0.573<br/>samples = 1534<br/>value = [1326, 208]>, fillcolor="#e99558"] ;
167 -> 168 ;
169 [label=<entropy = 0.0<br/>samples = 494<br/>value = [494, 0]>, fillcolor="#e58139"] ;
168 -> 169 ;
170 [label=<X<SUB>0</SUB> &le; 0.608<br/>entropy = 0.722<br/>samples = 1040<br/>value = [832, 208]>, fillcolor="#eca06a"] ;
168 -> 170 ;
171 [label=<X<SUB>9</SUB> &le; 0.642<br/>entropy = 0.909<br/>samples = 641<br/>value = [433, 208]>, fillcolor="#f1be98"] ;
170 -> 171 ;
172 [label=<entropy = 0.966<br/>samples = 115<br/>value = [45, 70]>, fillcolor="#b8dcf6"] ;
171 -> 172 ;
173 [label=<X<SUB>40</SUB> &le; 0.422<br/>entropy = 0.83<br/>samples = 526<br/>value = [388, 138]>, fillcolor="#eeae7f"] ;
171 -> 173 ;
174 [label=<entropy = 0.542<br/>samples = 225<br/>value = [197, 28]>, fillcolor="#e99355"] ;
173 -> 174 ;
175 [label=<X<SUB>38</SUB> &le; 0.069<br/>entropy = 0.947<br/>samples = 301<br/>value = [191, 110]>, fillcolor="#f4caab"] ;
173 -> 175 ;
176 [label=<entropy = 0.949<br/>samples = 87<br/>value = [32, 55]>, fillcolor="#acd6f4"] ;
175 -> 176 ;
177 [label=<entropy = 0.822<br/>samples = 214<br/>value = [159, 55]>, fillcolor="#eead7d"] ;
175 -> 177 ;
178 [label=<entropy = 0.0<br/>samples = 399<br/>value = [399, 0]>, fillcolor="#e58139"] ;
170 -> 178 ;
179 [label=<X<SUB>2</SUB> &le; 1.0<br/>entropy = 0.053<br/>samples = 1345<br/>value = [1337, 8]>, fillcolor="#e5823a"] ;
167 -> 179 ;
180 [label=<entropy = 0.0<br/>samples = 1096<br/>value = [1096, 0]>, fillcolor="#e58139"] ;
179 -> 180 ;
181 [label=<entropy = 0.205<br/>samples = 249<br/>value = [241, 8]>, fillcolor="#e68540"] ;
179 -> 181 ;
182 [label=<X<SUB>0</SUB> &le; 0.745<br/>entropy = 0.981<br/>samples = 14777<br/>value = [6198, 8579]>, fillcolor="#c8e4f8"] ;
160 -> 182 ;
183 [label=<X<SUB>0</SUB> &le; 0.661<br/>entropy = 0.711<br/>samples = 4965<br/>value = [966, 3999]>, fillcolor="#69b5eb"] ;
182 -> 183 ;
184 [label=<X<SUB>1</SUB> &le; 0.454<br/>entropy = 0.46<br/>samples = 1685<br/>value = [164, 1521]>, fillcolor="#4ea8e8"] ;
183 -> 184 ;
185 [label=<X<SUB>16</SUB> &le; 0.32<br/>entropy = 0.828<br/>samples = 414<br/>value = [108, 306]>, fillcolor="#7fc0ee"] ;
184 -> 185 ;
186 [label=<X<SUB>4</SUB> &le; 0.364<br/>entropy = 0.88<br/>samples = 361<br/>value = [108, 253]>, fillcolor="#8ec7f0"] ;
185 -> 186 ;
187 [label=<entropy = 0.214<br/>samples = 59<br/>value = [2, 57]>, fillcolor="#40a0e6"] ;
186 -> 187 ;
188 [label=<entropy = 0.935<br/>samples = 302<br/>value = [106, 196]>, fillcolor="#a4d2f3"] ;
186 -> 188 ;
189 [label=<entropy = 0.0<br/>samples = 53<br/>value = [0, 53]>, fillcolor="#399de5"] ;
185 -> 189 ;
190 [label=<X<SUB>9</SUB> &le; 0.292<br/>entropy = 0.261<br/>samples = 1271<br/>value = [56, 1215]>, fillcolor="#42a2e6"] ;
184 -> 190 ;
191 [label=<entropy = 0.554<br/>samples = 210<br/>value = [27, 183]>, fillcolor="#56abe9"] ;
190 -> 191 ;
192 [label=<entropy = 0.181<br/>samples = 1061<br/>value = [29, 1032]>, fillcolor="#3fa0e6"] ;
190 -> 192 ;
193 [label=<X<SUB>9</SUB> &le; 0.487<br/>entropy = 0.802<br/>samples = 3280<br/>value = [802, 2478]>, fillcolor="#79bded"] ;
183 -> 193 ;
194 [label=<X<SUB>11</SUB> &le; 0.454<br/>entropy = 0.999<br/>samples = 509<br/>value = [266, 243]>, fillcolor="#fdf4ee"] ;
193 -> 194 ;
195 [label=<X<SUB>4</SUB> &le; 0.478<br/>entropy = 0.981<br/>samples = 351<br/>value = [147, 204]>, fillcolor="#c8e4f8"] ;
194 -> 195 ;
196 [label=<X<SUB>33</SUB> &le; 0.884<br/>entropy = 0.961<br/>samples = 169<br/>value = [104, 65]>, fillcolor="#f5d0b5"] ;
195 -> 196 ;
197 [label=<X<SUB>38</SUB> &le; 0.017<br/>entropy = 0.909<br/>samples = 154<br/>value = [104, 50]>, fillcolor="#f2be98"] ;
196 -> 197 ;
198 [label=<entropy = 0.0<br/>samples = 14<br/>value = [0, 14]>, fillcolor="#399de5"] ;
197 -> 198 ;
199 [label=<entropy = 0.822<br/>samples = 140<br/>value = [104, 36]>, fillcolor="#eead7e"] ;
197 -> 199 ;
200 [label=<entropy = 0.0<br/>samples = 15<br/>value = [0, 15]>, fillcolor="#399de5"] ;
196 -> 200 ;
201 [label=<X<SUB>10</SUB> &le; 0.209<br/>entropy = 0.789<br/>samples = 182<br/>value = [43, 139]>, fillcolor="#76bbed"] ;
195 -> 201 ;
202 [label=<entropy = 0.0<br/>samples = 10<br/>value = [10, 0]>, fillcolor="#e58139"] ;
201 -> 202 ;
203 [label=<entropy = 0.705<br/>samples = 172<br/>value = [33, 139]>, fillcolor="#68b4eb"] ;
201 -> 203 ;
204 [label=<X<SUB>16</SUB> &le; 0.466<br/>entropy = 0.806<br/>samples = 158<br/>value = [119, 39]>, fillcolor="#eeaa7a"] ;
194 -> 204 ;
205 [label=<entropy = 0.681<br/>samples = 144<br/>value = [118, 26]>, fillcolor="#eb9d65"] ;
204 -> 205 ;
206 [label=<entropy = 0.371<br/>samples = 14<br/>value = [1, 13]>, fillcolor="#48a5e7"] ;
204 -> 206 ;
207 [label=<X<SUB>9</SUB> &le; 0.802<br/>entropy = 0.709<br/>samples = 2771<br/>value = [536, 2235]>, fillcolor="#68b5eb"] ;
193 -> 207 ;
208 [label=<X<SUB>1</SUB> &le; 0.842<br/>entropy = 0.8<br/>samples = 1888<br/>value = [459, 1429]>, fillcolor="#79bced"] ;
207 -> 208 ;
209 [label=<X<SUB>0</SUB> &le; 0.725<br/>entropy = 0.856<br/>samples = 1557<br/>value = [437, 1120]>, fillcolor="#86c3ef"] ;
208 -> 209 ;
210 [label=<X<SUB>34</SUB> &le; 0.857<br/>entropy = 0.924<br/>samples = 1138<br/>value = [386, 752]>, fillcolor="#9fcff2"] ;
209 -> 210 ;
211 [label=<X<SUB>44</SUB> &le; 0.833<br/>entropy = 0.967<br/>samples = 909<br/>value = [357, 552]>, fillcolor="#b9dcf6"] ;
210 -> 211 ;
212 [label=<X<SUB>21</SUB> &le; 0.82<br/>entropy = 0.995<br/>samples = 676<br/>value = [309, 367]>, fillcolor="#e0f0fb"] ;
211 -> 212 ;
213 [label=<X<SUB>23</SUB> &le; 0.042<br/>entropy = 0.938<br/>samples = 415<br/>value = [147, 268]>, fillcolor="#a6d3f3"] ;
212 -> 213 ;
214 [label=<X<SUB>35</SUB> &le; 0.087<br/>entropy = 0.999<br/>samples = 218<br/>value = [112, 106]>, fillcolor="#fef8f4"] ;
213 -> 214 ;
215 [label=<entropy = 0.722<br/>samples = 70<br/>value = [14, 56]>, fillcolor="#6ab6ec"] ;
214 -> 215 ;
216 [label=<X<SUB>29</SUB> &le; 0.008<br/>entropy = 0.923<br/>samples = 148<br/>value = [98, 50]>, fillcolor="#f2c19e"] ;
214 -> 216 ;
217 [label=<X<SUB>1</SUB> &le; 0.033<br/>entropy = 0.834<br/>samples = 132<br/>value = [97, 35]>, fillcolor="#eeae80"] ;
216 -> 217 ;
218 [label=<entropy = 0.371<br/>samples = 14<br/>value = [1, 13]>, fillcolor="#48a5e7"] ;
217 -> 218 ;
219 [label=<entropy = 0.694<br/>samples = 118<br/>value = [96, 22]>, fillcolor="#eb9e66"] ;
217 -> 219 ;
220 [label=<entropy = 0.337<br/>samples = 16<br/>value = [1, 15]>, fillcolor="#46a4e7"] ;
216 -> 220 ;
221 [label=<X<SUB>37</SUB> &le; 0.037<br/>entropy = 0.675<br/>samples = 197<br/>value = [35, 162]>, fillcolor="#64b2eb"] ;
213 -> 221 ;
222 [label=<entropy = 0.507<br/>samples = 178<br/>value = [20, 158]>, fillcolor="#52a9e8"] ;
221 -> 222 ;
223 [label=<entropy = 0.742<br/>samples = 19<br/>value = [15, 4]>, fillcolor="#eca36e"] ;
221 -> 223 ;
224 [label=<X<SUB>10</SUB> &le; 0.827<br/>entropy = 0.958<br/>samples = 261<br/>value = [162, 99]>, fillcolor="#f5ceb2"] ;
212 -> 224 ;
225 [label=<X<SUB>33</SUB> &le; 0.965<br/>entropy = 0.892<br/>samples = 230<br/>value = [159, 71]>, fillcolor="#f1b991"] ;
224 -> 225 ;
226 [label=<entropy = 0.827<br/>samples = 215<br/>value = [159, 56]>, fillcolor="#eead7f"] ;
225 -> 226 ;
227 [label=<entropy = 0.0<br/>samples = 15<br/>value = [0, 15]>, fillcolor="#399de5"] ;
225 -> 227 ;
228 [label=<entropy = 0.459<br/>samples = 31<br/>value = [3, 28]>, fillcolor="#4ea8e8"] ;
224 -> 228 ;
229 [label=<X<SUB>21</SUB> &le; 0.814<br/>entropy = 0.734<br/>samples = 233<br/>value = [48, 185]>, fillcolor="#6cb6ec"] ;
211 -> 229 ;
230 [label=<X<SUB>29</SUB> &le; 0.0<br/>entropy = 0.913<br/>samples = 140<br/>value = [46, 94]>, fillcolor="#9acdf2"] ;
229 -> 230 ;
231 [label=<entropy = 0.127<br/>samples = 57<br/>value = [1, 56]>, fillcolor="#3d9fe5"] ;
230 -> 231 ;
232 [label=<entropy = 0.995<br/>samples = 83<br/>value = [45, 38]>, fillcolor="#fbebe0"] ;
230 -> 232 ;
233 [label=<entropy = 0.15<br/>samples = 93<br/>value = [2, 91]>, fillcolor="#3d9fe6"] ;
229 -> 233 ;
234 [label=<X<SUB>34</SUB> &le; 0.911<br/>entropy = 0.548<br/>samples = 229<br/>value = [29, 200]>, fillcolor="#56abe9"] ;
210 -> 234 ;
235 [label=<entropy = 0.0<br/>samples = 103<br/>value = [0, 103]>, fillcolor="#399de5"] ;
234 -> 235 ;
236 [label=<entropy = 0.778<br/>samples = 126<br/>value = [29, 97]>, fillcolor="#74baed"] ;
234 -> 236 ;
237 [label=<X<SUB>0</SUB> &le; 0.742<br/>entropy = 0.534<br/>samples = 419<br/>value = [51, 368]>, fillcolor="#54abe9"] ;
209 -> 237 ;
238 [label=<entropy = 0.332<br/>samples = 327<br/>value = [20, 307]>, fillcolor="#46a3e7"] ;
237 -> 238 ;
239 [label=<entropy = 0.922<br/>samples = 92<br/>value = [31, 61]>, fillcolor="#9ecff2"] ;
237 -> 239 ;
240 [label=<entropy = 0.353<br/>samples = 331<br/>value = [22, 309]>, fillcolor="#47a4e7"] ;
208 -> 240 ;
241 [label=<X<SUB>11</SUB> &le; 0.649<br/>entropy = 0.427<br/>samples = 883<br/>value = [77, 806]>, fillcolor="#4ca6e7"] ;
207 -> 241 ;
242 [label=<X<SUB>3</SUB> &le; 0.028<br/>entropy = 0.526<br/>samples = 623<br/>value = [74, 549]>, fillcolor="#54aae9"] ;
241 -> 242 ;
243 [label=<X<SUB>4</SUB> &le; 0.434<br/>entropy = 0.7<br/>samples = 296<br/>value = [56, 240]>, fillcolor="#67b4eb"] ;
242 -> 243 ;
244 [label=<entropy = 0.959<br/>samples = 105<br/>value = [40, 65]>, fillcolor="#b3d9f5"] ;
243 -> 244 ;
245 [label=<entropy = 0.415<br/>samples = 191<br/>value = [16, 175]>, fillcolor="#4ba6e7"] ;
243 -> 245 ;
246 [label=<X<SUB>0</SUB> &le; 0.741<br/>entropy = 0.307<br/>samples = 327<br/>value = [18, 309]>, fillcolor="#45a3e7"] ;
242 -> 246 ;
247 [label=<entropy = 0.133<br/>samples = 269<br/>value = [5, 264]>, fillcolor="#3d9fe5"] ;
246 -> 247 ;
248 [label=<entropy = 0.768<br/>samples = 58<br/>value = [13, 45]>, fillcolor="#72b9ed"] ;
246 -> 248 ;
249 [label=<entropy = 0.091<br/>samples = 260<br/>value = [3, 257]>, fillcolor="#3b9ee5"] ;
241 -> 249 ;
250 [label=<X<SUB>0</SUB> &le; 0.971<br/>entropy = 0.997<br/>samples = 9812<br/>value = [5232, 4580]>, fillcolor="#fcefe6"] ;
182 -> 250 ;
251 [label=<X<SUB>0</SUB> &le; 0.933<br/>entropy = 0.976<br/>samples = 8713<br/>value = [5147, 3566]>, fillcolor="#f7d8c2"] ;
250 -> 251 ;
252 [label=<X<SUB>0</SUB> &le; 0.858<br/>entropy = 0.995<br/>samples = 7224<br/>value = [3914, 3310]>, fillcolor="#fbece0"] ;
251 -> 252 ;
253 [label=<X<SUB>0</SUB> &le; 0.774<br/>entropy = 0.89<br/>samples = 4293<br/>value = [2973, 1320]>, fillcolor="#f1b991"] ;
252 -> 253 ;
254 [label=<X<SUB>34</SUB> &le; 0.873<br/>entropy = 0.966<br/>samples = 1071<br/>value = [419, 652]>, fillcolor="#b8dcf6"] ;
253 -> 254 ;
255 [label=<X<SUB>40</SUB> &le; 0.999<br/>entropy = 0.994<br/>samples = 860<br/>value = [390, 470]>, fillcolor="#ddeefb"] ;
254 -> 255 ;
256 [label=<X<SUB>40</SUB> &le; 0.992<br/>entropy = 0.985<br/>samples = 823<br/>value = [353, 470]>, fillcolor="#cee7f9"] ;
255 -> 256 ;
257 [label=<X<SUB>43</SUB> &le; 0.0<br/>entropy = 0.996<br/>samples = 754<br/>value = [350, 404]>, fillcolor="#e5f2fc"] ;
256 -> 257 ;
258 [label=<entropy = 0.0<br/>samples = 42<br/>value = [42, 0]>, fillcolor="#e58139"] ;
257 -> 258 ;
259 [label=<X<SUB>42</SUB> &le; 0.008<br/>entropy = 0.987<br/>samples = 712<br/>value = [308, 404]>, fillcolor="#d0e8f9"] ;
257 -> 259 ;
260 [label=<X<SUB>42</SUB> &le; 0.005<br/>entropy = 0.82<br/>samples = 278<br/>value = [71, 207]>, fillcolor="#7dbfee"] ;
259 -> 260 ;
261 [label=<X<SUB>23</SUB> &le; 0.001<br/>entropy = 0.951<br/>samples = 192<br/>value = [71, 121]>, fillcolor="#add7f4"] ;
260 -> 261 ;
262 [label=<entropy = 0.0<br/>samples = 33<br/>value = [0, 33]>, fillcolor="#399de5"] ;
261 -> 262 ;
263 [label=<X<SUB>32</SUB> &le; 0.789<br/>entropy = 0.992<br/>samples = 159<br/>value = [71, 88]>, fillcolor="#d9ecfa"] ;
261 -> 263 ;
264 [label=<entropy = 0.925<br/>samples = 94<br/>value = [62, 32]>, fillcolor="#f2c29f"] ;
263 -> 264 ;
265 [label=<X<SUB>0</SUB> &le; 0.753<br/>entropy = 0.58<br/>samples = 65<br/>value = [9, 56]>, fillcolor="#59ade9"] ;
263 -> 265 ;
266 [label=<entropy = 1.0<br/>samples = 18<br/>value = [9, 9]>, fillcolor="#ffffff"] ;
265 -> 266 ;
267 [label=<entropy = 0.0<br/>samples = 47<br/>value = [0, 47]>, fillcolor="#399de5"] ;
265 -> 267 ;
268 [label=<entropy = 0.0<br/>samples = 86<br/>value = [0, 86]>, fillcolor="#399de5"] ;
260 -> 268 ;
269 [label=<X<SUB>1</SUB> &le; 0.986<br/>entropy = 0.994<br/>samples = 434<br/>value = [237, 197]>, fillcolor="#fbeade"] ;
259 -> 269 ;
270 [label=<X<SUB>34</SUB> &le; 0.561<br/>entropy = 0.964<br/>samples = 371<br/>value = [227, 144]>, fillcolor="#f5d1b7"] ;
269 -> 270 ;
271 [label=<X<SUB>23</SUB> &le; 0.05<br/>entropy = 0.998<br/>samples = 274<br/>value = [144, 130]>, fillcolor="#fcf3ec"] ;
270 -> 271 ;
272 [label=<entropy = 0.844<br/>samples = 103<br/>value = [75, 28]>, fillcolor="#efb083"] ;
271 -> 272 ;
273 [label=<X<SUB>42</SUB> &le; 0.042<br/>entropy = 0.973<br/>samples = 171<br/>value = [69, 102]>, fillcolor="#bfdff7"] ;
271 -> 273 ;
274 [label=<X<SUB>35</SUB> &le; 0.54<br/>entropy = 0.966<br/>samples = 97<br/>value = [59, 38]>, fillcolor="#f6d2b9"] ;
273 -> 274 ;
275 [label=<entropy = 0.206<br/>samples = 31<br/>value = [30, 1]>, fillcolor="#e68540"] ;
274 -> 275 ;
276 [label=<entropy = 0.989<br/>samples = 66<br/>value = [29, 37]>, fillcolor="#d4eaf9"] ;
274 -> 276 ;
277 [label=<entropy = 0.571<br/>samples = 74<br/>value = [10, 64]>, fillcolor="#58ace9"] ;
273 -> 277 ;
278 [label=<entropy = 0.595<br/>samples = 97<br/>value = [83, 14]>, fillcolor="#e9965a"] ;
270 -> 278 ;
279 [label=<entropy = 0.631<br/>samples = 63<br/>value = [10, 53]>, fillcolor="#5eafea"] ;
269 -> 279 ;
280 [label=<entropy = 0.258<br/>samples = 69<br/>value = [3, 66]>, fillcolor="#42a1e6"] ;
256 -> 280 ;
281 [label=<entropy = 0.0<br/>samples = 37<br/>value = [37, 0]>, fillcolor="#e58139"] ;
255 -> 281 ;
282 [label=<X<SUB>1</SUB> &le; 0.842<br/>entropy = 0.577<br/>samples = 211<br/>value = [29, 182]>, fillcolor="#59ade9"] ;
254 -> 282 ;
283 [label=<entropy = 0.857<br/>samples = 96<br/>value = [27, 69]>, fillcolor="#86c3ef"] ;
282 -> 283 ;
284 [label=<entropy = 0.127<br/>samples = 115<br/>value = [2, 113]>, fillcolor="#3d9fe5"] ;
282 -> 284 ;
285 [label=<X<SUB>0</SUB> &le; 0.814<br/>entropy = 0.736<br/>samples = 3222<br/>value = [2554, 668]>, fillcolor="#eca26d"] ;
253 -> 285 ;
286 [label=<X<SUB>1</SUB> &le; 0.031<br/>entropy = 0.532<br/>samples = 1506<br/>value = [1324, 182]>, fillcolor="#e99254"] ;
285 -> 286 ;
287 [label=<X<SUB>4</SUB> &le; 0.484<br/>entropy = 0.964<br/>samples = 170<br/>value = [104, 66]>, fillcolor="#f6d1b7"] ;
286 -> 287 ;
288 [label=<entropy = 0.0<br/>samples = 69<br/>value = [69, 0]>, fillcolor="#e58139"] ;
287 -> 288 ;
289 [label=<entropy = 0.931<br/>samples = 101<br/>value = [35, 66]>, fillcolor="#a2d1f3"] ;
287 -> 289 ;
290 [label=<X<SUB>0</SUB> &le; 0.796<br/>entropy = 0.426<br/>samples = 1336<br/>value = [1220, 116]>, fillcolor="#e78d4c"] ;
286 -> 290 ;
291 [label=<X<SUB>9</SUB> &le; 0.744<br/>entropy = 0.552<br/>samples = 687<br/>value = [599, 88]>, fillcolor="#e99456"] ;
290 -> 291 ;
292 [label=<X<SUB>14</SUB> &le; 0.322<br/>entropy = 0.408<br/>samples = 588<br/>value = [540, 48]>, fillcolor="#e78c4b"] ;
291 -> 292 ;
293 [label=<entropy = 0.151<br/>samples = 367<br/>value = [359, 8]>, fillcolor="#e6843d"] ;
292 -> 293 ;
294 [label=<entropy = 0.682<br/>samples = 221<br/>value = [181, 40]>, fillcolor="#eb9d65"] ;
292 -> 294 ;
295 [label=<X<SUB>7</SUB> &le; 0.86<br/>entropy = 0.973<br/>samples = 99<br/>value = [59, 40]>, fillcolor="#f7d6bf"] ;
291 -> 295 ;
296 [label=<entropy = 0.605<br/>samples = 27<br/>value = [4, 23]>, fillcolor="#5baeea"] ;
295 -> 296 ;
297 [label=<entropy = 0.789<br/>samples = 72<br/>value = [55, 17]>, fillcolor="#eda876"] ;
295 -> 297 ;
298 [label=<X<SUB>0</SUB> &le; 0.806<br/>entropy = 0.257<br/>samples = 649<br/>value = [621, 28]>, fillcolor="#e68742"] ;
290 -> 298 ;
299 [label=<entropy = 0.0<br/>samples = 351<br/>value = [351, 0]>, fillcolor="#e58139"] ;
298 -> 299 ;
300 [label=<X<SUB>9</SUB> &le; 0.834<br/>entropy = 0.45<br/>samples = 298<br/>value = [270, 28]>, fillcolor="#e88e4e"] ;
298 -> 300 ;
301 [label=<entropy = 0.386<br/>samples = 292<br/>value = [270, 22]>, fillcolor="#e78b49"] ;
300 -> 301 ;
302 [label=<entropy = 0.0<br/>samples = 6<br/>value = [0, 6]>, fillcolor="#399de5"] ;
300 -> 302 ;
303 [label=<X<SUB>0</SUB> &le; 0.82<br/>entropy = 0.86<br/>samples = 1716<br/>value = [1230, 486]>, fillcolor="#efb387"] ;
285 -> 303 ;
304 [label=<entropy = 0.959<br/>samples = 257<br/>value = [98, 159]>, fillcolor="#b3d9f5"] ;
303 -> 304 ;
305 [label=<X<SUB>28</SUB> &le; 0.913<br/>entropy = 0.768<br/>samples = 1459<br/>value = [1132, 327]>, fillcolor="#eda572"] ;
303 -> 305 ;
306 [label=<X<SUB>2</SUB> &le; 0.999<br/>entropy = 0.727<br/>samples = 1387<br/>value = [1106, 281]>, fillcolor="#eca16b"] ;
305 -> 306 ;
307 [label=<X<SUB>11</SUB> &le; 0.665<br/>entropy = 0.667<br/>samples = 1228<br/>value = [1014, 214]>, fillcolor="#ea9c63"] ;
306 -> 307 ;
308 [label=<X<SUB>0</SUB> &le; 0.855<br/>entropy = 0.623<br/>samples = 1153<br/>value = [974, 179]>, fillcolor="#ea985d"] ;
307 -> 308 ;
309 [label=<X<SUB>13</SUB> &le; 0.264<br/>entropy = 0.568<br/>samples = 1067<br/>value = [924, 143]>, fillcolor="#e99458"] ;
308 -> 309 ;
310 [label=<entropy = 0.349<br/>samples = 488<br/>value = [456, 32]>, fillcolor="#e78a47"] ;
309 -> 310 ;
311 [label=<entropy = 0.705<br/>samples = 579<br/>value = [468, 111]>, fillcolor="#eb9f68"] ;
309 -> 311 ;
312 [label=<entropy = 0.981<br/>samples = 86<br/>value = [50, 36]>, fillcolor="#f8dcc8"] ;
308 -> 312 ;
313 [label=<entropy = 0.997<br/>samples = 75<br/>value = [40, 35]>, fillcolor="#fcefe6"] ;
307 -> 313 ;
314 [label=<entropy = 0.982<br/>samples = 159<br/>value = [92, 67]>, fillcolor="#f8ddc9"] ;
306 -> 314 ;
315 [label=<entropy = 0.944<br/>samples = 72<br/>value = [26, 46]>, fillcolor="#a9d4f4"] ;
305 -> 315 ;
316 [label=<X<SUB>1</SUB> &le; 0.063<br/>entropy = 0.906<br/>samples = 2931<br/>value = [941, 1990]>, fillcolor="#97cbf1"] ;
252 -> 316 ;
317 [label=<X<SUB>17</SUB> &le; 0.297<br/>entropy = 0.818<br/>samples = 232<br/>value = [173, 59]>, fillcolor="#eeac7d"] ;
316 -> 317 ;
318 [label=<entropy = 0.536<br/>samples = 147<br/>value = [129, 18]>, fillcolor="#e99355"] ;
317 -> 318 ;
319 [label=<X<SUB>4</SUB> &le; 0.496<br/>entropy = 0.999<br/>samples = 85<br/>value = [44, 41]>, fillcolor="#fdf6f2"] ;
317 -> 319 ;
320 [label=<entropy = 0.639<br/>samples = 37<br/>value = [6, 31]>, fillcolor="#5fb0ea"] ;
319 -> 320 ;
321 [label=<entropy = 0.738<br/>samples = 48<br/>value = [38, 10]>, fillcolor="#eca26d"] ;
319 -> 321 ;
322 [label=<X<SUB>2</SUB> &le; 0.11<br/>entropy = 0.862<br/>samples = 2699<br/>value = [768, 1931]>, fillcolor="#88c4ef"] ;
316 -> 322 ;
323 [label=<X<SUB>4</SUB> &le; 0.479<br/>entropy = 0.675<br/>samples = 1137<br/>value = [202, 935]>, fillcolor="#64b2eb"] ;
322 -> 323 ;
324 [label=<X<SUB>42</SUB> &le; 0.001<br/>entropy = 0.869<br/>samples = 445<br/>value = [129, 316]>, fillcolor="#8ac5f0"] ;
323 -> 324 ;
325 [label=<entropy = 0.164<br/>samples = 83<br/>value = [2, 81]>, fillcolor="#3e9fe6"] ;
324 -> 325 ;
326 [label=<X<SUB>47</SUB> &le; 0.375<br/>entropy = 0.935<br/>samples = 362<br/>value = [127, 235]>, fillcolor="#a4d2f3"] ;
324 -> 326 ;
327 [label=<X<SUB>22</SUB> &le; 0.525<br/>entropy = 0.992<br/>samples = 275<br/>value = [123, 152]>, fillcolor="#d9ecfa"] ;
326 -> 327 ;
328 [label=<entropy = 0.7<br/>samples = 74<br/>value = [60, 14]>, fillcolor="#eb9e67"] ;
327 -> 328 ;
329 [label=<X<SUB>22</SUB> &le; 0.837<br/>entropy = 0.897<br/>samples = 201<br/>value = [63, 138]>, fillcolor="#93caf1"] ;
327 -> 329 ;
330 [label=<entropy = 0.353<br/>samples = 120<br/>value = [8, 112]>, fillcolor="#47a4e7"] ;
329 -> 330 ;
331 [label=<entropy = 0.905<br/>samples = 81<br/>value = [55, 26]>, fillcolor="#f1bd97"] ;
329 -> 331 ;
332 [label=<entropy = 0.269<br/>samples = 87<br/>value = [4, 83]>, fillcolor="#43a2e6"] ;
326 -> 332 ;
333 [label=<entropy = 0.486<br/>samples = 692<br/>value = [73, 619]>, fillcolor="#50a9e8"] ;
323 -> 333 ;
334 [label=<X<SUB>11</SUB> &le; 0.7<br/>entropy = 0.945<br/>samples = 1562<br/>value = [566, 996]>, fillcolor="#aad5f4"] ;
322 -> 334 ;
335 [label=<X<SUB>4</SUB> &le; 0.578<br/>entropy = 0.957<br/>samples = 1494<br/>value = [565, 929]>, fillcolor="#b1d9f5"] ;
334 -> 335 ;
336 [label=<entropy = 0.994<br/>samples = 766<br/>value = [348, 418]>, fillcolor="#deeffb"] ;
335 -> 336 ;
337 [label=<X<SUB>10</SUB> &le; 0.831<br/>entropy = 0.879<br/>samples = 728<br/>value = [217, 511]>, fillcolor="#8dc7f0"] ;
335 -> 337 ;
338 [label=<X<SUB>0</SUB> &le; 0.88<br/>entropy = 0.828<br/>samples = 652<br/>value = [170, 482]>, fillcolor="#7fc0ee"] ;
337 -> 338 ;
339 [label=<X<SUB>2</SUB> &le; 0.589<br/>entropy = 0.471<br/>samples = 149<br/>value = [15, 134]>, fillcolor="#4fa8e8"] ;
338 -> 339 ;
340 [label=<entropy = 0.285<br/>samples = 141<br/>value = [7, 134]>, fillcolor="#43a2e6"] ;
339 -> 340 ;
341 [label=<entropy = 0.0<br/>samples = 8<br/>value = [8, 0]>, fillcolor="#e58139"] ;
339 -> 341 ;
342 [label=<X<SUB>2</SUB> &le; 0.91<br/>entropy = 0.891<br/>samples = 503<br/>value = [155, 348]>, fillcolor="#91c9f1"] ;
338 -> 342 ;
343 [label=<X<SUB>9</SUB> &le; 0.347<br/>entropy = 0.999<br/>samples = 238<br/>value = [115, 123]>, fillcolor="#f2f9fd"] ;
342 -> 343 ;
344 [label=<entropy = 0.258<br/>samples = 46<br/>value = [44, 2]>, fillcolor="#e68742"] ;
343 -> 344 ;
345 [label=<entropy = 0.951<br/>samples = 192<br/>value = [71, 121]>, fillcolor="#add7f4"] ;
343 -> 345 ;
346 [label=<X<SUB>20</SUB> &le; 0.415<br/>entropy = 0.612<br/>samples = 265<br/>value = [40, 225]>, fillcolor="#5caeea"] ;
342 -> 346 ;
347 [label=<entropy = 0.501<br/>samples = 245<br/>value = [27, 218]>, fillcolor="#52a9e8"] ;
346 -> 347 ;
348 [label=<entropy = 0.934<br/>samples = 20<br/>value = [13, 7]>, fillcolor="#f3c5a4"] ;
346 -> 348 ;
349 [label=<entropy = 0.959<br/>samples = 76<br/>value = [47, 29]>, fillcolor="#f5cfb3"] ;
337 -> 349 ;
350 [label=<entropy = 0.111<br/>samples = 68<br/>value = [1, 67]>, fillcolor="#3c9ee5"] ;
334 -> 350 ;
351 [label=<X<SUB>0</SUB> &le; 0.962<br/>entropy = 0.662<br/>samples = 1489<br/>value = [1233, 256]>, fillcolor="#ea9b62"] ;
251 -> 351 ;
352 [label=<X<SUB>0</SUB> &le; 0.939<br/>entropy = 0.232<br/>samples = 1136<br/>value = [1093, 43]>, fillcolor="#e68641"] ;
351 -> 352 ;
353 [label=<X<SUB>17</SUB> &le; 0.123<br/>entropy = 0.501<br/>samples = 254<br/>value = [226, 28]>, fillcolor="#e89152"] ;
352 -> 353 ;
354 [label=<entropy = 0.0<br/>samples = 8<br/>value = [0, 8]>, fillcolor="#399de5"] ;
353 -> 354 ;
355 [label=<entropy = 0.407<br/>samples = 246<br/>value = [226, 20]>, fillcolor="#e78c4b"] ;
353 -> 355 ;
356 [label=<X<SUB>0</SUB> &le; 0.96<br/>entropy = 0.124<br/>samples = 882<br/>value = [867, 15]>, fillcolor="#e5833c"] ;
352 -> 356 ;
357 [label=<entropy = 0.014<br/>samples = 795<br/>value = [794, 1]>, fillcolor="#e58139"] ;
356 -> 357 ;
358 [label=<X<SUB>4</SUB> &le; 0.345<br/>entropy = 0.637<br/>samples = 87<br/>value = [73, 14]>, fillcolor="#ea995f"] ;
356 -> 358 ;
359 [label=<entropy = 0.852<br/>samples = 18<br/>value = [5, 13]>, fillcolor="#85c3ef"] ;
358 -> 359 ;
360 [label=<entropy = 0.109<br/>samples = 69<br/>value = [68, 1]>, fillcolor="#e5833c"] ;
358 -> 360 ;
361 [label=<X<SUB>4</SUB> &le; 0.525<br/>entropy = 0.969<br/>samples = 353<br/>value = [140, 213]>, fillcolor="#bbddf6"] ;
351 -> 361 ;
362 [label=<entropy = 0.305<br/>samples = 165<br/>value = [9, 156]>, fillcolor="#44a3e6"] ;
361 -> 362 ;
363 [label=<X<SUB>14</SUB> &le; 0.242<br/>entropy = 0.885<br/>samples = 188<br/>value = [131, 57]>, fillcolor="#f0b88f"] ;
361 -> 363 ;
364 [label=<entropy = 0.978<br/>samples = 138<br/>value = [81, 57]>, fillcolor="#f7dac4"] ;
363 -> 364 ;
365 [label=<entropy = 0.0<br/>samples = 50<br/>value = [50, 0]>, fillcolor="#e58139"] ;
363 -> 365 ;
366 [label=<X<SUB>0</SUB> &le; 0.983<br/>entropy = 0.393<br/>samples = 1099<br/>value = [85, 1014]>, fillcolor="#4aa5e7"] ;
250 -> 366 ;
367 [label=<X<SUB>4</SUB> &le; 0.572<br/>entropy = 0.731<br/>samples = 415<br/>value = [85, 330]>, fillcolor="#6cb6ec"] ;
366 -> 367 ;
368 [label=<X<SUB>5</SUB> &le; 0.891<br/>entropy = 0.137<br/>samples = 208<br/>value = [4, 204]>, fillcolor="#3d9fe6"] ;
367 -> 368 ;
369 [label=<entropy = 0.0<br/>samples = 201<br/>value = [0, 201]>, fillcolor="#399de5"] ;
368 -> 369 ;
370 [label=<entropy = 0.985<br/>samples = 7<br/>value = [4, 3]>, fillcolor="#f8e0ce"] ;
368 -> 370 ;
371 [label=<X<SUB>9</SUB> &le; 0.849<br/>entropy = 0.966<br/>samples = 207<br/>value = [81, 126]>, fillcolor="#b8dcf6"] ;
367 -> 371 ;
372 [label=<X<SUB>36</SUB> &le; 0.889<br/>entropy = 0.998<br/>samples = 146<br/>value = [77, 69]>, fillcolor="#fcf2ea"] ;
371 -> 372 ;
373 [label=<entropy = 0.973<br/>samples = 129<br/>value = [77, 52]>, fillcolor="#f7d6bf"] ;
372 -> 373 ;
374 [label=<entropy = 0.0<br/>samples = 17<br/>value = [0, 17]>, fillcolor="#399de5"] ;
372 -> 374 ;
375 [label=<entropy = 0.349<br/>samples = 61<br/>value = [4, 57]>, fillcolor="#47a4e7"] ;
371 -> 375 ;
376 [label=<entropy = 0.0<br/>samples = 684<br/>value = [0, 684]>, fillcolor="#399de5"] ;
366 -> 376 ;
}