digraph Tree {
node [shape=box, style="filled, rounded", color="black", fontname="helvetica"] ;
edge [fontname="helvetica"] ;
0 [label=<X<SUB>0</SUB> &le; 0.068<br/>entropy = 1.0<br/>samples = 38910<br/>value = [19455, 19455]>, fillcolor="#ffffff"] ;
1 [label=<X<SUB>2</SUB> &le; 0.625<br/>entropy = 0.167<br/>samples = 2671<br/>value = [66, 2605]>, fillcolor="#3e9fe6"] ;
0 -> 1 [labeldistance=2.5, labelangle=45, headlabel="True"] ;
2 [label=<entropy = 0.0<br/>samples = 1337<br/>value = [0, 1337]>, fillcolor="#399de5"] ;
1 -> 2 ;
3 [label=<X<SUB>7</SUB> &le; 0.601<br/>entropy = 0.284<br/>samples = 1334<br/>value = [66, 1268]>, fillcolor="#43a2e6"] ;
1 -> 3 ;
4 [label=<X<SUB>0</SUB> &le; 0.067<br/>entropy = 0.026<br/>samples = 757<br/>value = [2, 755]>, fillcolor="#3a9de5"] ;
3 -> 4 ;
5 [label=<entropy = 0.0<br/>samples = 747<br/>value = [0, 747]>, fillcolor="#399de5"] ;
4 -> 5 ;
6 [label=<X<SUB>9</SUB> &le; 0.376<br/>entropy = 0.722<br/>samples = 10<br/>value = [2, 8]>, fillcolor="#6ab6ec"] ;
4 -> 6 ;
7 [label=<entropy = 0.0<br/>samples = 2<br/>value = [2, 0]>, fillcolor="#e58139"] ;
6 -> 7 ;
8 [label=<entropy = 0.0<br/>samples = 8<br/>value = [0, 8]>, fillcolor="#399de5"] ;
6 -> 8 ;
9 [label=<X<SUB>11</SUB> &le; 0.558<br/>entropy = 0.503<br/>samples = 577<br/>value = [64, 513]>, fillcolor="#52a9e8"] ;
3 -> 9 ;
10 [label=<X<SUB>1</SUB> &le; 0.375<br/>entropy = 0.739<br/>samples = 254<br/>value = [53, 201]>, fillcolor="#6db7ec"] ;
9 -> 10 ;
11 [label=<X<SUB>34</SUB> &le; 0.833<br/>entropy = 0.957<br/>samples = 119<br/>value = [45, 74]>, fillcolor="#b1d9f5"] ;
10 -> 11 ;
12 [label=<X<SUB>4</SUB> &le; 0.287<br/>entropy = 0.99<br/>samples = 100<br/>value = [44, 56]>, fillcolor="#d5eaf9"] ;
11 -> 12 ;
13 [label=<entropy = 0.0<br/>samples = 10<br/>value = [0, 10]>, fillcolor="#399de5"] ;
12 -> 13 ;
14 [label=<X<SUB>29</SUB> &le; 0.0<br/>entropy = 1.0<br/>samples = 90<br/>value = [44, 46]>, fillcolor="#f6fbfe"] ;
12 -> 14 ;
15 [label=<X<SUB>3</SUB> &le; 0.095<br/>entropy = 0.821<br/>samples = 39<br/>value = [10, 29]>, fillcolor="#7dbfee"] ;
14 -> 15 ;
16 [label=<X<SUB>17</SUB> &le; 0.313<br/>entropy = 0.661<br/>samples = 35<br/>value = [6, 29]>, fillcolor="#62b1ea"] ;
15 -> 16 ;
17 [label=<X<SUB>17</SUB> &le; 0.244<br/>entropy = 0.954<br/>samples = 8<br/>value = [5, 3]>, fillcolor="#f5cdb0"] ;
16 -> 17 ;
18 [label=<entropy = 0.0<br/>samples = 3<br/>value = [0, 3]>, fillcolor="#399de5"] ;
17 -> 18 ;
19 [label=<entropy = 0.0<br/>samples = 5<br/>value = [5, 0]>, fillcolor="#e58139"] ;
17 -> 19 ;
20 [label=<X<SUB>22</SUB> &le; 0.031<br/>entropy = 0.229<br/>samples = 27<br/>value = [1, 26]>, fillcolor="#41a1e6"] ;
16 -> 20 ;
21 [label=<X<SUB>22</SUB> &le; 0.01<br/>entropy = 1.0<br/>samples = 2<br/>value = [1, 1]>, fillcolor="#ffffff"] ;
20 -> 21 ;
22 [label=<entropy = 0.0<br/>samples = 1<br/>value = [0, 1]>, fillcolor="#399de5"] ;
21 -> 22 ;
23 [label=<entropy = 0.0<br/>samples = 1<br/>value = [1, 0]>, fillcolor="#e58139"] ;
21 -> 23 ;
24 [label=<entropy = 0.0<br/>samples = 25<br/>value = [0, 25]>, fillcolor="#399de5"] ;
20 -> 24 ;
25 [label=<entropy = 0.0<br/>samples = 4<br/>value = [4, 0]>, fillcolor="#e58139"] ;
15 -> 25 ;
26 [label=<X<SUB>4</SUB> &le; 0.608<br/>entropy = 0.918<br/>samples = 51<br/>value = [34, 17]>, fillcolor="#f2c09c"] ;
14 -> 26 ;
27 [label=<X<SUB>40</SUB> &le; 0.404<br/>entropy = 0.979<br/>samples = 41<br/>value = [24, 17]>, fillcolor="#f7dac5"] ;
26 -> 27 ;
28 [label=<X<SUB>19</SUB> &le; 0.597<br/>entropy = 0.469<br/>samples = 10<br/>value = [1, 9]>, fillcolor="#4fa8e8"] ;
27 -> 28 ;
29 [label=<entropy = 0.0<br/>samples = 9<br/>value = [0, 9]>, fillcolor="#399de5"] ;
28 -> 29 ;
30 [label=<entropy = 0.0<br/>samples = 1<br/>value = [1, 0]>, fillcolor="#e58139"] ;
28 -> 30 ;
31 [label=<X<SUB>38</SUB> &le; 0.097<br/>entropy = 0.824<br/>samples = 31<br/>value = [23, 8]>, fillcolor="#eead7e"] ;
27 -> 31 ;
32 [label=<entropy = 0.0<br/>samples = 11<br/>value = [11, 0]>, fillcolor="#e58139"] ;
31 -> 32 ;
33 [label=<X<SUB>27</SUB> &le; 0.672<br/>entropy = 0.971<br/>samples = 20<br/>value = [12, 8]>, fillcolor="#f6d5bd"] ;
31 -> 33 ;
34 [label=<X<SUB>14</SUB> &le; 0.35<br/>entropy = 0.592<br/>samples = 7<br/>value = [1, 6]>, fillcolor="#5aade9"] ;
33 -> 34 ;
35 [label=<X<SUB>3</SUB> &le; 0.003<br/>entropy = 1.0<br/>samples = 2<br/>value = [1, 1]>, fillcolor="#ffffff"] ;
34 -> 35 ;
36 [label=<entropy = 0.0<br/>samples = 1<br/>value = [1, 0]>, fillcolor="#e58139"] ;
35 -> 36 ;
37 [label=<entropy = 0.0<br/>samples = 1<br/>value = [0, 1]>, fillcolor="#399de5"] ;
35 -> 37 ;
38 [label=<entropy = 0.0<br/>samples = 5<br/>value = [0, 5]>, fillcolor="#399de5"] ;
34 -> 38 ;
39 [label=<X<SUB>3</SUB> &le; 0.032<br/>entropy = 0.619<br/>samples = 13<br/>value = [11, 2]>, fillcolor="#ea985d"] ;
33 -> 39 ;
40 [label=<entropy = 0.0<br/>samples = 9<br/>value = [9, 0]>, fillcolor="#e58139"] ;
39 -> 40 ;
41 [label=<X<SUB>13</SUB> &le; 0.373<br/>entropy = 1.0<br/>samples = 4<br/>value = [2, 2]>, fillcolor="#ffffff"] ;
39 -> 41 ;
42 [label=<entropy = 0.0<br/>samples = 2<br/>value = [2, 0]>, fillcolor="#e58139"] ;
41 -> 42 ;
43 [label=<entropy = 0.0<br/>samples = 2<br/>value = [0, 2]>, fillcolor="#399de5"] ;
41 -> 43 ;
44 [label=<entropy = 0.0<br/>samples = 10<br/>value = [10, 0]>, fillcolor="#e58139"] ;
26 -> 44 ;
45 [label=<X<SUB>3</SUB> &le; 0.173<br/>entropy = 0.297<br/>samples = 19<br/>value = [1, 18]>, fillcolor="#44a2e6"] ;
11 -> 45 ;
46 [label=<entropy = 0.0<br/>samples = 18<br/>value = [0, 18]>, fillcolor="#399de5"] ;
45 -> 46 ;
47 [label=<entropy = 0.0<br/>samples = 1<br/>value = [1, 0]>, fillcolor="#e58139"] ;
45 -> 47 ;
48 [label=<X<SUB>6</SUB> &le; 0.537<br/>entropy = 0.324<br/>samples = 135<br/>value = [8, 127]>, fillcolor="#45a3e7"] ;
10 -> 48 ;
49 [label=<X<SUB>3</SUB> &le; 0.004<br/>entropy = 0.544<br/>samples = 64<br/>value = [8, 56]>, fillcolor="#55abe9"] ;
48 -> 49 ;
50 [label=<X<SUB>48</SUB> &le; 0.75<br/>entropy = 0.954<br/>samples = 8<br/>value = [5, 3]>, fillcolor="#f5cdb0"] ;
49 -> 50 ;
51 [label=<entropy = 0.0<br/>samples = 5<br/>value = [5, 0]>, fillcolor="#e58139"] ;
50 -> 51 ;
52 [label=<entropy = 0.0<br/>samples = 3<br/>value = [0, 3]>, fillcolor="#399de5"] ;
50 -> 52 ;
53 [label=<X<SUB>3</SUB> &le; 0.18<br/>entropy = 0.301<br/>samples = 56<br/>value = [3, 53]>, fillcolor="#44a3e6"] ;
49 -> 53 ;
54 [label=<entropy = 0.0<br/>samples = 48<br/>value = [0, 48]>, fillcolor="#399de5"] ;
53 -> 54 ;
55 [label=<X<SUB>20</SUB> &le; 0.319<br/>entropy = 0.954<br/>samples = 8<br/>value = [3, 5]>, fillcolor="#b0d8f5"] ;
53 -> 55 ;
56 [label=<X<SUB>48</SUB> &le; 0.75<br/>entropy = 0.811<br/>samples = 4<br/>value = [3, 1]>, fillcolor="#eeab7b"] ;
55 -> 56 ;
57 [label=<entropy = 0.0<br/>samples = 3<br/>value = [3, 0]>, fillcolor="#e58139"] ;
56 -> 57 ;
58 [label=<entropy = 0.0<br/>samples = 1<br/>value = [0, 1]>, fillcolor="#399de5"] ;
56 -> 58 ;
59 [label=<entropy = 0.0<br/>samples = 4<br/>value = [0, 4]>, fillcolor="#399de5"] ;
55 -> 59 ;
60 [label=<entropy = 0.0<br/>samples = 71<br/>value = [0, 71]>, fillcolor="#399de5"] ;
48 -> 60 ;
61 [label=<X<SUB>20</SUB> &le; 0.181<br/>entropy = 0.214<br/>samples = 323<br/>value = [11, 312]>, fillcolor="#40a0e6"] ;
9 -> 61 ;
62 [label=<X<SUB>10</SUB> &le; 0.533<br/>entropy = 0.845<br/>samples = 22<br/>value = [6, 16]>, fillcolor="#83c2ef"] ;
61 -> 62 ;
63 [label=<entropy = 0.0<br/>samples = 6<br/>value = [6, 0]>, fillcolor="#e58139"] ;
62 -> 63 ;
64 [label=<entropy = 0.0<br/>samples = 16<br/>value = [0, 16]>, fillcolor="#399de5"] ;
62 -> 64 ;
65 [label=<X<SUB>8</SUB> &le; 0.651<br/>entropy = 0.122<br/>samples = 301<br/>value = [5, 296]>, fillcolor="#3c9fe5"] ;
61 -> 65 ;
66 [label=<X<SUB>7</SUB> &le; 0.641<br/>entropy = 0.247<br/>samples = 122<br/>value = [5, 117]>, fillcolor="#41a1e6"] ;
65 -> 66 ;
67 [label=<entropy = 0.0<br/>samples = 98<br/>value = [0, 98]>, fillcolor="#399de5"] ;
66 -> 67 ;
68 [label=<X<SUB>7</SUB> &le; 0.642<br/>entropy = 0.738<br/>samples = 24<br/>value = [5, 19]>, fillcolor="#6db7ec"] ;
66 -> 68 ;
69 [label=<entropy = 0.0<br/>samples = 2<br/>value = [2, 0]>, fillcolor="#e58139"] ;
68 -> 69 ;
70 [label=<X<SUB>5</SUB> &le; 0.383<br/>entropy = 0.575<br/>samples = 22<br/>value = [3, 19]>, fillcolor="#58ace9"] ;
68 -> 70 ;
71 [label=<entropy = 0.0<br/>samples = 17<br/>value = [0, 17]>, fillcolor="#399de5"] ;
70 -> 71 ;
72 [label=<X<SUB>12</SUB> &le; 0.72<br/>entropy = 0.971<br/>samples = 5<br/>value = [3, 2]>, fillcolor="#f6d5bd"] ;
70 -> 72 ;
73 [label=<entropy = 0.0<br/>samples = 3<br/>value = [3, 0]>, fillcolor="#e58139"] ;
72 -> 73 ;
74 [label=<entropy = 0.0<br/>samples = 2<br/>value = [0, 2]>, fillcolor="#399de5"] ;
72 -> 74 ;
75 [label=<entropy = 0.0<br/>samples = 179<br/>value = [0, 179]>, fillcolor="#399de5"] ;
65 -> 75 ;
76 [label=<X<SUB>0</SUB> &le; 0.379<br/>entropy = 0.996<br/>samples = 36239<br/>value = [19389, 16850]>, fillcolor="#fcefe5"] ;
0 -> 76 [labeldistance=2.5, labelangle=-45, headlabel="False"] ;
77 [label=<X<SUB>0</SUB> &le; 0.164<br/>entropy = 0.748<br/>samples = 12243<br/>value = [9631, 2612]>, fillcolor="#eca36f"] ;
76 -> 77 ;
78 [label=<X<SUB>0</SUB> &le; 0.126<br/>entropy = 0.995<br/>samples = 3763<br/>value = [2040, 1723]>, fillcolor="#fbebe0"] ;
77 -> 78 ;
79 [label=<X<SUB>10</SUB> &le; 0.767<br/>entropy = 0.843<br/>samples = 2246<br/>value = [1637, 609]>, fillcolor="#efb083"] ;
78 -> 79 ;
80 [label=<X<SUB>2</SUB> &le; 0.158<br/>entropy = 0.942<br/>samples = 1601<br/>value = [1025, 576]>, fillcolor="#f4c8a8"] ;
79 -> 80 ;
81 [label=<X<SUB>8</SUB> &le; 0.364<br/>entropy = 0.534<br/>samples = 362<br/>value = [318, 44]>, fillcolor="#e99254"] ;
80 -> 81 ;
82 [label=<X<SUB>10</SUB> &le; 0.419<br/>entropy = 0.61<br/>samples = 20<br/>value = [3, 17]>, fillcolor="#5caeea"] ;
81 -> 82 ;
83 [label=<entropy = 0.0<br/>samples = 2<br/>value = [2, 0]>, fillcolor="#e58139"] ;
82 -> 83 ;
84 [label=<X<SUB>43</SUB> &le; 0.0<br/>entropy = 0.31<br/>samples = 18<br/>value = [1, 17]>, fillcolor="#45a3e7"] ;
82 -> 84 ;
85 [label=<entropy = 0.0<br/>samples = 1<br/>value = [1, 0]>, fillcolor="#e58139"] ;
84 -> 85 ;
86 [label=<entropy = 0.0<br/>samples = 17<br/>value = [0, 17]>, fillcolor="#399de5"] ;
84 -> 86 ;
87 [label=<X<SUB>0</SUB> &le; 0.103<br/>entropy = 0.398<br/>samples = 342<br/>value = [315, 27]>, fillcolor="#e78c4a"] ;
81 -> 87 ;
88 [label=<entropy = 0.0<br/>samples = 138<br/>value = [138, 0]>, fillcolor="#e58139"] ;
87 -> 88 ;
89 [label=<X<SUB>23</SUB> &le; 0.589<br/>entropy = 0.564<br/>samples = 204<br/>value = [177, 27]>, fillcolor="#e99457"] ;
87 -> 89 ;
90 [label=<X<SUB>39</SUB> &le; 0.632<br/>entropy = 0.707<br/>samples = 135<br/>value = [109, 26]>, fillcolor="#eb9f68"] ;
89 -> 90 ;
91 [label=<X<SUB>38</SUB> &le; 0.094<br/>entropy = 0.8<br/>samples = 107<br/>value = [81, 26]>, fillcolor="#eda979"] ;
90 -> 91 ;
92 [label=<X<SUB>39</SUB> &le; 0.365<br/>entropy = 0.951<br/>samples = 27<br/>value = [10, 17]>, fillcolor="#add7f4"] ;
91 -> 92 ;
93 [label=<X<SUB>14</SUB> &le; 0.52<br/>entropy = 0.779<br/>samples = 13<br/>value = [10, 3]>, fillcolor="#eda774"] ;
92 -> 93 ;
94 [label=<X<SUB>5</SUB> &le; 0.16<br/>entropy = 0.439<br/>samples = 11<br/>value = [10, 1]>, fillcolor="#e88e4d"] ;
93 -> 94 ;
95 [label=<entropy = 0.0<br/>samples = 1<br/>value = [0, 1]>, fillcolor="#399de5"] ;
94 -> 95 ;
96 [label=<entropy = 0.0<br/>samples = 10<br/>value = [10, 0]>, fillcolor="#e58139"] ;
94 -> 96 ;
97 [label=<entropy = 0.0<br/>samples = 2<br/>value = [0, 2]>, fillcolor="#399de5"] ;
93 -> 97 ;
98 [label=<entropy = 0.0<br/>samples = 14<br/>value = [0, 14]>, fillcolor="#399de5"] ;
92 -> 98 ;
99 [label=<X<SUB>38</SUB> &le; 0.225<br/>entropy = 0.507<br/>samples = 80<br/>value = [71, 9]>, fillcolor="#e89152"] ;
91 -> 99 ;
100 [label=<entropy = 0.0<br/>samples = 42<br/>value = [42, 0]>, fillcolor="#e58139"] ;
99 -> 100 ;
101 [label=<X<SUB>38</SUB> &le; 0.23<br/>entropy = 0.79<br/>samples = 38<br/>value = [29, 9]>, fillcolor="#eda876"] ;
99 -> 101 ;
102 [label=<entropy = 0.0<br/>samples = 4<br/>value = [0, 4]>, fillcolor="#399de5"] ;
101 -> 102 ;
103 [label=<X<SUB>26</SUB> &le; 0.847<br/>entropy = 0.602<br/>samples = 34<br/>value = [29, 5]>, fillcolor="#e9975b"] ;
101 -> 103 ;
104 [label=<entropy = 0.0<br/>samples = 27<br/>value = [27, 0]>, fillcolor="#e58139"] ;
103 -> 104 ;
105 [label=<X<SUB>11</SUB> &le; 0.774<br/>entropy = 0.863<br/>samples = 7<br/>value = [2, 5]>, fillcolor="#88c4ef"] ;
103 -> 105 ;
106 [label=<entropy = 0.0<br/>samples = 5<br/>value = [0, 5]>, fillcolor="#399de5"] ;
105 -> 106 ;
107 [label=<entropy = 0.0<br/>samples = 2<br/>value = [2, 0]>, fillcolor="#e58139"] ;
105 -> 107 ;
108 [label=<entropy = 0.0<br/>samples = 28<br/>value = [28, 0]>, fillcolor="#e58139"] ;
90 -> 108 ;
109 [label=<X<SUB>7</SUB> &le; 0.392<br/>entropy = 0.109<br/>samples = 69<br/>value = [68, 1]>, fillcolor="#e5833c"] ;
89 -> 109 ;
110 [label=<X<SUB>30</SUB> &le; 0.688<br/>entropy = 1.0<br/>samples = 2<br/>value = [1, 1]>, fillcolor="#ffffff"] ;
109 -> 110 ;
111 [label=<entropy = 0.0<br/>samples = 1<br/>value = [1, 0]>, fillcolor="#e58139"] ;
110 -> 111 ;
112 [label=<entropy = 0.0<br/>samples = 1<br/>value = [0, 1]>, fillcolor="#399de5"] ;
110 -> 112 ;
113 [label=<entropy = 0.0<br/>samples = 67<br/>value = [67, 0]>, fillcolor="#e58139"] ;
109 -> 113 ;
114 [label=<X<SUB>4</SUB> &le; 0.358<br/>entropy = 0.986<br/>samples = 1239<br/>value = [707, 532]>, fillcolor="#f9e0ce"] ;
80 -> 114 ;
115 [label=<X<SUB>1</SUB> &le; 0.158<br/>entropy = 0.804<br/>samples = 106<br/>value = [26, 80]>, fillcolor="#79bded"] ;
114 -> 115 ;
116 [label=<entropy = 0.0<br/>samples = 28<br/>value = [0, 28]>, fillcolor="#399de5"] ;
115 -> 116 ;
117 [label=<X<SUB>2</SUB> &le; 0.375<br/>entropy = 0.918<br/>samples = 78<br/>value = [26, 52]>, fillcolor="#9ccef2"] ;
115 -> 117 ;
118 [label=<entropy = 0.0<br/>samples = 14<br/>value = [0, 14]>, fillcolor="#399de5"] ;
117 -> 118 ;
119 [label=<X<SUB>30</SUB> &le; 0.005<br/>entropy = 0.974<br/>samples = 64<br/>value = [26, 38]>, fillcolor="#c0e0f7"] ;
117 -> 119 ;
120 [label=<X<SUB>0</SUB> &le; 0.073<br/>entropy = 1.0<br/>samples = 47<br/>value = [24, 23]>, fillcolor="#fefaf7"] ;
119 -> 120 ;
121 [label=<X<SUB>15</SUB> &le; 0.528<br/>entropy = 0.852<br/>samples = 18<br/>value = [5, 13]>, fillcolor="#85c3ef"] ;
120 -> 121 ;
122 [label=<entropy = 0.0<br/>samples = 10<br/>value = [0, 10]>, fillcolor="#399de5"] ;
121 -> 122 ;
123 [label=<X<SUB>11</SUB> &le; 0.197<br/>entropy = 0.954<br/>samples = 8<br/>value = [5, 3]>, fillcolor="#f5cdb0"] ;
121 -> 123 ;
124 [label=<entropy = 0.0<br/>samples = 3<br/>value = [3, 0]>, fillcolor="#e58139"] ;
123 -> 124 ;
125 [label=<X<SUB>21</SUB> &le; 0.301<br/>entropy = 0.971<br/>samples = 5<br/>value = [2, 3]>, fillcolor="#bddef6"] ;
123 -> 125 ;
126 [label=<X<SUB>27</SUB> &le; 0.362<br/>entropy = 0.918<br/>samples = 3<br/>value = [2, 1]>, fillcolor="#f2c09c"] ;
125 -> 126 ;
127 [label=<entropy = 0.0<br/>samples = 2<br/>value = [2, 0]>, fillcolor="#e58139"] ;
126 -> 127 ;
128 [label=<entropy = 0.0<br/>samples = 1<br/>value = [0, 1]>, fillcolor="#399de5"] ;
126 -> 128 ;
129 [label=<entropy = 0.0<br/>samples = 2<br/>value = [0, 2]>, fillcolor="#399de5"] ;
125 -> 129 ;
130 [label=<X<SUB>13</SUB> &le; 0.263<br/>entropy = 0.929<br/>samples = 29<br/>value = [19, 10]>, fillcolor="#f3c3a1"] ;
120 -> 130 ;
131 [label=<X<SUB>13</SUB> &le; 0.191<br/>entropy = 0.961<br/>samples = 13<br/>value = [5, 8]>, fillcolor="#b5daf5"] ;
130 -> 131 ;
132 [label=<entropy = 0.0<br/>samples = 3<br/>value = [3, 0]>, fillcolor="#e58139"] ;
131 -> 132 ;
133 [label=<X<SUB>10</SUB> &le; 0.225<br/>entropy = 0.722<br/>samples = 10<br/>value = [2, 8]>, fillcolor="#6ab6ec"] ;
131 -> 133 ;
134 [label=<entropy = 0.0<br/>samples = 2<br/>value = [2, 0]>, fillcolor="#e58139"] ;
133 -> 134 ;
135 [label=<entropy = 0.0<br/>samples = 8<br/>value = [0, 8]>, fillcolor="#399de5"] ;
133 -> 135 ;
136 [label=<X<SUB>4</SUB> &le; 0.349<br/>entropy = 0.544<br/>samples = 16<br/>value = [14, 2]>, fillcolor="#e99355"] ;
130 -> 136 ;
137 [label=<X<SUB>3</SUB> &le; 0.0<br/>entropy = 0.353<br/>samples = 15<br/>value = [14, 1]>, fillcolor="#e78a47"] ;
136 -> 137 ;
138 [label=<entropy = 0.0<br/>samples = 1<br/>value = [0, 1]>, fillcolor="#399de5"] ;
137 -> 138 ;
139 [label=<entropy = 0.0<br/>samples = 14<br/>value = [14, 0]>, fillcolor="#e58139"] ;
137 -> 139 ;
140 [label=<entropy = 0.0<br/>samples = 1<br/>value = [0, 1]>, fillcolor="#399de5"] ;
136 -> 140 ;
141 [label=<X<SUB>6</SUB> &le; 0.595<br/>entropy = 0.523<br/>samples = 17<br/>value = [2, 15]>, fillcolor="#53aae8"] ;
119 -> 141 ;
142 [label=<entropy = 0.0<br/>samples = 14<br/>value = [0, 14]>, fillcolor="#399de5"] ;
141 -> 142 ;
143 [label=<X<SUB>18</SUB> &le; 0.326<br/>entropy = 0.918<br/>samples = 3<br/>value = [2, 1]>, fillcolor="#f2c09c"] ;
141 -> 143 ;
144 [label=<entropy = 0.0<br/>samples = 1<br/>value = [0, 1]>, fillcolor="#399de5"] ;
143 -> 144 ;
145 [label=<entropy = 0.0<br/>samples = 2<br/>value = [2, 0]>, fillcolor="#e58139"] ;
143 -> 145 ;
146 [label=<X<SUB>0</SUB> &le; 0.078<br/>entropy = 0.97<br/>samples = 1133<br/>value = [681, 452]>, fillcolor="#f6d5bc"] ;
114 -> 146 ;
147 [label=<X<SUB>0</SUB> &le; 0.075<br/>entropy = 0.758<br/>samples = 283<br/>value = [221, 62]>, fillcolor="#eca471"] ;
146 -> 147 ;
148 [label=<X<SUB>3</SUB> &le; 0.0<br/>entropy = 0.928<br/>samples = 166<br/>value = [109, 57]>, fillcolor="#f3c3a1"] ;
147 -> 148 ;
149 [label=<X<SUB>21</SUB> &le; 0.881<br/>entropy = 0.837<br/>samples = 30<br/>value = [8, 22]>, fillcolor="#81c1ee"] ;
148 -> 149 ;
150 [label=<X<SUB>20</SUB> &le; 0.317<br/>entropy = 0.619<br/>samples = 26<br/>value = [4, 22]>, fillcolor="#5dafea"] ;
149 -> 150 ;
151 [label=<entropy = 0.0<br/>samples = 16<br/>value = [0, 16]>, fillcolor="#399de5"] ;
150 -> 151 ;
152 [label=<X<SUB>13</SUB> &le; 0.312<br/>entropy = 0.971<br/>samples = 10<br/>value = [4, 6]>, fillcolor="#bddef6"] ;
150 -> 152 ;
153 [label=<X<SUB>4</SUB> &le; 0.407<br/>entropy = 0.592<br/>samples = 7<br/>value = [1, 6]>, fillcolor="#5aade9"] ;
152 -> 153 ;
154 [label=<entropy = 0.0<br/>samples = 1<br/>value = [1, 0]>, fillcolor="#e58139"] ;
153 -> 154 ;
155 [label=<entropy = 0.0<br/>samples = 6<br/>value = [0, 6]>, fillcolor="#399de5"] ;
153 -> 155 ;
156 [label=<entropy = 0.0<br/>samples = 3<br/>value = [3, 0]>, fillcolor="#e58139"] ;
152 -> 156 ;
157 [label=<entropy = 0.0<br/>samples = 4<br/>value = [4, 0]>, fillcolor="#e58139"] ;
149 -> 157 ;
158 [label=<X<SUB>16</SUB> &le; 0.24<br/>entropy = 0.823<br/>samples = 136<br/>value = [101, 35]>, fillcolor="#eead7e"] ;
148 -> 158 ;
159 [label=<entropy = 0.0<br/>samples = 38<br/>value = [38, 0]>, fillcolor="#e58139"] ;
158 -> 159 ;
160 [label=<X<SUB>7</SUB> &le; 0.772<br/>entropy = 0.94<br/>samples = 98<br/>value = [63, 35]>, fillcolor="#f3c7a7"] ;
158 -> 160 ;
161 [label=<X<SUB>12</SUB> &le; 0.381<br/>entropy = 0.977<br/>samples = 85<br/>value = [50, 35]>, fillcolor="#f7d9c4"] ;
160 -> 161 ;
162 [label=<X<SUB>29</SUB> &le; 0.246<br/>entropy = 0.639<br/>samples = 37<br/>value = [31, 6]>, fillcolor="#ea995f"] ;
161 -> 162 ;
163 [label=<X<SUB>4</SUB> &le; 0.435<br/>entropy = 0.439<br/>samples = 33<br/>value = [30, 3]>, fillcolor="#e88e4d"] ;
162 -> 163 ;
164 [label=<X<SUB>16</SUB> &le; 0.407<br/>entropy = 0.881<br/>samples = 10<br/>value = [7, 3]>, fillcolor="#f0b78e"] ;
163 -> 164 ;
165 [label=<X<SUB>32</SUB> &le; 0.565<br/>entropy = 0.811<br/>samples = 4<br/>value = [1, 3]>, fillcolor="#7bbeee"] ;
164 -> 165 ;
166 [label=<entropy = 0.0<br/>samples = 3<br/>value = [0, 3]>, fillcolor="#399de5"] ;
165 -> 166 ;
167 [label=<entropy = 0.0<br/>samples = 1<br/>value = [1, 0]>, fillcolor="#e58139"] ;
165 -> 167 ;
168 [label=<entropy = 0.0<br/>samples = 6<br/>value = [6, 0]>, fillcolor="#e58139"] ;
164 -> 168 ;
169 [label=<entropy = 0.0<br/>samples = 23<br/>value = [23, 0]>, fillcolor="#e58139"] ;
163 -> 169 ;
170 [label=<X<SUB>33</SUB> &le; 0.963<br/>entropy = 0.811<br/>samples = 4<br/>value = [1, 3]>, fillcolor="#7bbeee"] ;
162 -> 170 ;
171 [label=<entropy = 0.0<br/>samples = 3<br/>value = [0, 3]>, fillcolor="#399de5"] ;
170 -> 171 ;
172 [label=<entropy = 0.0<br/>samples = 1<br/>value = [1, 0]>, fillcolor="#e58139"] ;
170 -> 172 ;
173 [label=<X<SUB>20</SUB> &le; 0.277<br/>entropy = 0.968<br/>samples = 48<br/>value = [19, 29]>, fillcolor="#bbddf6"] ;
161 -> 173 ;
174 [label=<X<SUB>16</SUB> &le; 0.272<br/>entropy = 0.722<br/>samples = 30<br/>value = [6, 24]>, fillcolor="#6ab6ec"] ;
173 -> 174 ;
175 [label=<X<SUB>31</SUB> &le; 0.008<br/>entropy = 1.0<br/>samples = 12<br/>value = [6, 6]>, fillcolor="#ffffff"] ;
174 -> 175 ;
176 [label=<X<SUB>14</SUB> &le; 0.341<br/>entropy = 0.918<br/>samples = 9<br/>value = [6, 3]>, fillcolor="#f2c09c"] ;
175 -> 176 ;
177 [label=<X<SUB>43</SUB> &le; 0.016<br/>entropy = 0.811<br/>samples = 4<br/>value = [1, 3]>, fillcolor="#7bbeee"] ;
176 -> 177 ;
178 [label=<entropy = 0.0<br/>samples = 1<br/>value = [1, 0]>, fillcolor="#e58139"] ;
177 -> 178 ;
179 [label=<entropy = 0.0<br/>samples = 3<br/>value = [0, 3]>, fillcolor="#399de5"] ;
177 -> 179 ;
180 [label=<entropy = 0.0<br/>samples = 5<br/>value = [5, 0]>, fillcolor="#e58139"] ;
176 -> 180 ;
181 [label=<entropy = 0.0<br/>samples = 3<br/>value = [0, 3]>, fillcolor="#399de5"] ;
175 -> 181 ;
182 [label=<entropy = 0.0<br/>samples = 18<br/>value = [0, 18]>, fillcolor="#399de5"] ;
174 -> 182 ;
183 [label=<X<SUB>29</SUB> &le; 0.003<br/>entropy = 0.852<br/>samples = 18<br/>value = [13, 5]>, fillcolor="#efb185"] ;
173 -> 183 ;
184 [label=<entropy = 0.0<br/>samples = 10<br/>value = [10, 0]>, fillcolor="#e58139"] ;
183 -> 184 ;
185 [label=<X<SUB>21</SUB> &le; 0.854<br/>entropy = 0.954<br/>samples = 8<br/>value = [3, 5]>, fillcolor="#b0d8f5"] ;
183 -> 185 ;
186 [label=<entropy = 0.0<br/>samples = 4<br/>value = [0, 4]>, fillcolor="#399de5"] ;
185 -> 186 ;
187 [label=<X<SUB>22</SUB> &le; 0.914<br/>entropy = 0.811<br/>samples = 4<br/>value = [3, 1]>, fillcolor="#eeab7b"] ;
185 -> 187 ;
188 [label=<entropy = 0.0<br/>samples = 3<br/>value = [3, 0]>, fillcolor="#e58139"] ;
187 -> 188 ;
189 [label=<entropy = 0.0<br/>samples = 1<br/>value = [0, 1]>, fillcolor="#399de5"] ;
187 -> 189 ;
190 [label=<entropy = 0.0<br/>samples = 13<br/>value = [13, 0]>, fillcolor="#e58139"] ;
160 -> 190 ;
191 [label=<X<SUB>13</SUB> &le; 0.716<br/>entropy = 0.255<br/>samples = 117<br/>value = [112, 5]>, fillcolor="#e68742"] ;
147 -> 191 ;
192 [label=<X<SUB>7</SUB> &le; 0.804<br/>entropy = 0.127<br/>samples = 114<br/>value = [112, 2]>, fillcolor="#e5833d"] ;
191 -> 192 ;
193 [label=<entropy = 0.0<br/>samples = 112<br/>value = [112, 0]>, fillcolor="#e58139"] ;
192 -> 193 ;
194 [label=<entropy = 0.0<br/>samples = 2<br/>value = [0, 2]>, fillcolor="#399de5"] ;
192 -> 194 ;
195 [label=<entropy = 0.0<br/>samples = 3<br/>value = [0, 3]>, fillcolor="#399de5"] ;
191 -> 195 ;
196 [label=<X<SUB>16</SUB> &le; 0.203<br/>entropy = 0.995<br/>samples = 850<br/>value = [460, 390]>, fillcolor="#fbece1"] ;
146 -> 196 ;
197 [label=<X<SUB>4</SUB> &le; 0.725<br/>entropy = 0.916<br/>samples = 378<br/>value = [253, 125]>, fillcolor="#f2bf9b"] ;
196 -> 197 ;
198 [label=<X<SUB>39</SUB> &le; 0.634<br/>entropy = 0.973<br/>samples = 293<br/>value = [175, 118]>, fillcolor="#f7d6bf"] ;
197 -> 198 ;
199 [label=<X<SUB>10</SUB> &le; 0.706<br/>entropy = 0.994<br/>samples = 253<br/>value = [138, 115]>, fillcolor="#fbeade"] ;
198 -> 199 ;
200 [label=<X<SUB>10</SUB> &le; 0.236<br/>entropy = 0.999<br/>samples = 212<br/>value = [103, 109]>, fillcolor="#f4fafe"] ;
199 -> 200 ;
201 [label=<X<SUB>26</SUB> &le; 0.214<br/>entropy = 0.391<br/>samples = 26<br/>value = [24, 2]>, fillcolor="#e78c49"] ;
200 -> 201 ;
202 [label=<X<SUB>27</SUB> &le; 0.293<br/>entropy = 1.0<br/>samples = 4<br/>value = [2, 2]>, fillcolor="#ffffff"] ;
201 -> 202 ;
203 [label=<entropy = 0.0<br/>samples = 2<br/>value = [0, 2]>, fillcolor="#399de5"] ;
202 -> 203 ;
204 [label=<entropy = 0.0<br/>samples = 2<br/>value = [2, 0]>, fillcolor="#e58139"] ;
202 -> 204 ;
205 [label=<entropy = 0.0<br/>samples = 22<br/>value = [22, 0]>, fillcolor="#e58139"] ;
201 -> 205 ;
206 [label=<X<SUB>43</SUB> &le; 0.87<br/>entropy = 0.984<br/>samples = 186<br/>value = [79, 107]>, fillcolor="#cbe5f8"] ;
200 -> 206 ;
207 [label=<X<SUB>4</SUB> &le; 0.575<br/>entropy = 0.95<br/>samples = 165<br/>value = [61, 104]>, fillcolor="#add6f4"] ;
206 -> 207 ;
208 [label=<X<SUB>35</SUB> &le; 0.923<br/>entropy = 0.702<br/>samples = 63<br/>value = [12, 51]>, fillcolor="#68b4eb"] ;
207 -> 208 ;
209 [label=<X<SUB>39</SUB> &le; 0.529<br/>entropy = 0.451<br/>samples = 53<br/>value = [5, 48]>, fillcolor="#4ea7e8"] ;
208 -> 209 ;
210 [label=<entropy = 0.0<br/>samples = 29<br/>value = [0, 29]>, fillcolor="#399de5"] ;
209 -> 210 ;
211 [label=<X<SUB>0</SUB> &le; 0.118<br/>entropy = 0.738<br/>samples = 24<br/>value = [5, 19]>, fillcolor="#6db7ec"] ;
209 -> 211 ;
212 [label=<X<SUB>3</SUB> &le; 0.089<br/>entropy = 0.337<br/>samples = 16<br/>value = [1, 15]>, fillcolor="#46a4e7"] ;
211 -> 212 ;
213 [label=<entropy = 0.0<br/>samples = 15<br/>value = [0, 15]>, fillcolor="#399de5"] ;
212 -> 213 ;
214 [label=<entropy = 0.0<br/>samples = 1<br/>value = [1, 0]>, fillcolor="#e58139"] ;
212 -> 214 ;
215 [label=<X<SUB>17</SUB> &le; 0.344<br/>entropy = 1.0<br/>samples = 8<br/>value = [4, 4]>, fillcolor="#ffffff"] ;
211 -> 215 ;
216 [label=<entropy = 0.0<br/>samples = 2<br/>value = [2, 0]>, fillcolor="#e58139"] ;
215 -> 216 ;
217 [label=<X<SUB>22</SUB> &le; 0.15<br/>entropy = 0.918<br/>samples = 6<br/>value = [2, 4]>, fillcolor="#9ccef2"] ;
215 -> 217 ;
218 [label=<entropy = 0.0<br/>samples = 2<br/>value = [2, 0]>, fillcolor="#e58139"] ;
217 -> 218 ;
219 [label=<entropy = 0.0<br/>samples = 4<br/>value = [0, 4]>, fillcolor="#399de5"] ;
217 -> 219 ;
220 [label=<X<SUB>3</SUB> &le; 0.0<br/>entropy = 0.881<br/>samples = 10<br/>value = [7, 3]>, fillcolor="#f0b78e"] ;
208 -> 220 ;
221 [label=<X<SUB>15</SUB> &le; 0.219<br/>entropy = 0.811<br/>samples = 4<br/>value = [1, 3]>, fillcolor="#7bbeee"] ;
220 -> 221 ;
222 [label=<entropy = 0.0<br/>samples = 1<br/>value = [1, 0]>, fillcolor="#e58139"] ;
221 -> 222 ;
223 [label=<entropy = 0.0<br/>samples = 3<br/>value = [0, 3]>, fillcolor="#399de5"] ;
221 -> 223 ;
224 [label=<entropy = 0.0<br/>samples = 6<br/>value = [6, 0]>, fillcolor="#e58139"] ;
220 -> 224 ;
225 [label=<X<SUB>9</SUB> &le; 0.631<br/>entropy = 0.999<br/>samples = 102<br/>value = [49, 53]>, fillcolor="#f0f8fd"] ;
207 -> 225 ;
226 [label=<X<SUB>7</SUB> &le; 0.309<br/>entropy = 0.993<br/>samples = 89<br/>value = [49, 40]>, fillcolor="#fae8db"] ;
225 -> 226 ;
227 [label=<entropy = 0.0<br/>samples = 10<br/>value = [0, 10]>, fillcolor="#399de5"] ;
226 -> 227 ;
228 [label=<X<SUB>0</SUB> &le; 0.113<br/>entropy = 0.958<br/>samples = 79<br/>value = [49, 30]>, fillcolor="#f5ceb2"] ;
226 -> 228 ;
229 [label=<X<SUB>9</SUB> &le; 0.552<br/>entropy = 0.906<br/>samples = 28<br/>value = [9, 19]>, fillcolor="#97cbf1"] ;
228 -> 229 ;
230 [label=<X<SUB>45</SUB> &le; 0.75<br/>entropy = 0.94<br/>samples = 14<br/>value = [9, 5]>, fillcolor="#f3c7a7"] ;
229 -> 230 ;
231 [label=<entropy = 0.0<br/>samples = 6<br/>value = [6, 0]>, fillcolor="#e58139"] ;
230 -> 231 ;
232 [label=<X<SUB>19</SUB> &le; 0.502<br/>entropy = 0.954<br/>samples = 8<br/>value = [3, 5]>, fillcolor="#b0d8f5"] ;
230 -> 232 ;
233 [label=<entropy = 0.0<br/>samples = 4<br/>value = [0, 4]>, fillcolor="#399de5"] ;
232 -> 233 ;
234 [label=<X<SUB>27</SUB> &le; 0.624<br/>entropy = 0.811<br/>samples = 4<br/>value = [3, 1]>, fillcolor="#eeab7b"] ;
232 -> 234 ;
235 [label=<entropy = 0.0<br/>samples = 3<br/>value = [3, 0]>, fillcolor="#e58139"] ;
234 -> 235 ;
236 [label=<entropy = 0.0<br/>samples = 1<br/>value = [0, 1]>, fillcolor="#399de5"] ;
234 -> 236 ;
237 [label=<entropy = 0.0<br/>samples = 14<br/>value = [0, 14]>, fillcolor="#399de5"] ;
229 -> 237 ;
238 [label=<X<SUB>40</SUB> &le; 0.155<br/>entropy = 0.752<br/>samples = 51<br/>value = [40, 11]>, fillcolor="#eca46f"] ;
228 -> 238 ;
239 [label=<entropy = 0.0<br/>samples = 4<br/>value = [0, 4]>, fillcolor="#399de5"] ;
238 -> 239 ;
240 [label=<X<SUB>32</SUB> &le; 0.821<br/>entropy = 0.607<br/>samples = 47<br/>value = [40, 7]>, fillcolor="#ea975c"] ;
238 -> 240 ;
241 [label=<X<SUB>21</SUB> &le; 0.913<br/>entropy = 0.286<br/>samples = 40<br/>value = [38, 2]>, fillcolor="#e68843"] ;
240 -> 241 ;
242 [label=<entropy = 0.0<br/>samples = 32<br/>value = [32, 0]>, fillcolor="#e58139"] ;
241 -> 242 ;
243 [label=<X<SUB>16</SUB> &le; 0.153<br/>entropy = 0.811<br/>samples = 8<br/>value = [6, 2]>, fillcolor="#eeab7b"] ;
241 -> 243 ;
244 [label=<X<SUB>18</SUB> &le; 0.303<br/>entropy = 1.0<br/>samples = 4<br/>value = [2, 2]>, fillcolor="#ffffff"] ;
243 -> 244 ;
245 [label=<entropy = 0.0<br/>samples = 2<br/>value = [2, 0]>, fillcolor="#e58139"] ;
244 -> 245 ;
246 [label=<entropy = 0.0<br/>samples = 2<br/>value = [0, 2]>, fillcolor="#399de5"] ;
244 -> 246 ;
247 [label=<entropy = 0.0<br/>samples = 4<br/>value = [4, 0]>, fillcolor="#e58139"] ;
243 -> 247 ;
248 [label=<X<SUB>17</SUB> &le; 0.377<br/>entropy = 0.863<br/>samples = 7<br/>value = [2, 5]>, fillcolor="#88c4ef"] ;
240 -> 248 ;
249 [label=<X<SUB>16</SUB> &le; 0.065<br/>entropy = 0.65<br/>samples = 6<br/>value = [1, 5]>, fillcolor="#61b1ea"] ;
248 -> 249 ;
250 [label=<entropy = 0.0<br/>samples = 1<br/>value = [1, 0]>, fillcolor="#e58139"] ;
249 -> 250 ;
251 [label=<entropy = 0.0<br/>samples = 5<br/>value = [0, 5]>, fillcolor="#399de5"] ;
249 -> 251 ;
252 [label=<entropy = 0.0<br/>samples = 1<br/>value = [1, 0]>, fillcolor="#e58139"] ;
248 -> 252 ;
253 [label=<entropy = 0.0<br/>samples = 13<br/>value = [0, 13]>, fillcolor="#399de5"] ;
225 -> 253 ;
254 [label=<X<SUB>19</SUB> &le; 0.093<br/>entropy = 0.592<br/>samples = 21<br/>value = [18, 3]>, fillcolor="#e9965a"] ;
206 -> 254 ;
255 [label=<entropy = 0.0<br/>samples = 2<br/>value = [0, 2]>, fillcolor="#399de5"] ;
254 -> 255 ;
256 [label=<X<SUB>39</SUB> &le; 0.134<br/>entropy = 0.297<br/>samples = 19<br/>value = [18, 1]>, fillcolor="#e68844"] ;
254 -> 256 ;
257 [label=<X<SUB>6</SUB> &le; 0.374<br/>entropy = 1.0<br/>samples = 2<br/>value = [1, 1]>, fillcolor="#ffffff"] ;
256 -> 257 ;
258 [label=<entropy = 0.0<br/>samples = 1<br/>value = [1, 0]>, fillcolor="#e58139"] ;
257 -> 258 ;
259 [label=<entropy = 0.0<br/>samples = 1<br/>value = [0, 1]>, fillcolor="#399de5"] ;
257 -> 259 ;
260 [label=<entropy = 0.0<br/>samples = 17<br/>value = [17, 0]>, fillcolor="#e58139"] ;
256 -> 260 ;
261 [label=<X<SUB>7</SUB> &le; 0.852<br/>entropy = 0.601<br/>samples = 41<br/>value = [35, 6]>, fillcolor="#e9975b"] ;
199 -> 261 ;
262 [label=<X<SUB>21</SUB> &le; 0.929<br/>entropy = 0.303<br/>samples = 37<br/>value = [35, 2]>, fillcolor="#e68844"] ;
261 -> 262 ;
263 [label=<entropy = 0.0<br/>samples = 30<br/>value = [30, 0]>, fillcolor="#e58139"] ;
262 -> 263 ;
264 [label=<X<SUB>42</SUB> &le; 0.014<br/>entropy = 0.863<br/>samples = 7<br/>value = [5, 2]>, fillcolor="#efb388"] ;
262 -> 264 ;
265 [label=<entropy = 0.0<br/>samples = 2<br/>value = [0, 2]>, fillcolor="#399de5"] ;
264 -> 265 ;
266 [label=<entropy = 0.0<br/>samples = 5<br/>value = [5, 0]>, fillcolor="#e58139"] ;
264 -> 266 ;
267 [label=<entropy = 0.0<br/>samples = 4<br/>value = [0, 4]>, fillcolor="#399de5"] ;
261 -> 267 ;
268 [label=<X<SUB>26</SUB> &le; 0.286<br/>entropy = 0.384<br/>samples = 40<br/>value = [37, 3]>, fillcolor="#e78b49"] ;
198 -> 268 ;
269 [label=<entropy = 0.0<br/>samples = 27<br/>value = [27, 0]>, fillcolor="#e58139"] ;
268 -> 269 ;
270 [label=<X<SUB>17</SUB> &le; 0.342<br/>entropy = 0.779<br/>samples = 13<br/>value = [10, 3]>, fillcolor="#eda774"] ;
268 -> 270 ;
271 [label=<X<SUB>14</SUB> &le; 0.171<br/>entropy = 1.0<br/>samples = 6<br/>value = [3, 3]>, fillcolor="#ffffff"] ;
270 -> 271 ;
272 [label=<X<SUB>15</SUB> &le; 0.179<br/>entropy = 0.811<br/>samples = 4<br/>value = [3, 1]>, fillcolor="#eeab7b"] ;
271 -> 272 ;
273 [label=<entropy = 0.0<br/>samples = 1<br/>value = [0, 1]>, fillcolor="#399de5"] ;
272 -> 273 ;
274 [label=<entropy = 0.0<br/>samples = 3<br/>value = [3, 0]>, fillcolor="#e58139"] ;
272 -> 274 ;
275 [label=<entropy = 0.0<br/>samples = 2<br/>value = [0, 2]>, fillcolor="#399de5"] ;
271 -> 275 ;
276 [label=<entropy = 0.0<br/>samples = 7<br/>value = [7, 0]>, fillcolor="#e58139"] ;
270 -> 276 ;
277 [label=<X<SUB>44</SUB> &le; 0.5<br/>entropy = 0.41<br/>samples = 85<br/>value = [78, 7]>, fillcolor="#e78c4b"] ;
197 -> 277 ;
278 [label=<entropy = 0.0<br/>samples = 36<br/>value = [36, 0]>, fillcolor="#e58139"] ;
277 -> 278 ;
279 [label=<X<SUB>21</SUB> &le; 0.865<br/>entropy = 0.592<br/>samples = 49<br/>value = [42, 7]>, fillcolor="#e9965a"] ;
277 -> 279 ;
280 [label=<X<SUB>26</SUB> &le; 0.834<br/>entropy = 0.323<br/>samples = 34<br/>value = [32, 2]>, fillcolor="#e78945"] ;
279 -> 280 ;
281 [label=<X<SUB>18</SUB> &le; 0.201<br/>entropy = 0.196<br/>samples = 33<br/>value = [32, 1]>, fillcolor="#e6853f"] ;
280 -> 281 ;
282 [label=<entropy = 0.0<br/>samples = 1<br/>value = [0, 1]>, fillcolor="#399de5"] ;
281 -> 282 ;
283 [label=<entropy = 0.0<br/>samples = 32<br/>value = [32, 0]>, fillcolor="#e58139"] ;
281 -> 283 ;
284 [label=<entropy = 0.0<br/>samples = 1<br/>value = [0, 1]>, fillcolor="#399de5"] ;
280 -> 284 ;
285 [label=<X<SUB>19</SUB> &le; 0.197<br/>entropy = 0.918<br/>samples = 15<br/>value = [10, 5]>, fillcolor="#f2c09c"] ;
279 -> 285 ;
286 [label=<entropy = 0.0<br/>samples = 3<br/>value = [0, 3]>, fillcolor="#399de5"] ;
285 -> 286 ;
287 [label=<X<SUB>9</SUB> &le; 0.576<br/>entropy = 0.65<br/>samples = 12<br/>value = [10, 2]>, fillcolor="#ea9a61"] ;
285 -> 287 ;
288 [label=<entropy = 0.0<br/>samples = 8<br/>value = [8, 0]>, fillcolor="#e58139"] ;
287 -> 288 ;
289 [label=<X<SUB>4</SUB> &le; 0.77<br/>entropy = 1.0<br/>samples = 4<br/>value = [2, 2]>, fillcolor="#ffffff"] ;
287 -> 289 ;
290 [label=<entropy = 0.0<br/>samples = 2<br/>value = [0, 2]>, fillcolor="#399de5"] ;
289 -> 290 ;
291 [label=<entropy = 0.0<br/>samples = 2<br/>value = [2, 0]>, fillcolor="#e58139"] ;
289 -> 291 ;
292 [label=<X<SUB>18</SUB> &le; 0.589<br/>entropy = 0.989<br/>samples = 472<br/>value = [207, 265]>, fillcolor="#d4eaf9"] ;
196 -> 292 ;
293 [label=<X<SUB>28</SUB> &le; 0.001<br/>entropy = 0.975<br/>samples = 447<br/>value = [182, 265]>, fillcolor="#c1e0f7"] ;
292 -> 293 ;
294 [label=<X<SUB>25</SUB> &le; 0.933<br/>entropy = 0.811<br/>samples = 44<br/>value = [33, 11]>, fillcolor="#eeab7b"] ;
293 -> 294 ;
295 [label=<X<SUB>3</SUB> &le; 0.085<br/>entropy = 0.449<br/>samples = 32<br/>value = [29, 3]>, fillcolor="#e88e4d"] ;
294 -> 295 ;
296 [label=<entropy = 0.0<br/>samples = 25<br/>value = [25, 0]>, fillcolor="#e58139"] ;
295 -> 296 ;
297 [label=<X<SUB>22</SUB> &le; 0.104<br/>entropy = 0.985<br/>samples = 7<br/>value = [4, 3]>, fillcolor="#f8e0ce"] ;
295 -> 297 ;
298 [label=<entropy = 0.0<br/>samples = 3<br/>value = [3, 0]>, fillcolor="#e58139"] ;
297 -> 298 ;
299 [label=<X<SUB>39</SUB> &le; 0.674<br/>entropy = 0.811<br/>samples = 4<br/>value = [1, 3]>, fillcolor="#7bbeee"] ;
297 -> 299 ;
300 [label=<entropy = 0.0<br/>samples = 3<br/>value = [0, 3]>, fillcolor="#399de5"] ;
299 -> 300 ;
301 [label=<entropy = 0.0<br/>samples = 1<br/>value = [1, 0]>, fillcolor="#e58139"] ;
299 -> 301 ;
302 [label=<X<SUB>6</SUB> &le; 0.398<br/>entropy = 0.918<br/>samples = 12<br/>value = [4, 8]>, fillcolor="#9ccef2"] ;
294 -> 302 ;
303 [label=<entropy = 0.0<br/>samples = 3<br/>value = [3, 0]>, fillcolor="#e58139"] ;
302 -> 303 ;
304 [label=<X<SUB>5</SUB> &le; 0.575<br/>entropy = 0.503<br/>samples = 9<br/>value = [1, 8]>, fillcolor="#52a9e8"] ;
302 -> 304 ;
305 [label=<entropy = 0.0<br/>samples = 8<br/>value = [0, 8]>, fillcolor="#399de5"] ;
304 -> 305 ;
306 [label=<entropy = 0.0<br/>samples = 1<br/>value = [1, 0]>, fillcolor="#e58139"] ;
304 -> 306 ;
307 [label=<X<SUB>0</SUB> &le; 0.124<br/>entropy = 0.95<br/>samples = 403<br/>value = [149, 254]>, fillcolor="#add6f4"] ;
293 -> 307 ;
308 [label=<X<SUB>28</SUB> &le; 0.002<br/>entropy = 0.907<br/>samples = 347<br/>value = [112, 235]>, fillcolor="#97ccf1"] ;
307 -> 308 ;
309 [label=<entropy = 0.0<br/>samples = 35<br/>value = [0, 35]>, fillcolor="#399de5"] ;
308 -> 309 ;
310 [label=<X<SUB>39</SUB> &le; 0.185<br/>entropy = 0.942<br/>samples = 312<br/>value = [112, 200]>, fillcolor="#a8d4f4"] ;
308 -> 310 ;
311 [label=<entropy = 0.0<br/>samples = 15<br/>value = [15, 0]>, fillcolor="#e58139"] ;
310 -> 311 ;
312 [label=<X<SUB>36</SUB> &le; 0.747<br/>entropy = 0.911<br/>samples = 297<br/>value = [97, 200]>, fillcolor="#99cdf2"] ;
310 -> 312 ;
313 [label=<X<SUB>35</SUB> &le; 0.552<br/>entropy = 0.882<br/>samples = 286<br/>value = [86, 200]>, fillcolor="#8ec7f0"] ;
312 -> 313 ;
314 [label=<X<SUB>18</SUB> &le; 0.444<br/>entropy = 0.353<br/>samples = 60<br/>value = [4, 56]>, fillcolor="#47a4e7"] ;
313 -> 314 ;
315 [label=<X<SUB>19</SUB> &le; 0.012<br/>entropy = 0.137<br/>samples = 52<br/>value = [1, 51]>, fillcolor="#3d9fe6"] ;
314 -> 315 ;
316 [label=<entropy = 0.0<br/>samples = 1<br/>value = [1, 0]>, fillcolor="#e58139"] ;
315 -> 316 ;
317 [label=<entropy = 0.0<br/>samples = 51<br/>value = [0, 51]>, fillcolor="#399de5"] ;
315 -> 317 ;
318 [label=<X<SUB>14</SUB> &le; 0.444<br/>entropy = 0.954<br/>samples = 8<br/>value = [3, 5]>, fillcolor="#b0d8f5"] ;
314 -> 318 ;
319 [label=<X<SUB>13</SUB> &le; 0.345<br/>entropy = 0.811<br/>samples = 4<br/>value = [3, 1]>, fillcolor="#eeab7b"] ;
318 -> 319 ;
320 [label=<entropy = 0.0<br/>samples = 1<br/>value = [0, 1]>, fillcolor="#399de5"] ;
319 -> 320 ;
321 [label=<entropy = 0.0<br/>samples = 3<br/>value = [3, 0]>, fillcolor="#e58139"] ;
319 -> 321 ;
322 [label=<entropy = 0.0<br/>samples = 4<br/>value = [0, 4]>, fillcolor="#399de5"] ;
318 -> 322 ;
323 [label=<X<SUB>31</SUB> &le; 0.258<br/>entropy = 0.945<br/>samples = 226<br/>value = [82, 144]>, fillcolor="#aad5f4"] ;
313 -> 323 ;
324 [label=<X<SUB>39</SUB> &le; 0.338<br/>entropy = 0.969<br/>samples = 207<br/>value = [82, 125]>, fillcolor="#bbddf6"] ;
323 -> 324 ;
325 [label=<X<SUB>35</SUB> &le; 0.905<br/>entropy = 0.636<br/>samples = 56<br/>value = [9, 47]>, fillcolor="#5fb0ea"] ;
324 -> 325 ;
326 [label=<X<SUB>5</SUB> &le; 0.274<br/>entropy = 0.414<br/>samples = 48<br/>value = [4, 44]>, fillcolor="#4ba6e7"] ;
325 -> 326 ;
327 [label=<entropy = 0.0<br/>samples = 28<br/>value = [0, 28]>, fillcolor="#399de5"] ;
326 -> 327 ;
328 [label=<X<SUB>0</SUB> &le; 0.084<br/>entropy = 0.722<br/>samples = 20<br/>value = [4, 16]>, fillcolor="#6ab6ec"] ;
326 -> 328 ;
329 [label=<entropy = 0.0<br/>samples = 12<br/>value = [0, 12]>, fillcolor="#399de5"] ;
328 -> 329 ;
330 [label=<X<SUB>13</SUB> &le; 0.365<br/>entropy = 1.0<br/>samples = 8<br/>value = [4, 4]>, fillcolor="#ffffff"] ;
328 -> 330 ;
331 [label=<X<SUB>22</SUB> &le; 0.775<br/>entropy = 0.722<br/>samples = 5<br/>value = [4, 1]>, fillcolor="#eca06a"] ;
330 -> 331 ;
332 [label=<entropy = 0.0<br/>samples = 4<br/>value = [4, 0]>, fillcolor="#e58139"] ;
331 -> 332 ;
333 [label=<entropy = 0.0<br/>samples = 1<br/>value = [0, 1]>, fillcolor="#399de5"] ;
331 -> 333 ;
334 [label=<entropy = 0.0<br/>samples = 3<br/>value = [0, 3]>, fillcolor="#399de5"] ;
330 -> 334 ;
335 [label=<X<SUB>2</SUB> &le; 0.625<br/>entropy = 0.954<br/>samples = 8<br/>value = [5, 3]>, fillcolor="#f5cdb0"] ;
325 -> 335 ;
336 [label=<X<SUB>16</SUB> &le; 0.284<br/>entropy = 0.811<br/>samples = 4<br/>value = [1, 3]>, fillcolor="#7bbeee"] ;
335 -> 336 ;
337 [label=<entropy = 0.0<br/>samples = 3<br/>value = [0, 3]>, fillcolor="#399de5"] ;
336 -> 337 ;
338 [label=<entropy = 0.0<br/>samples = 1<br/>value = [1, 0]>, fillcolor="#e58139"] ;
336 -> 338 ;
339 [label=<entropy = 0.0<br/>samples = 4<br/>value = [4, 0]>, fillcolor="#e58139"] ;
335 -> 339 ;
340 [label=<X<SUB>33</SUB> &le; 0.934<br/>entropy = 0.999<br/>samples = 151<br/>value = [73, 78]>, fillcolor="#f2f9fd"] ;
324 -> 340 ;
341 [label=<X<SUB>22</SUB> &le; 0.826<br/>entropy = 0.99<br/>samples = 127<br/>value = [71, 56]>, fillcolor="#fae4d5"] ;
340 -> 341 ;
342 [label=<X<SUB>43</SUB> &le; 0.554<br/>entropy = 0.961<br/>samples = 73<br/>value = [28, 45]>, fillcolor="#b4daf5"] ;
341 -> 342 ;
343 [label=<X<SUB>11</SUB> &le; 0.449<br/>entropy = 0.913<br/>samples = 67<br/>value = [22, 45]>, fillcolor="#9acdf2"] ;
342 -> 343 ;
344 [label=<X<SUB>3</SUB> &le; 0.194<br/>entropy = 0.983<br/>samples = 26<br/>value = [15, 11]>, fillcolor="#f8ddca"] ;
343 -> 344 ;
345 [label=<X<SUB>15</SUB> &le; 0.06<br/>entropy = 0.902<br/>samples = 22<br/>value = [15, 7]>, fillcolor="#f1bc95"] ;
344 -> 345 ;
346 [label=<entropy = 0.0<br/>samples = 2<br/>value = [0, 2]>, fillcolor="#399de5"] ;
345 -> 346 ;
347 [label=<X<SUB>15</SUB> &le; 0.503<br/>entropy = 0.811<br/>samples = 20<br/>value = [15, 5]>, fillcolor="#eeab7b"] ;
345 -> 347 ;
348 [label=<X<SUB>12</SUB> &le; 0.341<br/>entropy = 0.65<br/>samples = 18<br/>value = [15, 3]>, fillcolor="#ea9a61"] ;
347 -> 348 ;
349 [label=<X<SUB>9</SUB> &le; 0.228<br/>entropy = 0.985<br/>samples = 7<br/>value = [4, 3]>, fillcolor="#f8e0ce"] ;
348 -> 349 ;
350 [label=<entropy = 0.0<br/>samples = 2<br/>value = [2, 0]>, fillcolor="#e58139"] ;
349 -> 350 ;
351 [label=<X<SUB>43</SUB> &le; 0.002<br/>entropy = 0.971<br/>samples = 5<br/>value = [2, 3]>, fillcolor="#bddef6"] ;
349 -> 351 ;
352 [label=<X<SUB>33</SUB> &le; 0.592<br/>entropy = 0.918<br/>samples = 3<br/>value = [2, 1]>, fillcolor="#f2c09c"] ;
351 -> 352 ;
353 [label=<entropy = 0.0<br/>samples = 1<br/>value = [0, 1]>, fillcolor="#399de5"] ;
352 -> 353 ;
354 [label=<entropy = 0.0<br/>samples = 2<br/>value = [2, 0]>, fillcolor="#e58139"] ;
352 -> 354 ;
355 [label=<entropy = 0.0<br/>samples = 2<br/>value = [0, 2]>, fillcolor="#399de5"] ;
351 -> 355 ;
356 [label=<entropy = 0.0<br/>samples = 11<br/>value = [11, 0]>, fillcolor="#e58139"] ;
348 -> 356 ;
357 [label=<entropy = 0.0<br/>samples = 2<br/>value = [0, 2]>, fillcolor="#399de5"] ;
347 -> 357 ;
358 [label=<entropy = 0.0<br/>samples = 4<br/>value = [0, 4]>, fillcolor="#399de5"] ;
344 -> 358 ;
359 [label=<X<SUB>10</SUB> &le; 0.743<br/>entropy = 0.659<br/>samples = 41<br/>value = [7, 34]>, fillcolor="#62b1ea"] ;
343 -> 359 ;
360 [label=<X<SUB>28</SUB> &le; 0.015<br/>entropy = 0.316<br/>samples = 35<br/>value = [2, 33]>, fillcolor="#45a3e7"] ;
359 -> 360 ;
361 [label=<X<SUB>0</SUB> &le; 0.109<br/>entropy = 1.0<br/>samples = 4<br/>value = [2, 2]>, fillcolor="#ffffff"] ;
360 -> 361 ;
362 [label=<entropy = 0.0<br/>samples = 2<br/>value = [2, 0]>, fillcolor="#e58139"] ;
361 -> 362 ;
363 [label=<entropy = 0.0<br/>samples = 2<br/>value = [0, 2]>, fillcolor="#399de5"] ;
361 -> 363 ;
364 [label=<entropy = 0.0<br/>samples = 31<br/>value = [0, 31]>, fillcolor="#399de5"] ;
360 -> 364 ;
365 [label=<X<SUB>4</SUB> &le; 0.557<br/>entropy = 0.65<br/>samples = 6<br/>value = [5, 1]>, fillcolor="#ea9a61"] ;
359 -> 365 ;
366 [label=<entropy = 0.0<br/>samples = 1<br/>value = [0, 1]>, fillcolor="#399de5"] ;
365 -> 366 ;
367 [label=<entropy = 0.0<br/>samples = 5<br/>value = [5, 0]>, fillcolor="#e58139"] ;
365 -> 367 ;
368 [label=<entropy = 0.0<br/>samples = 6<br/>value = [6, 0]>, fillcolor="#e58139"] ;
342 -> 368 ;
369 [label=<X<SUB>9</SUB> &le; 0.608<br/>entropy = 0.729<br/>samples = 54<br/>value = [43, 11]>, fillcolor="#eca16c"] ;
341 -> 369 ;
370 [label=<X<SUB>3</SUB> &le; 0.032<br/>entropy = 0.371<br/>samples = 42<br/>value = [39, 3]>, fillcolor="#e78b48"] ;
369 -> 370 ;
371 [label=<entropy = 0.0<br/>samples = 29<br/>value = [29, 0]>, fillcolor="#e58139"] ;
370 -> 371 ;
372 [label=<X<SUB>13</SUB> &le; 0.387<br/>entropy = 0.779<br/>samples = 13<br/>value = [10, 3]>, fillcolor="#eda774"] ;
370 -> 372 ;
373 [label=<entropy = 0.0<br/>samples = 9<br/>value = [9, 0]>, fillcolor="#e58139"] ;
372 -> 373 ;
374 [label=<X<SUB>14</SUB> &le; 0.335<br/>entropy = 0.811<br/>samples = 4<br/>value = [1, 3]>, fillcolor="#7bbeee"] ;
372 -> 374 ;
375 [label=<entropy = 0.0<br/>samples = 1<br/>value = [1, 0]>, fillcolor="#e58139"] ;
374 -> 375 ;
376 [label=<entropy = 0.0<br/>samples = 3<br/>value = [0, 3]>, fillcolor="#399de5"] ;
374 -> 376 ;
377 [label=<X<SUB>30</SUB> &le; 0.113<br/>entropy = 0.918<br/>samples = 12<br/>value = [4, 8]>, fillcolor="#9ccef2"] ;
369 -> 377 ;
378 [label=<entropy = 0.0<br/>samples = 5<br/>value = [0, 5]>, fillcolor="#399de5"] ;
377 -> 378 ;
379 [label=<X<SUB>5</SUB> &le; 0.513<br/>entropy = 0.985<br/>samples = 7<br/>value = [4, 3]>, fillcolor="#f8e0ce"] ;
377 -> 379 ;
380 [label=<X<SUB>17</SUB> &le; 0.245<br/>entropy = 0.811<br/>samples = 4<br/>value = [1, 3]>, fillcolor="#7bbeee"] ;
379 -> 380 ;
381 [label=<entropy = 0.0<br/>samples = 3<br/>value = [0, 3]>, fillcolor="#399de5"] ;
380 -> 381 ;
382 [label=<entropy = 0.0<br/>samples = 1<br/>value = [1, 0]>, fillcolor="#e58139"] ;
380 -> 382 ;
383 [label=<entropy = 0.0<br/>samples = 3<br/>value = [3, 0]>, fillcolor="#e58139"] ;
379 -> 383 ;
384 [label=<X<SUB>3</SUB> &le; 0.316<br/>entropy = 0.414<br/>samples = 24<br/>value = [2, 22]>, fillcolor="#4ba6e7"] ;
340 -> 384 ;
385 [label=<X<SUB>11</SUB> &le; 0.384<br/>entropy = 0.258<br/>samples = 23<br/>value = [1, 22]>, fillcolor="#42a1e6"] ;
384 -> 385 ;
386 [label=<X<SUB>11</SUB> &le; 0.351<br/>entropy = 0.918<br/>samples = 3<br/>value = [1, 2]>, fillcolor="#9ccef2"] ;
385 -> 386 ;
387 [label=<entropy = 0.0<br/>samples = 2<br/>value = [0, 2]>, fillcolor="#399de5"] ;
386 -> 387 ;
388 [label=<entropy = 0.0<br/>samples = 1<br/>value = [1, 0]>, fillcolor="#e58139"] ;
386 -> 388 ;
389 [label=<entropy = 0.0<br/>samples = 20<br/>value = [0, 20]>, fillcolor="#399de5"] ;
385 -> 389 ;
390 [label=<entropy = 0.0<br/>samples = 1<br/>value = [1, 0]>, fillcolor="#e58139"] ;
384 -> 390 ;
391 [label=<entropy = 0.0<br/>samples = 19<br/>value = [0, 19]>, fillcolor="#399de5"] ;
323 -> 391 ;
392 [label=<entropy = 0.0<br/>samples = 11<br/>value = [11, 0]>, fillcolor="#e58139"] ;
312 -> 392 ;
393 [label=<X<SUB>9</SUB> &le; 0.448<br/>entropy = 0.924<br/>samples = 56<br/>value = [37, 19]>, fillcolor="#f2c29f"] ;
307 -> 393 ;
394 [label=<X<SUB>17</SUB> &le; 0.351<br/>entropy = 0.527<br/>samples = 42<br/>value = [37, 5]>, fillcolor="#e99254"] ;
393 -> 394 ;
395 [label=<entropy = 0.0<br/>samples = 26<br/>value = [26, 0]>, fillcolor="#e58139"] ;
394 -> 395 ;
396 [label=<X<SUB>20</SUB> &le; 0.478<br/>entropy = 0.896<br/>samples = 16<br/>value = [11, 5]>, fillcolor="#f1ba93"] ;
394 -> 396 ;
397 [label=<X<SUB>16</SUB> &le; 0.244<br/>entropy = 0.619<br/>samples = 13<br/>value = [11, 2]>, fillcolor="#ea985d"] ;
396 -> 397 ;
398 [label=<X<SUB>36</SUB> &le; 0.122<br/>entropy = 1.0<br/>samples = 4<br/>value = [2, 2]>, fillcolor="#ffffff"] ;
397 -> 398 ;
399 [label=<entropy = 0.0<br/>samples = 2<br/>value = [2, 0]>, fillcolor="#e58139"] ;
398 -> 399 ;
400 [label=<entropy = 0.0<br/>samples = 2<br/>value = [0, 2]>, fillcolor="#399de5"] ;
398 -> 400 ;
401 [label=<entropy = 0.0<br/>samples = 9<br/>value = [9, 0]>, fillcolor="#e58139"] ;
397 -> 401 ;
402 [label=<entropy = 0.0<br/>samples = 3<br/>value = [0, 3]>, fillcolor="#399de5"] ;
396 -> 402 ;
403 [label=<entropy = 0.0<br/>samples = 14<br/>value = [0, 14]>, fillcolor="#399de5"] ;
393 -> 403 ;
404 [label=<entropy = 0.0<br/>samples = 25<br/>value = [25, 0]>, fillcolor="#e58139"] ;
292 -> 404 ;
405 [label=<X<SUB>0</SUB> &le; 0.084<br/>entropy = 0.291<br/>samples = 645<br/>value = [612, 33]>, fillcolor="#e68844"] ;
79 -> 405 ;
406 [label=<X<SUB>6</SUB> &le; 0.798<br/>entropy = 0.872<br/>samples = 82<br/>value = [58, 24]>, fillcolor="#f0b58b"] ;
405 -> 406 ;
407 [label=<entropy = 0.0<br/>samples = 49<br/>value = [49, 0]>, fillcolor="#e58139"] ;
406 -> 407 ;
408 [label=<X<SUB>13</SUB> &le; 0.244<br/>entropy = 0.845<br/>samples = 33<br/>value = [9, 24]>, fillcolor="#83c2ef"] ;
406 -> 408 ;
409 [label=<X<SUB>11</SUB> &le; 0.377<br/>entropy = 0.989<br/>samples = 16<br/>value = [9, 7]>, fillcolor="#f9e3d3"] ;
408 -> 409 ;
410 [label=<entropy = 0.0<br/>samples = 5<br/>value = [5, 0]>, fillcolor="#e58139"] ;
409 -> 410 ;
411 [label=<X<SUB>43</SUB> &le; 0.005<br/>entropy = 0.946<br/>samples = 11<br/>value = [4, 7]>, fillcolor="#aad5f4"] ;
409 -> 411 ;
412 [label=<entropy = 0.0<br/>samples = 4<br/>value = [4, 0]>, fillcolor="#e58139"] ;
411 -> 412 ;
413 [label=<entropy = 0.0<br/>samples = 7<br/>value = [0, 7]>, fillcolor="#399de5"] ;
411 -> 413 ;
414 [label=<entropy = 0.0<br/>samples = 17<br/>value = [0, 17]>, fillcolor="#399de5"] ;
408 -> 414 ;
415 [label=<X<SUB>4</SUB> &le; 0.445<br/>entropy = 0.118<br/>samples = 563<br/>value = [554, 9]>, fillcolor="#e5833c"] ;
405 -> 415 ;
416 [label=<X<SUB>17</SUB> &le; 0.247<br/>entropy = 0.323<br/>samples = 153<br/>value = [144, 9]>, fillcolor="#e78945"] ;
415 -> 416 ;
417 [label=<X<SUB>42</SUB> &le; 0.004<br/>entropy = 0.554<br/>samples = 70<br/>value = [61, 9]>, fillcolor="#e99456"] ;
416 -> 417 ;
418 [label=<entropy = 0.0<br/>samples = 32<br/>value = [32, 0]>, fillcolor="#e58139"] ;
417 -> 418 ;
419 [label=<X<SUB>12</SUB> &le; 0.802<br/>entropy = 0.79<br/>samples = 38<br/>value = [29, 9]>, fillcolor="#eda876"] ;
417 -> 419 ;
420 [label=<entropy = 0.0<br/>samples = 13<br/>value = [13, 0]>, fillcolor="#e58139"] ;
419 -> 420 ;
421 [label=<X<SUB>4</SUB> &le; 0.283<br/>entropy = 0.943<br/>samples = 25<br/>value = [16, 9]>, fillcolor="#f4c8a8"] ;
419 -> 421 ;
422 [label=<entropy = 0.0<br/>samples = 5<br/>value = [0, 5]>, fillcolor="#399de5"] ;
421 -> 422 ;
423 [label=<X<SUB>11</SUB> &le; 0.371<br/>entropy = 0.722<br/>samples = 20<br/>value = [16, 4]>, fillcolor="#eca06a"] ;
421 -> 423 ;
424 [label=<X<SUB>13</SUB> &le; 0.109<br/>entropy = 0.918<br/>samples = 6<br/>value = [2, 4]>, fillcolor="#9ccef2"] ;
423 -> 424 ;
425 [label=<entropy = 0.0<br/>samples = 2<br/>value = [2, 0]>, fillcolor="#e58139"] ;
424 -> 425 ;
426 [label=<entropy = 0.0<br/>samples = 4<br/>value = [0, 4]>, fillcolor="#399de5"] ;
424 -> 426 ;
427 [label=<entropy = 0.0<br/>samples = 14<br/>value = [14, 0]>, fillcolor="#e58139"] ;
423 -> 427 ;
428 [label=<entropy = 0.0<br/>samples = 83<br/>value = [83, 0]>, fillcolor="#e58139"] ;
416 -> 428 ;
429 [label=<entropy = 0.0<br/>samples = 410<br/>value = [410, 0]>, fillcolor="#e58139"] ;
415 -> 429 ;
430 [label=<X<SUB>1</SUB> &le; 0.533<br/>entropy = 0.835<br/>samples = 1517<br/>value = [403, 1114]>, fillcolor="#81c0ee"] ;
78 -> 430 ;
431 [label=<X<SUB>12</SUB> &le; 0.78<br/>entropy = 0.735<br/>samples = 1320<br/>value = [273, 1047]>, fillcolor="#6db7ec"] ;
430 -> 431 ;
432 [label=<X<SUB>3</SUB> &le; 0.32<br/>entropy = 0.912<br/>samples = 538<br/>value = [176, 362]>, fillcolor="#99cdf2"] ;
431 -> 432 ;
433 [label=<X<SUB>11</SUB> &le; 0.544<br/>entropy = 0.952<br/>samples = 455<br/>value = [169, 286]>, fillcolor="#aed7f4"] ;
432 -> 433 ;
434 [label=<X<SUB>1</SUB> &le; 0.469<br/>entropy = 0.987<br/>samples = 205<br/>value = [116, 89]>, fillcolor="#f9e2d1"] ;
433 -> 434 ;
435 [label=<X<SUB>3</SUB> &le; 0.111<br/>entropy = 0.801<br/>samples = 115<br/>value = [87, 28]>, fillcolor="#edaa79"] ;
434 -> 435 ;
436 [label=<X<SUB>32</SUB> &le; 0.79<br/>entropy = 0.54<br/>samples = 89<br/>value = [78, 11]>, fillcolor="#e99355"] ;
435 -> 436 ;
437 [label=<X<SUB>9</SUB> &le; 0.73<br/>entropy = 0.255<br/>samples = 70<br/>value = [67, 3]>, fillcolor="#e68742"] ;
436 -> 437 ;
438 [label=<X<SUB>41</SUB> &le; 0.998<br/>entropy = 0.115<br/>samples = 65<br/>value = [64, 1]>, fillcolor="#e5833c"] ;
437 -> 438 ;
439 [label=<entropy = 0.0<br/>samples = 63<br/>value = [63, 0]>, fillcolor="#e58139"] ;
438 -> 439 ;
440 [label=<X<SUB>13</SUB> &le; 0.248<br/>entropy = 1.0<br/>samples = 2<br/>value = [1, 1]>, fillcolor="#ffffff"] ;
438 -> 440 ;
441 [label=<entropy = 0.0<br/>samples = 1<br/>value = [1, 0]>, fillcolor="#e58139"] ;
440 -> 441 ;
442 [label=<entropy = 0.0<br/>samples = 1<br/>value = [0, 1]>, fillcolor="#399de5"] ;
440 -> 442 ;
443 [label=<X<SUB>39</SUB> &le; 0.429<br/>entropy = 0.971<br/>samples = 5<br/>value = [3, 2]>, fillcolor="#f6d5bd"] ;
437 -> 443 ;
444 [label=<entropy = 0.0<br/>samples = 2<br/>value = [0, 2]>, fillcolor="#399de5"] ;
443 -> 444 ;
445 [label=<entropy = 0.0<br/>samples = 3<br/>value = [3, 0]>, fillcolor="#e58139"] ;
443 -> 445 ;
446 [label=<X<SUB>1</SUB> &le; 0.133<br/>entropy = 0.982<br/>samples = 19<br/>value = [11, 8]>, fillcolor="#f8ddc9"] ;
436 -> 446 ;
447 [label=<entropy = 0.0<br/>samples = 4<br/>value = [0, 4]>, fillcolor="#399de5"] ;
446 -> 447 ;
448 [label=<X<SUB>39</SUB> &le; 0.535<br/>entropy = 0.837<br/>samples = 15<br/>value = [11, 4]>, fillcolor="#eeaf81"] ;
446 -> 448 ;
449 [label=<X<SUB>42</SUB> &le; 0.007<br/>entropy = 0.722<br/>samples = 5<br/>value = [1, 4]>, fillcolor="#6ab6ec"] ;
448 -> 449 ;
450 [label=<entropy = 0.0<br/>samples = 4<br/>value = [0, 4]>, fillcolor="#399de5"] ;
449 -> 450 ;
451 [label=<entropy = 0.0<br/>samples = 1<br/>value = [1, 0]>, fillcolor="#e58139"] ;
449 -> 451 ;
452 [label=<entropy = 0.0<br/>samples = 10<br/>value = [10, 0]>, fillcolor="#e58139"] ;
448 -> 452 ;
453 [label=<X<SUB>10</SUB> &le; 0.707<br/>entropy = 0.931<br/>samples = 26<br/>value = [9, 17]>, fillcolor="#a2d1f3"] ;
435 -> 453 ;
454 [label=<X<SUB>11</SUB> &le; 0.213<br/>entropy = 0.592<br/>samples = 7<br/>value = [6, 1]>, fillcolor="#e9965a"] ;
453 -> 454 ;
455 [label=<entropy = 0.0<br/>samples = 1<br/>value = [0, 1]>, fillcolor="#399de5"] ;
454 -> 455 ;
456 [label=<entropy = 0.0<br/>samples = 6<br/>value = [6, 0]>, fillcolor="#e58139"] ;
454 -> 456 ;
457 [label=<X<SUB>40</SUB> &le; 0.174<br/>entropy = 0.629<br/>samples = 19<br/>value = [3, 16]>, fillcolor="#5eafea"] ;
453 -> 457 ;
458 [label=<X<SUB>34</SUB> &le; 0.199<br/>entropy = 0.811<br/>samples = 4<br/>value = [3, 1]>, fillcolor="#eeab7b"] ;
457 -> 458 ;
459 [label=<entropy = 0.0<br/>samples = 1<br/>value = [0, 1]>, fillcolor="#399de5"] ;
458 -> 459 ;
460 [label=<entropy = 0.0<br/>samples = 3<br/>value = [3, 0]>, fillcolor="#e58139"] ;
458 -> 460 ;
461 [label=<entropy = 0.0<br/>samples = 15<br/>value = [0, 15]>, fillcolor="#399de5"] ;
457 -> 461 ;
462 [label=<X<SUB>17</SUB> &le; 0.466<br/>entropy = 0.907<br/>samples = 90<br/>value = [29, 61]>, fillcolor="#97ccf1"] ;
434 -> 462 ;
463 [label=<X<SUB>40</SUB> &le; 1.0<br/>entropy = 0.246<br/>samples = 49<br/>value = [2, 47]>, fillcolor="#41a1e6"] ;
462 -> 463 ;
464 [label=<X<SUB>38</SUB> &le; 0.902<br/>entropy = 0.146<br/>samples = 48<br/>value = [1, 47]>, fillcolor="#3d9fe6"] ;
463 -> 464 ;
465 [label=<entropy = 0.0<br/>samples = 46<br/>value = [0, 46]>, fillcolor="#399de5"] ;
464 -> 465 ;
466 [label=<X<SUB>16</SUB> &le; 0.21<br/>entropy = 1.0<br/>samples = 2<br/>value = [1, 1]>, fillcolor="#ffffff"] ;
464 -> 466 ;
467 [label=<entropy = 0.0<br/>samples = 1<br/>value = [0, 1]>, fillcolor="#399de5"] ;
466 -> 467 ;
468 [label=<entropy = 0.0<br/>samples = 1<br/>value = [1, 0]>, fillcolor="#e58139"] ;
466 -> 468 ;
469 [label=<entropy = 0.0<br/>samples = 1<br/>value = [1, 0]>, fillcolor="#e58139"] ;
463 -> 469 ;
470 [label=<X<SUB>8</SUB> &le; 0.836<br/>entropy = 0.926<br/>samples = 41<br/>value = [27, 14]>, fillcolor="#f2c2a0"] ;
462 -> 470 ;
471 [label=<X<SUB>10</SUB> &le; 0.678<br/>entropy = 0.776<br/>samples = 35<br/>value = [27, 8]>, fillcolor="#eda674"] ;
470 -> 471 ;
472 [label=<X<SUB>5</SUB> &le; 0.394<br/>entropy = 0.932<br/>samples = 23<br/>value = [15, 8]>, fillcolor="#f3c4a3"] ;
471 -> 472 ;
473 [label=<entropy = 0.0<br/>samples = 12<br/>value = [12, 0]>, fillcolor="#e58139"] ;
472 -> 473 ;
474 [label=<X<SUB>19</SUB> &le; 0.566<br/>entropy = 0.845<br/>samples = 11<br/>value = [3, 8]>, fillcolor="#83c2ef"] ;
472 -> 474 ;
475 [label=<X<SUB>26</SUB> &le; 0.919<br/>entropy = 0.503<br/>samples = 9<br/>value = [1, 8]>, fillcolor="#52a9e8"] ;
474 -> 475 ;
476 [label=<entropy = 0.0<br/>samples = 8<br/>value = [0, 8]>, fillcolor="#399de5"] ;
475 -> 476 ;
477 [label=<entropy = 0.0<br/>samples = 1<br/>value = [1, 0]>, fillcolor="#e58139"] ;
475 -> 477 ;
478 [label=<entropy = 0.0<br/>samples = 2<br/>value = [2, 0]>, fillcolor="#e58139"] ;
474 -> 478 ;
479 [label=<entropy = 0.0<br/>samples = 12<br/>value = [12, 0]>, fillcolor="#e58139"] ;
471 -> 479 ;
480 [label=<entropy = 0.0<br/>samples = 6<br/>value = [0, 6]>, fillcolor="#399de5"] ;
470 -> 480 ;
481 [label=<X<SUB>20</SUB> &le; 0.413<br/>entropy = 0.745<br/>samples = 250<br/>value = [53, 197]>, fillcolor="#6eb7ec"] ;
433 -> 481 ;
482 [label=<X<SUB>5</SUB> &le; 0.291<br/>entropy = 0.582<br/>samples = 194<br/>value = [27, 167]>, fillcolor="#59ade9"] ;
481 -> 482 ;
483 [label=<entropy = 0.0<br/>samples = 64<br/>value = [0, 64]>, fillcolor="#399de5"] ;
482 -> 483 ;
484 [label=<X<SUB>26</SUB> &le; 0.901<br/>entropy = 0.737<br/>samples = 130<br/>value = [27, 103]>, fillcolor="#6db7ec"] ;
482 -> 484 ;
485 [label=<X<SUB>20</SUB> &le; 0.255<br/>entropy = 0.674<br/>samples = 124<br/>value = [22, 102]>, fillcolor="#64b2eb"] ;
484 -> 485 ;
486 [label=<entropy = 0.0<br/>samples = 25<br/>value = [0, 25]>, fillcolor="#399de5"] ;
485 -> 486 ;
487 [label=<X<SUB>28</SUB> &le; 0.001<br/>entropy = 0.764<br/>samples = 99<br/>value = [22, 77]>, fillcolor="#72b9ec"] ;
485 -> 487 ;
488 [label=<X<SUB>0</SUB> &le; 0.139<br/>entropy = 0.722<br/>samples = 10<br/>value = [8, 2]>, fillcolor="#eca06a"] ;
487 -> 488 ;
489 [label=<X<SUB>11</SUB> &le; 0.67<br/>entropy = 0.503<br/>samples = 9<br/>value = [8, 1]>, fillcolor="#e89152"] ;
488 -> 489 ;
490 [label=<entropy = 0.0<br/>samples = 7<br/>value = [7, 0]>, fillcolor="#e58139"] ;
489 -> 490 ;
491 [label=<X<SUB>22</SUB> &le; 0.121<br/>entropy = 1.0<br/>samples = 2<br/>value = [1, 1]>, fillcolor="#ffffff"] ;
489 -> 491 ;
492 [label=<entropy = 0.0<br/>samples = 1<br/>value = [1, 0]>, fillcolor="#e58139"] ;
491 -> 492 ;
493 [label=<entropy = 0.0<br/>samples = 1<br/>value = [0, 1]>, fillcolor="#399de5"] ;
491 -> 493 ;
494 [label=<entropy = 0.0<br/>samples = 1<br/>value = [0, 1]>, fillcolor="#399de5"] ;
488 -> 494 ;
495 [label=<X<SUB>9</SUB> &le; 0.624<br/>entropy = 0.628<br/>samples = 89<br/>value = [14, 75]>, fillcolor="#5eafea"] ;
487 -> 495 ;
496 [label=<X<SUB>27</SUB> &le; 0.296<br/>entropy = 0.966<br/>samples = 23<br/>value = [9, 14]>, fillcolor="#b8dcf6"] ;
495 -> 496 ;
497 [label=<entropy = 0.0<br/>samples = 8<br/>value = [0, 8]>, fillcolor="#399de5"] ;
496 -> 497 ;
498 [label=<X<SUB>14</SUB> &le; 0.311<br/>entropy = 0.971<br/>samples = 15<br/>value = [9, 6]>, fillcolor="#f6d5bd"] ;
496 -> 498 ;
499 [label=<X<SUB>38</SUB> &le; 0.119<br/>entropy = 0.918<br/>samples = 9<br/>value = [3, 6]>, fillcolor="#9ccef2"] ;
498 -> 499 ;
500 [label=<X<SUB>10</SUB> &le; 0.54<br/>entropy = 0.592<br/>samples = 7<br/>value = [1, 6]>, fillcolor="#5aade9"] ;
499 -> 500 ;
501 [label=<entropy = 0.0<br/>samples = 6<br/>value = [0, 6]>, fillcolor="#399de5"] ;
500 -> 501 ;
502 [label=<entropy = 0.0<br/>samples = 1<br/>value = [1, 0]>, fillcolor="#e58139"] ;
500 -> 502 ;
503 [label=<entropy = 0.0<br/>samples = 2<br/>value = [2, 0]>, fillcolor="#e58139"] ;
499 -> 503 ;
504 [label=<entropy = 0.0<br/>samples = 6<br/>value = [6, 0]>, fillcolor="#e58139"] ;
498 -> 504 ;
505 [label=<X<SUB>0</SUB> &le; 0.144<br/>entropy = 0.387<br/>samples = 66<br/>value = [5, 61]>, fillcolor="#49a5e7"] ;
495 -> 505 ;
506 [label=<X<SUB>4</SUB> &le; 0.695<br/>entropy = 0.273<br/>samples = 64<br/>value = [3, 61]>, fillcolor="#43a2e6"] ;
505 -> 506 ;
507 [label=<X<SUB>11</SUB> &le; 0.756<br/>entropy = 0.203<br/>samples = 63<br/>value = [2, 61]>, fillcolor="#3fa0e6"] ;
506 -> 507 ;
508 [label=<X<SUB>41</SUB> &le; 0.998<br/>entropy = 0.119<br/>samples = 62<br/>value = [1, 61]>, fillcolor="#3c9fe5"] ;
507 -> 508 ;
509 [label=<entropy = 0.0<br/>samples = 61<br/>value = [0, 61]>, fillcolor="#399de5"] ;
508 -> 509 ;
510 [label=<entropy = 0.0<br/>samples = 1<br/>value = [1, 0]>, fillcolor="#e58139"] ;
508 -> 510 ;
511 [label=<entropy = 0.0<br/>samples = 1<br/>value = [1, 0]>, fillcolor="#e58139"] ;
507 -> 511 ;
512 [label=<entropy = 0.0<br/>samples = 1<br/>value = [1, 0]>, fillcolor="#e58139"] ;
506 -> 512 ;
513 [label=<entropy = 0.0<br/>samples = 2<br/>value = [2, 0]>, fillcolor="#e58139"] ;
505 -> 513 ;
514 [label=<X<SUB>36</SUB> &le; 0.266<br/>entropy = 0.65<br/>samples = 6<br/>value = [5, 1]>, fillcolor="#ea9a61"] ;
484 -> 514 ;
515 [label=<entropy = 0.0<br/>samples = 1<br/>value = [0, 1]>, fillcolor="#399de5"] ;
514 -> 515 ;
516 [label=<entropy = 0.0<br/>samples = 5<br/>value = [5, 0]>, fillcolor="#e58139"] ;
514 -> 516 ;
517 [label=<X<SUB>44</SUB> &le; 0.833<br/>entropy = 0.996<br/>samples = 56<br/>value = [26, 30]>, fillcolor="#e5f2fc"] ;
481 -> 517 ;
518 [label=<X<SUB>18</SUB> &le; 0.299<br/>entropy = 0.982<br/>samples = 45<br/>value = [26, 19]>, fillcolor="#f8ddca"] ;
517 -> 518 ;
519 [label=<entropy = 0.0<br/>samples = 7<br/>value = [0, 7]>, fillcolor="#399de5"] ;
518 -> 519 ;
520 [label=<X<SUB>5</SUB> &le; 0.11<br/>entropy = 0.9<br/>samples = 38<br/>value = [26, 12]>, fillcolor="#f1bb94"] ;
518 -> 520 ;
521 [label=<X<SUB>33</SUB> &le; 0.187<br/>entropy = 0.65<br/>samples = 6<br/>value = [1, 5]>, fillcolor="#61b1ea"] ;
520 -> 521 ;
522 [label=<entropy = 0.0<br/>samples = 1<br/>value = [1, 0]>, fillcolor="#e58139"] ;
521 -> 522 ;
523 [label=<entropy = 0.0<br/>samples = 5<br/>value = [0, 5]>, fillcolor="#399de5"] ;
521 -> 523 ;
524 [label=<X<SUB>4</SUB> &le; 0.602<br/>entropy = 0.758<br/>samples = 32<br/>value = [25, 7]>, fillcolor="#eca470"] ;
520 -> 524 ;
525 [label=<X<SUB>11</SUB> &le; 0.724<br/>entropy = 0.964<br/>samples = 18<br/>value = [11, 7]>, fillcolor="#f6d1b7"] ;
524 -> 525 ;
526 [label=<X<SUB>43</SUB> &le; 0.425<br/>entropy = 0.75<br/>samples = 14<br/>value = [11, 3]>, fillcolor="#eca36f"] ;
525 -> 526 ;
527 [label=<X<SUB>18</SUB> &le; 0.356<br/>entropy = 0.985<br/>samples = 7<br/>value = [4, 3]>, fillcolor="#f8e0ce"] ;
526 -> 527 ;
528 [label=<entropy = 0.0<br/>samples = 3<br/>value = [3, 0]>, fillcolor="#e58139"] ;
527 -> 528 ;
529 [label=<X<SUB>25</SUB> &le; 0.021<br/>entropy = 0.811<br/>samples = 4<br/>value = [1, 3]>, fillcolor="#7bbeee"] ;
527 -> 529 ;
530 [label=<entropy = 0.0<br/>samples = 1<br/>value = [1, 0]>, fillcolor="#e58139"] ;
529 -> 530 ;
531 [label=<entropy = 0.0<br/>samples = 3<br/>value = [0, 3]>, fillcolor="#399de5"] ;
529 -> 531 ;
532 [label=<entropy = 0.0<br/>samples = 7<br/>value = [7, 0]>, fillcolor="#e58139"] ;
526 -> 532 ;
533 [label=<entropy = 0.0<br/>samples = 4<br/>value = [0, 4]>, fillcolor="#399de5"] ;
525 -> 533 ;
534 [label=<entropy = 0.0<br/>samples = 14<br/>value = [14, 0]>, fillcolor="#e58139"] ;
524 -> 534 ;
535 [label=<entropy = 0.0<br/>samples = 11<br/>value = [0, 11]>, fillcolor="#399de5"] ;
517 -> 535 ;
536 [label=<X<SUB>11</SUB> &le; 0.3<br/>entropy = 0.417<br/>samples = 83<br/>value = [7, 76]>, fillcolor="#4ba6e7"] ;
432 -> 536 ;
537 [label=<X<SUB>26</SUB> &le; 0.92<br/>entropy = 0.669<br/>samples = 40<br/>value = [7, 33]>, fillcolor="#63b2eb"] ;
536 -> 537 ;
538 [label=<X<SUB>19</SUB> &le; 0.523<br/>entropy = 0.562<br/>samples = 38<br/>value = [5, 33]>, fillcolor="#57ace9"] ;
537 -> 538 ;
539 [label=<X<SUB>5</SUB> &le; 0.39<br/>entropy = 0.422<br/>samples = 35<br/>value = [3, 32]>, fillcolor="#4ca6e7"] ;
538 -> 539 ;
540 [label=<X<SUB>4</SUB> &le; 0.339<br/>entropy = 0.954<br/>samples = 8<br/>value = [3, 5]>, fillcolor="#b0d8f5"] ;
539 -> 540 ;
541 [label=<entropy = 0.0<br/>samples = 4<br/>value = [0, 4]>, fillcolor="#399de5"] ;
540 -> 541 ;
542 [label=<X<SUB>41</SUB> &le; 0.82<br/>entropy = 0.811<br/>samples = 4<br/>value = [3, 1]>, fillcolor="#eeab7b"] ;
540 -> 542 ;
543 [label=<entropy = 0.0<br/>samples = 3<br/>value = [3, 0]>, fillcolor="#e58139"] ;
542 -> 543 ;
544 [label=<entropy = 0.0<br/>samples = 1<br/>value = [0, 1]>, fillcolor="#399de5"] ;
542 -> 544 ;
545 [label=<entropy = 0.0<br/>samples = 27<br/>value = [0, 27]>, fillcolor="#399de5"] ;
539 -> 545 ;
546 [label=<X<SUB>39</SUB> &le; 0.535<br/>entropy = 0.918<br/>samples = 3<br/>value = [2, 1]>, fillcolor="#f2c09c"] ;
538 -> 546 ;
547 [label=<entropy = 0.0<br/>samples = 1<br/>value = [0, 1]>, fillcolor="#399de5"] ;
546 -> 547 ;
548 [label=<entropy = 0.0<br/>samples = 2<br/>value = [2, 0]>, fillcolor="#e58139"] ;
546 -> 548 ;
549 [label=<entropy = 0.0<br/>samples = 2<br/>value = [2, 0]>, fillcolor="#e58139"] ;
537 -> 549 ;
550 [label=<entropy = 0.0<br/>samples = 43<br/>value = [0, 43]>, fillcolor="#399de5"] ;
536 -> 550 ;
551 [label=<X<SUB>28</SUB> &le; 0.913<br/>entropy = 0.541<br/>samples = 782<br/>value = [97, 685]>, fillcolor="#55abe9"] ;
431 -> 551 ;
552 [label=<X<SUB>32</SUB> &le; 0.711<br/>entropy = 0.487<br/>samples = 747<br/>value = [79, 668]>, fillcolor="#50a9e8"] ;
551 -> 552 ;
553 [label=<X<SUB>40</SUB> &le; 0.216<br/>entropy = 0.614<br/>samples = 475<br/>value = [72, 403]>, fillcolor="#5cafea"] ;
552 -> 553 ;
554 [label=<X<SUB>27</SUB> &le; 0.117<br/>entropy = 0.336<br/>samples = 177<br/>value = [11, 166]>, fillcolor="#46a3e7"] ;
553 -> 554 ;
555 [label=<entropy = 0.0<br/>samples = 100<br/>value = [0, 100]>, fillcolor="#399de5"] ;
554 -> 555 ;
556 [label=<X<SUB>2</SUB> &le; 0.158<br/>entropy = 0.592<br/>samples = 77<br/>value = [11, 66]>, fillcolor="#5aade9"] ;
554 -> 556 ;
557 [label=<X<SUB>38</SUB> &le; 0.9<br/>entropy = 0.869<br/>samples = 31<br/>value = [9, 22]>, fillcolor="#8ac5f0"] ;
556 -> 557 ;
558 [label=<X<SUB>19</SUB> &le; 0.211<br/>entropy = 0.469<br/>samples = 20<br/>value = [2, 18]>, fillcolor="#4fa8e8"] ;
557 -> 558 ;
559 [label=<entropy = 0.0<br/>samples = 14<br/>value = [0, 14]>, fillcolor="#399de5"] ;
558 -> 559 ;
560 [label=<X<SUB>15</SUB> &le; 0.255<br/>entropy = 0.918<br/>samples = 6<br/>value = [2, 4]>, fillcolor="#9ccef2"] ;
558 -> 560 ;
561 [label=<entropy = 0.0<br/>samples = 2<br/>value = [2, 0]>, fillcolor="#e58139"] ;
560 -> 561 ;
562 [label=<entropy = 0.0<br/>samples = 4<br/>value = [0, 4]>, fillcolor="#399de5"] ;
560 -> 562 ;
563 [label=<X<SUB>2</SUB> &le; 0.033<br/>entropy = 0.946<br/>samples = 11<br/>value = [7, 4]>, fillcolor="#f4c9aa"] ;
557 -> 563 ;
564 [label=<X<SUB>43</SUB> &le; 0.826<br/>entropy = 0.722<br/>samples = 5<br/>value = [1, 4]>, fillcolor="#6ab6ec"] ;
563 -> 564 ;
565 [label=<X<SUB>5</SUB> &le; 0.721<br/>entropy = 1.0<br/>samples = 2<br/>value = [1, 1]>, fillcolor="#ffffff"] ;
564 -> 565 ;
566 [label=<entropy = 0.0<br/>samples = 1<br/>value = [1, 0]>, fillcolor="#e58139"] ;
565 -> 566 ;
567 [label=<entropy = 0.0<br/>samples = 1<br/>value = [0, 1]>, fillcolor="#399de5"] ;
565 -> 567 ;
568 [label=<entropy = 0.0<br/>samples = 3<br/>value = [0, 3]>, fillcolor="#399de5"] ;
564 -> 568 ;
569 [label=<entropy = 0.0<br/>samples = 6<br/>value = [6, 0]>, fillcolor="#e58139"] ;
563 -> 569 ;
570 [label=<X<SUB>4</SUB> &le; 0.524<br/>entropy = 0.258<br/>samples = 46<br/>value = [2, 44]>, fillcolor="#42a1e6"] ;
556 -> 570 ;
571 [label=<X<SUB>16</SUB> &le; 0.278<br/>entropy = 0.684<br/>samples = 11<br/>value = [2, 9]>, fillcolor="#65b3eb"] ;
570 -> 571 ;
572 [label=<X<SUB>12</SUB> &le; 0.88<br/>entropy = 0.469<br/>samples = 10<br/>value = [1, 9]>, fillcolor="#4fa8e8"] ;
571 -> 572 ;
573 [label=<entropy = 0.0<br/>samples = 9<br/>value = [0, 9]>, fillcolor="#399de5"] ;
572 -> 573 ;
574 [label=<entropy = 0.0<br/>samples = 1<br/>value = [1, 0]>, fillcolor="#e58139"] ;
572 -> 574 ;
575 [label=<entropy = 0.0<br/>samples = 1<br/>value = [1, 0]>, fillcolor="#e58139"] ;
571 -> 575 ;
576 [label=<entropy = 0.0<br/>samples = 35<br/>value = [0, 35]>, fillcolor="#399de5"] ;
570 -> 576 ;
577 [label=<X<SUB>26</SUB> &le; 0.937<br/>entropy = 0.731<br/>samples = 298<br/>value = [61, 237]>, fillcolor="#6cb6ec"] ;
553 -> 577 ;
578 [label=<X<SUB>38</SUB> &le; 0.282<br/>entropy = 0.684<br/>samples = 286<br/>value = [52, 234]>, fillcolor="#65b3eb"] ;
577 -> 578 ;
579 [label=<X<SUB>40</SUB> &le; 0.557<br/>entropy = 0.752<br/>samples = 241<br/>value = [52, 189]>, fillcolor="#6fb8ec"] ;
578 -> 579 ;
580 [label=<X<SUB>22</SUB> &le; 0.134<br/>entropy = 0.931<br/>samples = 98<br/>value = [34, 64]>, fillcolor="#a2d1f3"] ;
579 -> 580 ;
581 [label=<entropy = 0.0<br/>samples = 14<br/>value = [0, 14]>, fillcolor="#399de5"] ;
580 -> 581 ;
582 [label=<X<SUB>0</SUB> &le; 0.157<br/>entropy = 0.974<br/>samples = 84<br/>value = [34, 50]>, fillcolor="#c0e0f7"] ;
580 -> 582 ;
583 [label=<X<SUB>2</SUB> &le; 0.375<br/>entropy = 0.998<br/>samples = 72<br/>value = [34, 38]>, fillcolor="#eaf5fc"] ;
582 -> 583 ;
584 [label=<X<SUB>43</SUB> &le; 0.628<br/>entropy = 0.973<br/>samples = 52<br/>value = [31, 21]>, fillcolor="#f7d6bf"] ;
583 -> 584 ;
585 [label=<X<SUB>4</SUB> &le; 0.65<br/>entropy = 0.691<br/>samples = 27<br/>value = [22, 5]>, fillcolor="#eb9e66"] ;
584 -> 585 ;
586 [label=<entropy = 0.0<br/>samples = 18<br/>value = [18, 0]>, fillcolor="#e58139"] ;
585 -> 586 ;
587 [label=<X<SUB>6</SUB> &le; 0.882<br/>entropy = 0.991<br/>samples = 9<br/>value = [4, 5]>, fillcolor="#d7ebfa"] ;
585 -> 587 ;
588 [label=<X<SUB>16</SUB> &le; 0.069<br/>entropy = 0.722<br/>samples = 5<br/>value = [4, 1]>, fillcolor="#eca06a"] ;
587 -> 588 ;
589 [label=<entropy = 0.0<br/>samples = 1<br/>value = [0, 1]>, fillcolor="#399de5"] ;
588 -> 589 ;
590 [label=<entropy = 0.0<br/>samples = 4<br/>value = [4, 0]>, fillcolor="#e58139"] ;
588 -> 590 ;
591 [label=<entropy = 0.0<br/>samples = 4<br/>value = [0, 4]>, fillcolor="#399de5"] ;
587 -> 591 ;
592 [label=<X<SUB>11</SUB> &le; 0.52<br/>entropy = 0.943<br/>samples = 25<br/>value = [9, 16]>, fillcolor="#a8d4f4"] ;
584 -> 592 ;
593 [label=<X<SUB>3</SUB> &le; 0.107<br/>entropy = 0.863<br/>samples = 7<br/>value = [5, 2]>, fillcolor="#efb388"] ;
592 -> 593 ;
594 [label=<entropy = 0.0<br/>samples = 4<br/>value = [4, 0]>, fillcolor="#e58139"] ;
593 -> 594 ;
595 [label=<X<SUB>15</SUB> &le; 0.157<br/>entropy = 0.918<br/>samples = 3<br/>value = [1, 2]>, fillcolor="#9ccef2"] ;
593 -> 595 ;
596 [label=<entropy = 0.0<br/>samples = 1<br/>value = [1, 0]>, fillcolor="#e58139"] ;
595 -> 596 ;
597 [label=<entropy = 0.0<br/>samples = 2<br/>value = [0, 2]>, fillcolor="#399de5"] ;
595 -> 597 ;
598 [label=<X<SUB>20</SUB> &le; 0.358<br/>entropy = 0.764<br/>samples = 18<br/>value = [4, 14]>, fillcolor="#72b9ec"] ;
592 -> 598 ;
599 [label=<X<SUB>37</SUB> &le; 0.018<br/>entropy = 0.544<br/>samples = 16<br/>value = [2, 14]>, fillcolor="#55abe9"] ;
598 -> 599 ;
600 [label=<entropy = 0.0<br/>samples = 11<br/>value = [0, 11]>, fillcolor="#399de5"] ;
599 -> 600 ;
601 [label=<X<SUB>4</SUB> &le; 0.641<br/>entropy = 0.971<br/>samples = 5<br/>value = [2, 3]>, fillcolor="#bddef6"] ;
599 -> 601 ;
602 [label=<entropy = 0.0<br/>samples = 2<br/>value = [2, 0]>, fillcolor="#e58139"] ;
601 -> 602 ;
603 [label=<entropy = 0.0<br/>samples = 3<br/>value = [0, 3]>, fillcolor="#399de5"] ;
601 -> 603 ;
604 [label=<entropy = 0.0<br/>samples = 2<br/>value = [2, 0]>, fillcolor="#e58139"] ;
598 -> 604 ;
605 [label=<X<SUB>4</SUB> &le; 0.435<br/>entropy = 0.61<br/>samples = 20<br/>value = [3, 17]>, fillcolor="#5caeea"] ;
583 -> 605 ;
606 [label=<X<SUB>9</SUB> &le; 0.783<br/>entropy = 0.971<br/>samples = 5<br/>value = [3, 2]>, fillcolor="#f6d5bd"] ;
605 -> 606 ;
607 [label=<entropy = 0.0<br/>samples = 2<br/>value = [0, 2]>, fillcolor="#399de5"] ;
606 -> 607 ;
608 [label=<entropy = 0.0<br/>samples = 3<br/>value = [3, 0]>, fillcolor="#e58139"] ;
606 -> 608 ;
609 [label=<entropy = 0.0<br/>samples = 15<br/>value = [0, 15]>, fillcolor="#399de5"] ;
605 -> 609 ;
610 [label=<entropy = 0.0<br/>samples = 12<br/>value = [0, 12]>, fillcolor="#399de5"] ;
582 -> 610 ;
611 [label=<X<SUB>3</SUB> &le; 0.112<br/>entropy = 0.546<br/>samples = 143<br/>value = [18, 125]>, fillcolor="#56abe9"] ;
579 -> 611 ;
612 [label=<X<SUB>11</SUB> &le; 0.324<br/>entropy = 0.657<br/>samples = 106<br/>value = [18, 88]>, fillcolor="#61b1ea"] ;
611 -> 612 ;
613 [label=<entropy = 0.0<br/>samples = 6<br/>value = [6, 0]>, fillcolor="#e58139"] ;
612 -> 613 ;
614 [label=<X<SUB>13</SUB> &le; 0.145<br/>entropy = 0.529<br/>samples = 100<br/>value = [12, 88]>, fillcolor="#54aae9"] ;
612 -> 614 ;
615 [label=<entropy = 0.0<br/>samples = 31<br/>value = [0, 31]>, fillcolor="#399de5"] ;
614 -> 615 ;
616 [label=<X<SUB>13</SUB> &le; 0.242<br/>entropy = 0.667<br/>samples = 69<br/>value = [12, 57]>, fillcolor="#63b2ea"] ;
614 -> 616 ;
617 [label=<X<SUB>29</SUB> &le; 0.0<br/>entropy = 0.82<br/>samples = 47<br/>value = [12, 35]>, fillcolor="#7dbfee"] ;
616 -> 617 ;
618 [label=<X<SUB>17</SUB> &le; 0.346<br/>entropy = 0.402<br/>samples = 25<br/>value = [2, 23]>, fillcolor="#4aa6e7"] ;
617 -> 618 ;
619 [label=<X<SUB>14</SUB> &le; 0.21<br/>entropy = 0.25<br/>samples = 24<br/>value = [1, 23]>, fillcolor="#42a1e6"] ;
618 -> 619 ;
620 [label=<entropy = 0.0<br/>samples = 21<br/>value = [0, 21]>, fillcolor="#399de5"] ;
619 -> 620 ;
621 [label=<X<SUB>16</SUB> &le; 0.292<br/>entropy = 0.918<br/>samples = 3<br/>value = [1, 2]>, fillcolor="#9ccef2"] ;
619 -> 621 ;
622 [label=<entropy = 0.0<br/>samples = 1<br/>value = [1, 0]>, fillcolor="#e58139"] ;
621 -> 622 ;
623 [label=<entropy = 0.0<br/>samples = 2<br/>value = [0, 2]>, fillcolor="#399de5"] ;
621 -> 623 ;
624 [label=<entropy = 0.0<br/>samples = 1<br/>value = [1, 0]>, fillcolor="#e58139"] ;
618 -> 624 ;
625 [label=<X<SUB>21</SUB> &le; 0.546<br/>entropy = 0.994<br/>samples = 22<br/>value = [10, 12]>, fillcolor="#deeffb"] ;
617 -> 625 ;
626 [label=<X<SUB>4</SUB> &le; 0.617<br/>entropy = 0.94<br/>samples = 14<br/>value = [9, 5]>, fillcolor="#f3c7a7"] ;
625 -> 626 ;
627 [label=<X<SUB>17</SUB> &le; 0.264<br/>entropy = 0.811<br/>samples = 12<br/>value = [9, 3]>, fillcolor="#eeab7b"] ;
626 -> 627 ;
628 [label=<X<SUB>20</SUB> &le; 0.228<br/>entropy = 0.985<br/>samples = 7<br/>value = [4, 3]>, fillcolor="#f8e0ce"] ;
627 -> 628 ;
629 [label=<entropy = 0.0<br/>samples = 2<br/>value = [0, 2]>, fillcolor="#399de5"] ;
628 -> 629 ;
630 [label=<X<SUB>0</SUB> &le; 0.143<br/>entropy = 0.722<br/>samples = 5<br/>value = [4, 1]>, fillcolor="#eca06a"] ;
628 -> 630 ;
631 [label=<entropy = 0.0<br/>samples = 1<br/>value = [0, 1]>, fillcolor="#399de5"] ;
630 -> 631 ;
632 [label=<entropy = 0.0<br/>samples = 4<br/>value = [4, 0]>, fillcolor="#e58139"] ;
630 -> 632 ;
633 [label=<entropy = 0.0<br/>samples = 5<br/>value = [5, 0]>, fillcolor="#e58139"] ;
627 -> 633 ;
634 [label=<entropy = 0.0<br/>samples = 2<br/>value = [0, 2]>, fillcolor="#399de5"] ;
626 -> 634 ;
635 [label=<X<SUB>20</SUB> &le; 0.152<br/>entropy = 0.544<br/>samples = 8<br/>value = [1, 7]>, fillcolor="#55abe9"] ;
625 -> 635 ;
636 [label=<entropy = 0.0<br/>samples = 1<br/>value = [1, 0]>, fillcolor="#e58139"] ;
635 -> 636 ;
637 [label=<entropy = 0.0<br/>samples = 7<br/>value = [0, 7]>, fillcolor="#399de5"] ;
635 -> 637 ;
638 [label=<entropy = 0.0<br/>samples = 22<br/>value = [0, 22]>, fillcolor="#399de5"] ;
616 -> 638 ;
639 [label=<entropy = 0.0<br/>samples = 37<br/>value = [0, 37]>, fillcolor="#399de5"] ;
611 -> 639 ;
640 [label=<entropy = 0.0<br/>samples = 45<br/>value = [0, 45]>, fillcolor="#399de5"] ;
578 -> 640 ;
641 [label=<X<SUB>0</SUB> &le; 0.156<br/>entropy = 0.811<br/>samples = 12<br/>value = [9, 3]>, fillcolor="#eeab7b"] ;
577 -> 641 ;
642 [label=<entropy = 0.0<br/>samples = 9<br/>value = [9, 0]>, fillcolor="#e58139"] ;
641 -> 642 ;
643 [label=<entropy = 0.0<br/>samples = 3<br/>value = [0, 3]>, fillcolor="#399de5"] ;
641 -> 643 ;
644 [label=<X<SUB>28</SUB> &le; 0.798<br/>entropy = 0.173<br/>samples = 272<br/>value = [7, 265]>, fillcolor="#3ea0e6"] ;
552 -> 644 ;
645 [label=<X<SUB>40</SUB> &le; 0.164<br/>entropy = 0.041<br/>samples = 227<br/>value = [1, 226]>, fillcolor="#3a9de5"] ;
644 -> 645 ;
646 [label=<X<SUB>16</SUB> &le; 0.082<br/>entropy = 0.391<br/>samples = 13<br/>value = [1, 12]>, fillcolor="#49a5e7"] ;
645 -> 646 ;
647 [label=<X<SUB>17</SUB> &le; 0.293<br/>entropy = 1.0<br/>samples = 2<br/>value = [1, 1]>, fillcolor="#ffffff"] ;
646 -> 647 ;
648 [label=<entropy = 0.0<br/>samples = 1<br/>value = [1, 0]>, fillcolor="#e58139"] ;
647 -> 648 ;
649 [label=<entropy = 0.0<br/>samples = 1<br/>value = [0, 1]>, fillcolor="#399de5"] ;
647 -> 649 ;
650 [label=<entropy = 0.0<br/>samples = 11<br/>value = [0, 11]>, fillcolor="#399de5"] ;
646 -> 650 ;
651 [label=<entropy = 0.0<br/>samples = 214<br/>value = [0, 214]>, fillcolor="#399de5"] ;
645 -> 651 ;
652 [label=<X<SUB>14</SUB> &le; 0.17<br/>entropy = 0.567<br/>samples = 45<br/>value = [6, 39]>, fillcolor="#57ace9"] ;
644 -> 652 ;
653 [label=<X<SUB>19</SUB> &le; 0.115<br/>entropy = 0.75<br/>samples = 28<br/>value = [6, 22]>, fillcolor="#6fb8ec"] ;
652 -> 653 ;
654 [label=<entropy = 0.0<br/>samples = 11<br/>value = [0, 11]>, fillcolor="#399de5"] ;
653 -> 654 ;
655 [label=<X<SUB>14</SUB> &le; 0.145<br/>entropy = 0.937<br/>samples = 17<br/>value = [6, 11]>, fillcolor="#a5d2f3"] ;
653 -> 655 ;
656 [label=<X<SUB>10</SUB> &le; 0.719<br/>entropy = 0.619<br/>samples = 13<br/>value = [2, 11]>, fillcolor="#5dafea"] ;
655 -> 656 ;
657 [label=<entropy = 0.0<br/>samples = 1<br/>value = [1, 0]>, fillcolor="#e58139"] ;
656 -> 657 ;
658 [label=<X<SUB>13</SUB> &le; 0.103<br/>entropy = 0.414<br/>samples = 12<br/>value = [1, 11]>, fillcolor="#4ba6e7"] ;
656 -> 658 ;
659 [label=<entropy = 0.0<br/>samples = 1<br/>value = [1, 0]>, fillcolor="#e58139"] ;
658 -> 659 ;
660 [label=<entropy = 0.0<br/>samples = 11<br/>value = [0, 11]>, fillcolor="#399de5"] ;
658 -> 660 ;
661 [label=<entropy = 0.0<br/>samples = 4<br/>value = [4, 0]>, fillcolor="#e58139"] ;
655 -> 661 ;
662 [label=<entropy = 0.0<br/>samples = 17<br/>value = [0, 17]>, fillcolor="#399de5"] ;
652 -> 662 ;
663 [label=<X<SUB>2</SUB> &le; 0.033<br/>entropy = 0.999<br/>samples = 35<br/>value = [18, 17]>, fillcolor="#fef8f4"] ;
551 -> 663 ;
664 [label=<entropy = 0.0<br/>samples = 9<br/>value = [0, 9]>, fillcolor="#399de5"] ;
663 -> 664 ;
665 [label=<X<SUB>23</SUB> &le; 0.819<br/>entropy = 0.89<br/>samples = 26<br/>value = [18, 8]>, fillcolor="#f1b991"] ;
663 -> 665 ;
666 [label=<X<SUB>9</SUB> &le; 0.752<br/>entropy = 0.31<br/>samples = 18<br/>value = [17, 1]>, fillcolor="#e78845"] ;
665 -> 666 ;
667 [label=<entropy = 0.0<br/>samples = 1<br/>value = [0, 1]>, fillcolor="#399de5"] ;
666 -> 667 ;
668 [label=<entropy = 0.0<br/>samples = 17<br/>value = [17, 0]>, fillcolor="#e58139"] ;
666 -> 668 ;
669 [label=<X<SUB>20</SUB> &le; 0.404<br/>entropy = 0.544<br/>samples = 8<br/>value = [1, 7]>, fillcolor="#55abe9"] ;
665 -> 669 ;
670 [label=<entropy = 0.0<br/>samples = 7<br/>value = [0, 7]>, fillcolor="#399de5"] ;
669 -> 670 ;
671 [label=<entropy = 0.0<br/>samples = 1<br/>value = [1, 0]>, fillcolor="#e58139"] ;
669 -> 671 ;
672 [label=<X<SUB>5</SUB> &le; 0.715<br/>entropy = 0.925<br/>samples = 197<br/>value = [130, 67]>, fillcolor="#f2c29f"] ;
430 -> 672 ;
673 [label=<X<SUB>14</SUB> &le; 0.135<br/>entropy = 0.989<br/>samples = 151<br/>value = [85, 66]>, fillcolor="#f9e3d3"] ;
672 -> 673 ;
674 [label=<entropy = 0.0<br/>samples = 23<br/>value = [23, 0]>, fillcolor="#e58139"] ;
673 -> 674 ;
675 [label=<X<SUB>3</SUB> &le; 0.012<br/>entropy = 0.999<br/>samples = 128<br/>value = [62, 66]>, fillcolor="#f3f9fd"] ;
673 -> 675 ;
676 [label=<X<SUB>3</SUB> &le; 0.001<br/>entropy = 0.804<br/>samples = 57<br/>value = [14, 43]>, fillcolor="#79bded"] ;
675 -> 676 ;
677 [label=<X<SUB>5</SUB> &le; 0.503<br/>entropy = 0.964<br/>samples = 18<br/>value = [11, 7]>, fillcolor="#f6d1b7"] ;
676 -> 677 ;
678 [label=<entropy = 0.0<br/>samples = 9<br/>value = [9, 0]>, fillcolor="#e58139"] ;
677 -> 678 ;
679 [label=<X<SUB>42</SUB> &le; 0.16<br/>entropy = 0.764<br/>samples = 9<br/>value = [2, 7]>, fillcolor="#72b9ec"] ;
677 -> 679 ;
680 [label=<entropy = 0.0<br/>samples = 7<br/>value = [0, 7]>, fillcolor="#399de5"] ;
679 -> 680 ;
681 [label=<entropy = 0.0<br/>samples = 2<br/>value = [2, 0]>, fillcolor="#e58139"] ;
679 -> 681 ;
682 [label=<X<SUB>7</SUB> &le; 0.456<br/>entropy = 0.391<br/>samples = 39<br/>value = [3, 36]>, fillcolor="#49a5e7"] ;
676 -> 682 ;
683 [label=<X<SUB>19</SUB> &le; 0.699<br/>entropy = 0.971<br/>samples = 5<br/>value = [3, 2]>, fillcolor="#f6d5bd"] ;
682 -> 683 ;
684 [label=<entropy = 0.0<br/>samples = 3<br/>value = [3, 0]>, fillcolor="#e58139"] ;
683 -> 684 ;
685 [label=<entropy = 0.0<br/>samples = 2<br/>value = [0, 2]>, fillcolor="#399de5"] ;
683 -> 685 ;
686 [label=<entropy = 0.0<br/>samples = 34<br/>value = [0, 34]>, fillcolor="#399de5"] ;
682 -> 686 ;
687 [label=<X<SUB>11</SUB> &le; 0.101<br/>entropy = 0.909<br/>samples = 71<br/>value = [48, 23]>, fillcolor="#f1bd98"] ;
675 -> 687 ;
688 [label=<X<SUB>10</SUB> &le; 0.669<br/>entropy = 0.852<br/>samples = 18<br/>value = [5, 13]>, fillcolor="#85c3ef"] ;
687 -> 688 ;
689 [label=<entropy = 0.0<br/>samples = 13<br/>value = [0, 13]>, fillcolor="#399de5"] ;
688 -> 689 ;
690 [label=<entropy = 0.0<br/>samples = 5<br/>value = [5, 0]>, fillcolor="#e58139"] ;
688 -> 690 ;
691 [label=<X<SUB>15</SUB> &le; 0.222<br/>entropy = 0.699<br/>samples = 53<br/>value = [43, 10]>, fillcolor="#eb9e67"] ;
687 -> 691 ;
692 [label=<entropy = 0.0<br/>samples = 19<br/>value = [19, 0]>, fillcolor="#e58139"] ;
691 -> 692 ;
693 [label=<X<SUB>20</SUB> &le; 0.207<br/>entropy = 0.874<br/>samples = 34<br/>value = [24, 10]>, fillcolor="#f0b58b"] ;
691 -> 693 ;
694 [label=<X<SUB>46</SUB> &le; 0.75<br/>entropy = 0.485<br/>samples = 19<br/>value = [17, 2]>, fillcolor="#e89050"] ;
693 -> 694 ;
695 [label=<entropy = 0.0<br/>samples = 16<br/>value = [16, 0]>, fillcolor="#e58139"] ;
694 -> 695 ;
696 [label=<X<SUB>33</SUB> &le; 0.826<br/>entropy = 0.918<br/>samples = 3<br/>value = [1, 2]>, fillcolor="#9ccef2"] ;
694 -> 696 ;
697 [label=<entropy = 0.0<br/>samples = 2<br/>value = [0, 2]>, fillcolor="#399de5"] ;
696 -> 697 ;
698 [label=<entropy = 0.0<br/>samples = 1<br/>value = [1, 0]>, fillcolor="#e58139"] ;
696 -> 698 ;
699 [label=<X<SUB>8</SUB> &le; 0.716<br/>entropy = 0.997<br/>samples = 15<br/>value = [7, 8]>, fillcolor="#e6f3fc"] ;
693 -> 699 ;
700 [label=<X<SUB>9</SUB> &le; 0.389<br/>entropy = 0.881<br/>samples = 10<br/>value = [7, 3]>, fillcolor="#f0b78e"] ;
699 -> 700 ;
701 [label=<X<SUB>34</SUB> &le; 0.43<br/>entropy = 0.811<br/>samples = 4<br/>value = [1, 3]>, fillcolor="#7bbeee"] ;
700 -> 701 ;
702 [label=<entropy = 0.0<br/>samples = 1<br/>value = [1, 0]>, fillcolor="#e58139"] ;
701 -> 702 ;
703 [label=<entropy = 0.0<br/>samples = 3<br/>value = [0, 3]>, fillcolor="#399de5"] ;
701 -> 703 ;
704 [label=<entropy = 0.0<br/>samples = 6<br/>value = [6, 0]>, fillcolor="#e58139"] ;
700 -> 704 ;
705 [label=<entropy = 0.0<br/>samples = 5<br/>value = [0, 5]>, fillcolor="#399de5"] ;
699 -> 705 ;
706 [label=<X<SUB>11</SUB> &le; 0.49<br/>entropy = 0.151<br/>samples = 46<br/>value = [45, 1]>, fillcolor="#e6843d"] ;
672 -> 706 ;
707 [label=<entropy = 0.0<br/>samples = 42<br/>value = [42, 0]>, fillcolor="#e58139"] ;
706 -> 707 ;
708 [label=<X<SUB>41</SUB> &le; 0.47<br/>entropy = 0.811<br/>samples = 4<br/>value = [3, 1]>, fillcolor="#eeab7b"] ;
706 -> 708 ;
709 [label=<entropy = 0.0<br/>samples = 3<br/>value = [3, 0]>, fillcolor="#e58139"] ;
708 -> 709 ;
710 [label=<entropy = 0.0<br/>samples = 1<br/>value = [0, 1]>, fillcolor="#399de5"] ;
708 -> 710 ;
711 [label=<X<SUB>0</SUB> &le; 0.248<br/>entropy = 0.484<br/>samples = 8480<br/>value = [7591, 889]>, fillcolor="#e89050"] ;
77 -> 711 ;
712 [label=<X<SUB>0</SUB> &le; 0.198<br/>entropy = 0.082<br/>samples = 3361<br/>value = [3327, 34]>, fillcolor="#e5823b"] ;
711 -> 712 ;
713 [label=<X<SUB>38</SUB> &le; 0.109<br/>entropy = 0.165<br/>samples = 1399<br/>value = [1365, 34]>, fillcolor="#e6843e"] ;
712 -> 713 ;
714 [label=<X<SUB>39</SUB> &le; 0.633<br/>entropy = 0.266<br/>samples = 597<br/>value = [570, 27]>, fillcolor="#e68742"] ;
713 -> 714 ;
715 [label=<X<SUB>12</SUB> &le; 0.815<br/>entropy = 0.338<br/>samples = 431<br/>value = [404, 27]>, fillcolor="#e78946"] ;
714 -> 715 ;
716 [label=<X<SUB>42</SUB> &le; 0.003<br/>entropy = 0.312<br/>samples = 428<br/>value = [404, 24]>, fillcolor="#e78845"] ;
715 -> 716 ;
717 [label=<X<SUB>4</SUB> &le; 0.225<br/>entropy = 0.13<br/>samples = 222<br/>value = [218, 4]>, fillcolor="#e5833d"] ;
716 -> 717 ;
718 [label=<X<SUB>15</SUB> &le; 0.265<br/>entropy = 0.918<br/>samples = 3<br/>value = [1, 2]>, fillcolor="#9ccef2"] ;
717 -> 718 ;
719 [label=<entropy = 0.0<br/>samples = 1<br/>value = [1, 0]>, fillcolor="#e58139"] ;
718 -> 719 ;
720 [label=<entropy = 0.0<br/>samples = 2<br/>value = [0, 2]>, fillcolor="#399de5"] ;
718 -> 720 ;
721 [label=<X<SUB>13</SUB> &le; 0.175<br/>entropy = 0.075<br/>samples = 219<br/>value = [217, 2]>, fillcolor="#e5823b"] ;
717 -> 721 ;
722 [label=<X<SUB>13</SUB> &le; 0.173<br/>entropy = 0.381<br/>samples = 27<br/>value = [25, 2]>, fillcolor="#e78b49"] ;
721 -> 722 ;
723 [label=<X<SUB>4</SUB> &le; 0.409<br/>entropy = 0.235<br/>samples = 26<br/>value = [25, 1]>, fillcolor="#e68641"] ;
722 -> 723 ;
724 [label=<X<SUB>17</SUB> &le; 0.229<br/>entropy = 0.811<br/>samples = 4<br/>value = [3, 1]>, fillcolor="#eeab7b"] ;
723 -> 724 ;
725 [label=<entropy = 0.0<br/>samples = 3<br/>value = [3, 0]>, fillcolor="#e58139"] ;
724 -> 725 ;
726 [label=<entropy = 0.0<br/>samples = 1<br/>value = [0, 1]>, fillcolor="#399de5"] ;
724 -> 726 ;
727 [label=<entropy = 0.0<br/>samples = 22<br/>value = [22, 0]>, fillcolor="#e58139"] ;
723 -> 727 ;
728 [label=<entropy = 0.0<br/>samples = 1<br/>value = [0, 1]>, fillcolor="#399de5"] ;
722 -> 728 ;
729 [label=<entropy = 0.0<br/>samples = 192<br/>value = [192, 0]>, fillcolor="#e58139"] ;
721 -> 729 ;
730 [label=<X<SUB>1</SUB> &le; 0.768<br/>entropy = 0.46<br/>samples = 206<br/>value = [186, 20]>, fillcolor="#e88f4e"] ;
716 -> 730 ;
731 [label=<X<SUB>0</SUB> &le; 0.187<br/>entropy = 0.616<br/>samples = 118<br/>value = [100, 18]>, fillcolor="#ea985d"] ;
730 -> 731 ;
732 [label=<X<SUB>15</SUB> &le; 0.44<br/>entropy = 0.918<br/>samples = 48<br/>value = [32, 16]>, fillcolor="#f2c09c"] ;
731 -> 732 ;
733 [label=<X<SUB>13</SUB> &le; 0.322<br/>entropy = 0.845<br/>samples = 44<br/>value = [32, 12]>, fillcolor="#efb083"] ;
732 -> 733 ;
734 [label=<X<SUB>39</SUB> &le; 0.632<br/>entropy = 0.954<br/>samples = 32<br/>value = [20, 12]>, fillcolor="#f5cdb0"] ;
733 -> 734 ;
735 [label=<X<SUB>43</SUB> &le; 0.855<br/>entropy = 1.0<br/>samples = 24<br/>value = [12, 12]>, fillcolor="#ffffff"] ;
734 -> 735 ;
736 [label=<X<SUB>9</SUB> &le; 0.387<br/>entropy = 0.971<br/>samples = 20<br/>value = [8, 12]>, fillcolor="#bddef6"] ;
735 -> 736 ;
737 [label=<entropy = 0.0<br/>samples = 3<br/>value = [3, 0]>, fillcolor="#e58139"] ;
736 -> 737 ;
738 [label=<X<SUB>9</SUB> &le; 0.66<br/>entropy = 0.874<br/>samples = 17<br/>value = [5, 12]>, fillcolor="#8bc6f0"] ;
736 -> 738 ;
739 [label=<X<SUB>3</SUB> &le; 0.019<br/>entropy = 0.722<br/>samples = 15<br/>value = [3, 12]>, fillcolor="#6ab6ec"] ;
738 -> 739 ;
740 [label=<entropy = 0.0<br/>samples = 9<br/>value = [0, 9]>, fillcolor="#399de5"] ;
739 -> 740 ;
741 [label=<X<SUB>4</SUB> &le; 0.381<br/>entropy = 1.0<br/>samples = 6<br/>value = [3, 3]>, fillcolor="#ffffff"] ;
739 -> 741 ;
742 [label=<entropy = 0.0<br/>samples = 2<br/>value = [0, 2]>, fillcolor="#399de5"] ;
741 -> 742 ;
743 [label=<X<SUB>14</SUB> &le; 0.282<br/>entropy = 0.811<br/>samples = 4<br/>value = [3, 1]>, fillcolor="#eeab7b"] ;
741 -> 743 ;
744 [label=<entropy = 0.0<br/>samples = 3<br/>value = [3, 0]>, fillcolor="#e58139"] ;
743 -> 744 ;
745 [label=<entropy = 0.0<br/>samples = 1<br/>value = [0, 1]>, fillcolor="#399de5"] ;
743 -> 745 ;
746 [label=<entropy = 0.0<br/>samples = 2<br/>value = [2, 0]>, fillcolor="#e58139"] ;
738 -> 746 ;
747 [label=<entropy = 0.0<br/>samples = 4<br/>value = [4, 0]>, fillcolor="#e58139"] ;
735 -> 747 ;
748 [label=<entropy = 0.0<br/>samples = 8<br/>value = [8, 0]>, fillcolor="#e58139"] ;
734 -> 748 ;
749 [label=<entropy = 0.0<br/>samples = 12<br/>value = [12, 0]>, fillcolor="#e58139"] ;
733 -> 749 ;
750 [label=<entropy = 0.0<br/>samples = 4<br/>value = [0, 4]>, fillcolor="#399de5"] ;
732 -> 750 ;
751 [label=<X<SUB>13</SUB> &le; 0.148<br/>entropy = 0.187<br/>samples = 70<br/>value = [68, 2]>, fillcolor="#e6853f"] ;
731 -> 751 ;
752 [label=<X<SUB>17</SUB> &le; 0.192<br/>entropy = 0.971<br/>samples = 5<br/>value = [3, 2]>, fillcolor="#f6d5bd"] ;
751 -> 752 ;
753 [label=<entropy = 0.0<br/>samples = 3<br/>value = [3, 0]>, fillcolor="#e58139"] ;
752 -> 753 ;
754 [label=<entropy = 0.0<br/>samples = 2<br/>value = [0, 2]>, fillcolor="#399de5"] ;
752 -> 754 ;
755 [label=<entropy = 0.0<br/>samples = 65<br/>value = [65, 0]>, fillcolor="#e58139"] ;
751 -> 755 ;
756 [label=<X<SUB>0</SUB> &le; 0.168<br/>entropy = 0.156<br/>samples = 88<br/>value = [86, 2]>, fillcolor="#e6843e"] ;
730 -> 756 ;
757 [label=<X<SUB>14</SUB> &le; 0.42<br/>entropy = 0.764<br/>samples = 9<br/>value = [7, 2]>, fillcolor="#eca572"] ;
756 -> 757 ;
758 [label=<entropy = 0.0<br/>samples = 2<br/>value = [0, 2]>, fillcolor="#399de5"] ;
757 -> 758 ;
759 [label=<entropy = 0.0<br/>samples = 7<br/>value = [7, 0]>, fillcolor="#e58139"] ;
757 -> 759 ;
760 [label=<entropy = 0.0<br/>samples = 79<br/>value = [79, 0]>, fillcolor="#e58139"] ;
756 -> 760 ;
761 [label=<entropy = 0.0<br/>samples = 3<br/>value = [0, 3]>, fillcolor="#399de5"] ;
715 -> 761 ;
762 [label=<entropy = 0.0<br/>samples = 166<br/>value = [166, 0]>, fillcolor="#e58139"] ;
714 -> 762 ;
763 [label=<X<SUB>8</SUB> &le; 0.672<br/>entropy = 0.072<br/>samples = 802<br/>value = [795, 7]>, fillcolor="#e5823b"] ;
713 -> 763 ;
764 [label=<entropy = 0.0<br/>samples = 508<br/>value = [508, 0]>, fillcolor="#e58139"] ;
763 -> 764 ;
765 [label=<X<SUB>38</SUB> &le; 0.199<br/>entropy = 0.162<br/>samples = 294<br/>value = [287, 7]>, fillcolor="#e6843e"] ;
763 -> 765 ;
766 [label=<entropy = 0.0<br/>samples = 130<br/>value = [130, 0]>, fillcolor="#e58139"] ;
765 -> 766 ;
767 [label=<X<SUB>38</SUB> &le; 0.241<br/>entropy = 0.254<br/>samples = 164<br/>value = [157, 7]>, fillcolor="#e68742"] ;
765 -> 767 ;
768 [label=<X<SUB>11</SUB> &le; 0.398<br/>entropy = 0.544<br/>samples = 48<br/>value = [42, 6]>, fillcolor="#e99355"] ;
767 -> 768 ;
769 [label=<entropy = 0.0<br/>samples = 22<br/>value = [22, 0]>, fillcolor="#e58139"] ;
768 -> 769 ;
770 [label=<X<SUB>11</SUB> &le; 0.517<br/>entropy = 0.779<br/>samples = 26<br/>value = [20, 6]>, fillcolor="#eda774"] ;
768 -> 770 ;
771 [label=<X<SUB>20</SUB> &le; 0.275<br/>entropy = 0.985<br/>samples = 14<br/>value = [8, 6]>, fillcolor="#f8e0ce"] ;
770 -> 771 ;
772 [label=<entropy = 0.0<br/>samples = 5<br/>value = [5, 0]>, fillcolor="#e58139"] ;
771 -> 772 ;
773 [label=<X<SUB>2</SUB> &le; 0.875<br/>entropy = 0.918<br/>samples = 9<br/>value = [3, 6]>, fillcolor="#9ccef2"] ;
771 -> 773 ;
774 [label=<X<SUB>5</SUB> &le; 0.626<br/>entropy = 0.592<br/>samples = 7<br/>value = [1, 6]>, fillcolor="#5aade9"] ;
773 -> 774 ;
775 [label=<entropy = 0.0<br/>samples = 6<br/>value = [0, 6]>, fillcolor="#399de5"] ;
774 -> 775 ;
776 [label=<entropy = 0.0<br/>samples = 1<br/>value = [1, 0]>, fillcolor="#e58139"] ;
774 -> 776 ;
777 [label=<entropy = 0.0<br/>samples = 2<br/>value = [2, 0]>, fillcolor="#e58139"] ;
773 -> 777 ;
778 [label=<entropy = 0.0<br/>samples = 12<br/>value = [12, 0]>, fillcolor="#e58139"] ;
770 -> 778 ;
779 [label=<X<SUB>19</SUB> &le; 0.036<br/>entropy = 0.072<br/>samples = 116<br/>value = [115, 1]>, fillcolor="#e5823b"] ;
767 -> 779 ;
780 [label=<X<SUB>42</SUB> &le; 0.007<br/>entropy = 0.592<br/>samples = 7<br/>value = [6, 1]>, fillcolor="#e9965a"] ;
779 -> 780 ;
781 [label=<entropy = 0.0<br/>samples = 1<br/>value = [0, 1]>, fillcolor="#399de5"] ;
780 -> 781 ;
782 [label=<entropy = 0.0<br/>samples = 6<br/>value = [6, 0]>, fillcolor="#e58139"] ;
780 -> 782 ;
783 [label=<entropy = 0.0<br/>samples = 109<br/>value = [109, 0]>, fillcolor="#e58139"] ;
779 -> 783 ;
784 [label=<entropy = 0.0<br/>samples = 1962<br/>value = [1962, 0]>, fillcolor="#e58139"] ;
712 -> 784 ;
785 [label=<X<SUB>0</SUB> &le; 0.261<br/>entropy = 0.651<br/>samples = 5119<br/>value = [4264, 855]>, fillcolor="#ea9a61"] ;
711 -> 785 ;
786 [label=<X<SUB>6</SUB> &le; 0.597<br/>entropy = 0.976<br/>samples = 524<br/>value = [214, 310]>, fillcolor="#c2e1f7"] ;
785 -> 786 ;
787 [label=<X<SUB>20</SUB> &le; 0.426<br/>entropy = 0.976<br/>samples = 186<br/>value = [110, 76]>, fillcolor="#f7d8c2"] ;
786 -> 787 ;
788 [label=<X<SUB>17</SUB> &le; 0.724<br/>entropy = 0.983<br/>samples = 118<br/>value = [50, 68]>, fillcolor="#cbe5f8"] ;
787 -> 788 ;
789 [label=<X<SUB>2</SUB> &le; 0.992<br/>entropy = 0.998<br/>samples = 105<br/>value = [50, 55]>, fillcolor="#edf6fd"] ;
788 -> 789 ;
790 [label=<X<SUB>5</SUB> &le; 0.28<br/>entropy = 0.939<br/>samples = 59<br/>value = [38, 21]>, fillcolor="#f3c7a6"] ;
789 -> 790 ;
791 [label=<X<SUB>20</SUB> &le; 0.291<br/>entropy = 1.0<br/>samples = 42<br/>value = [21, 21]>, fillcolor="#ffffff"] ;
790 -> 791 ;
792 [label=<entropy = 0.0<br/>samples = 6<br/>value = [6, 0]>, fillcolor="#e58139"] ;
791 -> 792 ;
793 [label=<X<SUB>18</SUB> &le; 0.293<br/>entropy = 0.98<br/>samples = 36<br/>value = [15, 21]>, fillcolor="#c6e3f8"] ;
791 -> 793 ;
794 [label=<entropy = 0.0<br/>samples = 8<br/>value = [0, 8]>, fillcolor="#399de5"] ;
793 -> 794 ;
795 [label=<X<SUB>14</SUB> &le; 0.428<br/>entropy = 0.996<br/>samples = 28<br/>value = [15, 13]>, fillcolor="#fceee5"] ;
793 -> 795 ;
796 [label=<X<SUB>21</SUB> &le; 0.149<br/>entropy = 0.391<br/>samples = 13<br/>value = [12, 1]>, fillcolor="#e78c49"] ;
795 -> 796 ;
797 [label=<entropy = 0.0<br/>samples = 1<br/>value = [0, 1]>, fillcolor="#399de5"] ;
796 -> 797 ;
798 [label=<entropy = 0.0<br/>samples = 12<br/>value = [12, 0]>, fillcolor="#e58139"] ;
796 -> 798 ;
799 [label=<X<SUB>10</SUB> &le; 0.433<br/>entropy = 0.722<br/>samples = 15<br/>value = [3, 12]>, fillcolor="#6ab6ec"] ;
795 -> 799 ;
800 [label=<X<SUB>41</SUB> &le; 0.876<br/>entropy = 0.811<br/>samples = 4<br/>value = [3, 1]>, fillcolor="#eeab7b"] ;
799 -> 800 ;
801 [label=<entropy = 0.0<br/>samples = 3<br/>value = [3, 0]>, fillcolor="#e58139"] ;
800 -> 801 ;
802 [label=<entropy = 0.0<br/>samples = 1<br/>value = [0, 1]>, fillcolor="#399de5"] ;
800 -> 802 ;
803 [label=<entropy = 0.0<br/>samples = 11<br/>value = [0, 11]>, fillcolor="#399de5"] ;
799 -> 803 ;
804 [label=<entropy = 0.0<br/>samples = 17<br/>value = [17, 0]>, fillcolor="#e58139"] ;
790 -> 804 ;
805 [label=<X<SUB>4</SUB> &le; 0.841<br/>entropy = 0.828<br/>samples = 46<br/>value = [12, 34]>, fillcolor="#7fc0ee"] ;
789 -> 805 ;
806 [label=<X<SUB>27</SUB> &le; 0.824<br/>entropy = 0.74<br/>samples = 43<br/>value = [9, 34]>, fillcolor="#6db7ec"] ;
805 -> 806 ;
807 [label=<X<SUB>36</SUB> &le; 0.283<br/>entropy = 0.61<br/>samples = 40<br/>value = [6, 34]>, fillcolor="#5caeea"] ;
806 -> 807 ;
808 [label=<entropy = 0.0<br/>samples = 20<br/>value = [0, 20]>, fillcolor="#399de5"] ;
807 -> 808 ;
809 [label=<X<SUB>36</SUB> &le; 0.33<br/>entropy = 0.881<br/>samples = 20<br/>value = [6, 14]>, fillcolor="#8ec7f0"] ;
807 -> 809 ;
810 [label=<entropy = 0.0<br/>samples = 4<br/>value = [4, 0]>, fillcolor="#e58139"] ;
809 -> 810 ;
811 [label=<X<SUB>40</SUB> &le; 0.999<br/>entropy = 0.544<br/>samples = 16<br/>value = [2, 14]>, fillcolor="#55abe9"] ;
809 -> 811 ;
812 [label=<X<SUB>43</SUB> &le; 0.983<br/>entropy = 0.353<br/>samples = 15<br/>value = [1, 14]>, fillcolor="#47a4e7"] ;
811 -> 812 ;
813 [label=<entropy = 0.0<br/>samples = 14<br/>value = [0, 14]>, fillcolor="#399de5"] ;
812 -> 813 ;
814 [label=<entropy = 0.0<br/>samples = 1<br/>value = [1, 0]>, fillcolor="#e58139"] ;
812 -> 814 ;
815 [label=<entropy = 0.0<br/>samples = 1<br/>value = [1, 0]>, fillcolor="#e58139"] ;
811 -> 815 ;
816 [label=<entropy = 0.0<br/>samples = 3<br/>value = [3, 0]>, fillcolor="#e58139"] ;
806 -> 816 ;
817 [label=<entropy = 0.0<br/>samples = 3<br/>value = [3, 0]>, fillcolor="#e58139"] ;
805 -> 817 ;
818 [label=<entropy = 0.0<br/>samples = 13<br/>value = [0, 13]>, fillcolor="#399de5"] ;
788 -> 818 ;
819 [label=<X<SUB>20</SUB> &le; 0.503<br/>entropy = 0.523<br/>samples = 68<br/>value = [60, 8]>, fillcolor="#e89253"] ;
787 -> 819 ;
820 [label=<X<SUB>4</SUB> &le; 0.366<br/>entropy = 0.65<br/>samples = 48<br/>value = [40, 8]>, fillcolor="#ea9a61"] ;
819 -> 820 ;
821 [label=<X<SUB>11</SUB> &le; 0.441<br/>entropy = 1.0<br/>samples = 6<br/>value = [3, 3]>, fillcolor="#ffffff"] ;
820 -> 821 ;
822 [label=<entropy = 0.0<br/>samples = 3<br/>value = [3, 0]>, fillcolor="#e58139"] ;
821 -> 822 ;
823 [label=<entropy = 0.0<br/>samples = 3<br/>value = [0, 3]>, fillcolor="#399de5"] ;
821 -> 823 ;
824 [label=<X<SUB>4</SUB> &le; 0.634<br/>entropy = 0.527<br/>samples = 42<br/>value = [37, 5]>, fillcolor="#e99254"] ;
820 -> 824 ;
825 [label=<entropy = 0.0<br/>samples = 22<br/>value = [22, 0]>, fillcolor="#e58139"] ;
824 -> 825 ;
826 [label=<X<SUB>5</SUB> &le; 0.164<br/>entropy = 0.811<br/>samples = 20<br/>value = [15, 5]>, fillcolor="#eeab7b"] ;
824 -> 826 ;
827 [label=<entropy = 0.0<br/>samples = 1<br/>value = [0, 1]>, fillcolor="#399de5"] ;
826 -> 827 ;
828 [label=<X<SUB>41</SUB> &le; 0.611<br/>entropy = 0.742<br/>samples = 19<br/>value = [15, 4]>, fillcolor="#eca36e"] ;
826 -> 828 ;
829 [label=<X<SUB>4</SUB> &le; 0.657<br/>entropy = 0.946<br/>samples = 11<br/>value = [7, 4]>, fillcolor="#f4c9aa"] ;
828 -> 829 ;
830 [label=<entropy = 0.0<br/>samples = 2<br/>value = [0, 2]>, fillcolor="#399de5"] ;
829 -> 830 ;
831 [label=<X<SUB>42</SUB> &le; 0.002<br/>entropy = 0.764<br/>samples = 9<br/>value = [7, 2]>, fillcolor="#eca572"] ;
829 -> 831 ;
832 [label=<X<SUB>18</SUB> &le; 0.362<br/>entropy = 0.918<br/>samples = 3<br/>value = [1, 2]>, fillcolor="#9ccef2"] ;
831 -> 832 ;
833 [label=<entropy = 0.0<br/>samples = 1<br/>value = [1, 0]>, fillcolor="#e58139"] ;
832 -> 833 ;
834 [label=<entropy = 0.0<br/>samples = 2<br/>value = [0, 2]>, fillcolor="#399de5"] ;
832 -> 834 ;
835 [label=<entropy = 0.0<br/>samples = 6<br/>value = [6, 0]>, fillcolor="#e58139"] ;
831 -> 835 ;
836 [label=<entropy = 0.0<br/>samples = 8<br/>value = [8, 0]>, fillcolor="#e58139"] ;
828 -> 836 ;
837 [label=<entropy = 0.0<br/>samples = 20<br/>value = [20, 0]>, fillcolor="#e58139"] ;
819 -> 837 ;
838 [label=<X<SUB>11</SUB> &le; 0.491<br/>entropy = 0.89<br/>samples = 338<br/>value = [104, 234]>, fillcolor="#91c9f1"] ;
786 -> 838 ;
839 [label=<X<SUB>3</SUB> &le; 0.052<br/>entropy = 1.0<br/>samples = 148<br/>value = [74, 74]>, fillcolor="#ffffff"] ;
838 -> 839 ;
840 [label=<X<SUB>16</SUB> &le; 0.279<br/>entropy = 0.869<br/>samples = 69<br/>value = [49, 20]>, fillcolor="#f0b48a"] ;
839 -> 840 ;
841 [label=<X<SUB>11</SUB> &le; 0.447<br/>entropy = 0.461<br/>samples = 41<br/>value = [37, 4]>, fillcolor="#e88f4e"] ;
840 -> 841 ;
842 [label=<entropy = 0.0<br/>samples = 26<br/>value = [26, 0]>, fillcolor="#e58139"] ;
841 -> 842 ;
843 [label=<X<SUB>45</SUB> &le; 0.75<br/>entropy = 0.837<br/>samples = 15<br/>value = [11, 4]>, fillcolor="#eeaf81"] ;
841 -> 843 ;
844 [label=<entropy = 0.0<br/>samples = 7<br/>value = [7, 0]>, fillcolor="#e58139"] ;
843 -> 844 ;
845 [label=<X<SUB>11</SUB> &le; 0.463<br/>entropy = 1.0<br/>samples = 8<br/>value = [4, 4]>, fillcolor="#ffffff"] ;
843 -> 845 ;
846 [label=<entropy = 0.0<br/>samples = 3<br/>value = [0, 3]>, fillcolor="#399de5"] ;
845 -> 846 ;
847 [label=<X<SUB>5</SUB> &le; 0.738<br/>entropy = 0.722<br/>samples = 5<br/>value = [4, 1]>, fillcolor="#eca06a"] ;
845 -> 847 ;
848 [label=<entropy = 0.0<br/>samples = 4<br/>value = [4, 0]>, fillcolor="#e58139"] ;
847 -> 848 ;
849 [label=<entropy = 0.0<br/>samples = 1<br/>value = [0, 1]>, fillcolor="#399de5"] ;
847 -> 849 ;
850 [label=<X<SUB>12</SUB> &le; 0.683<br/>entropy = 0.985<br/>samples = 28<br/>value = [12, 16]>, fillcolor="#cee6f8"] ;
840 -> 850 ;
851 [label=<X<SUB>7</SUB> &le; 0.71<br/>entropy = 0.811<br/>samples = 16<br/>value = [12, 4]>, fillcolor="#eeab7b"] ;
850 -> 851 ;
852 [label=<X<SUB>32</SUB> &le; 0.309<br/>entropy = 0.722<br/>samples = 5<br/>value = [1, 4]>, fillcolor="#6ab6ec"] ;
851 -> 852 ;
853 [label=<entropy = 0.0<br/>samples = 1<br/>value = [1, 0]>, fillcolor="#e58139"] ;
852 -> 853 ;
854 [label=<entropy = 0.0<br/>samples = 4<br/>value = [0, 4]>, fillcolor="#399de5"] ;
852 -> 854 ;
855 [label=<entropy = 0.0<br/>samples = 11<br/>value = [11, 0]>, fillcolor="#e58139"] ;
851 -> 855 ;
856 [label=<entropy = 0.0<br/>samples = 12<br/>value = [0, 12]>, fillcolor="#399de5"] ;
850 -> 856 ;
857 [label=<X<SUB>10</SUB> &le; 0.771<br/>entropy = 0.9<br/>samples = 79<br/>value = [25, 54]>, fillcolor="#95caf1"] ;
839 -> 857 ;
858 [label=<entropy = 0.0<br/>samples = 21<br/>value = [0, 21]>, fillcolor="#399de5"] ;
857 -> 858 ;
859 [label=<X<SUB>19</SUB> &le; 0.21<br/>entropy = 0.986<br/>samples = 58<br/>value = [25, 33]>, fillcolor="#cfe7f9"] ;
857 -> 859 ;
860 [label=<X<SUB>43</SUB> &le; 0.139<br/>entropy = 0.7<br/>samples = 37<br/>value = [7, 30]>, fillcolor="#67b4eb"] ;
859 -> 860 ;
