digraph Tree {
node [shape=box, style="filled, rounded", color="black", fontname="helvetica"] ;
edge [fontname="helvetica"] ;
0 [label=<X<SUB>10</SUB> &le; 0.0<br/>entropy = 1.585<br/>samples = 92844<br/>value = [30948, 30948, 30948]>, fillcolor="#ffffff"] ;
1 [label=<X<SUB>11</SUB> &le; 0.267<br/>entropy = 1.502<br/>samples = 48406<br/>value = [10265, 14595, 23546]>, fillcolor="#decbf8"] ;
0 -> 1 [labeldistance=2.5, labelangle=45, headlabel="True"] ;
2 [label=<X<SUB>12</SUB> &le; 0.556<br/>entropy = 1.3<br/>samples = 10507<br/>value = [1482, 2364, 6661]>, fillcolor="#bd97f1"] ;
1 -> 2 ;
3 [label=<X<SUB>9</SUB> &le; 0.0<br/>entropy = 1.152<br/>samples = 4747<br/>value = [457, 966, 3324]>, fillcolor="#b084ef"] ;
2 -> 3 ;
4 [label=<entropy = 1.114<br/>samples = 4438<br/>value = [405, 847, 3186]>, fillcolor="#ad7eee"] ;
3 -> 4 ;
5 [label=<X<SUB>9</SUB> &le; 0.013<br/>entropy = 1.482<br/>samples = 309<br/>value = [52, 119, 138]>, fillcolor="#f2ebfc"] ;
3 -> 5 ;
6 [label=<entropy = 0.996<br/>samples = 56<br/>value = [26, 30, 0]>, fillcolor="#e5fcee"] ;
5 -> 6 ;
7 [label=<entropy = 1.345<br/>samples = 253<br/>value = [26, 89, 138]>, fillcolor="#d9c4f7"] ;
5 -> 7 ;
8 [label=<X<SUB>12</SUB> &le; 0.666<br/>entropy = 1.395<br/>samples = 5760<br/>value = [1025, 1398, 3337]>, fillcolor="#c7a7f3"] ;
2 -> 8 ;
9 [label=<entropy = 0.973<br/>samples = 223<br/>value = [133, 90, 0]>, fillcolor="#f7d6bf"] ;
8 -> 9 ;
10 [label=<X<SUB>2</SUB> &le; 3.5<br/>entropy = 1.356<br/>samples = 5537<br/>value = [892, 1308, 3337]>, fillcolor="#c3a0f3"] ;
8 -> 10 ;
11 [label=<X<SUB>11</SUB> &le; 0.266<br/>entropy = 1.306<br/>samples = 4542<br/>value = [591, 1119, 2832]>, fillcolor="#c09cf2"] ;
10 -> 11 ;
12 [label=<X<SUB>11</SUB> &le; 0.2<br/>entropy = 1.423<br/>samples = 2094<br/>value = [341, 614, 1139]>, fillcolor="#d2b9f6"] ;
11 -> 12 ;
13 [label=<entropy = 1.278<br/>samples = 1828<br/>value = [193, 496, 1139]>, fillcolor="#c29ff2"] ;
12 -> 13 ;
14 [label=<entropy = 0.991<br/>samples = 266<br/>value = [148, 118, 0]>, fillcolor="#fae5d7"] ;
12 -> 14 ;
15 [label=<entropy = 1.174<br/>samples = 2448<br/>value = [250, 505, 1693]>, fillcolor="#b286ef"] ;
11 -> 15 ;
16 [label=<X<SUB>2</SUB> &le; 19.0<br/>entropy = 1.474<br/>samples = 995<br/>value = [301, 189, 505]>, fillcolor="#dac5f7"] ;
10 -> 16 ;
17 [label=<entropy = 1.452<br/>samples = 863<br/>value = [219, 178, 466]>, fillcolor="#cfb3f5"] ;
16 -> 17 ;
18 [label=<entropy = 1.245<br/>samples = 132<br/>value = [82, 11, 39]>, fillcolor="#f3c5a3"] ;
16 -> 18 ;
19 [label=<X<SUB>11</SUB> &le; 0.333<br/>entropy = 1.535<br/>samples = 37899<br/>value = [8783, 12231, 16885]>, fillcolor="#e8dbfa"] ;
1 -> 19 ;
20 [label=<entropy = 0.985<br/>samples = 934<br/>value = [535, 399, 0]>, fillcolor="#f8dfcd"] ;
19 -> 20 ;
21 [label=<X<SUB>2</SUB> &le; 20.0<br/>entropy = 1.525<br/>samples = 36965<br/>value = [8248, 11832, 16885]>, fillcolor="#e6d7fa"] ;
19 -> 21 ;
22 [label=<X<SUB>8</SUB> &le; 0.0<br/>entropy = 1.514<br/>samples = 35643<br/>value = [7511, 11580, 16552]>, fillcolor="#e5d6fa"] ;
21 -> 22 ;
23 [label=<X<SUB>11</SUB> &le; 0.333<br/>entropy = 1.486<br/>samples = 29330<br/>value = [5767, 9006, 14557]>, fillcolor="#ddc9f8"] ;
22 -> 23 ;
24 [label=<entropy = 1.238<br/>samples = 3460<br/>value = [348, 866, 2246]>, fillcolor="#bc96f1"] ;
23 -> 24 ;
25 [label=<X<SUB>11</SUB> &le; 0.4<br/>entropy = 1.507<br/>samples = 25870<br/>value = [5419, 8140, 12311]>, fillcolor="#e1d0f9"] ;
23 -> 25 ;
26 [label=<entropy = 0.978<br/>samples = 836<br/>value = [491, 345, 0]>, fillcolor="#f7dac4"] ;
25 -> 26 ;
27 [label=<X<SUB>11</SUB> &le; 0.4<br/>entropy = 1.489<br/>samples = 25034<br/>value = [4928, 7795, 12311]>, fillcolor="#decbf8"] ;
25 -> 27 ;
28 [label=<entropy = 1.302<br/>samples = 3496<br/>value = [398, 959, 2139]>, fillcolor="#c4a3f3"] ;
27 -> 28 ;
29 [label=<X<SUB>11</SUB> &le; 0.467<br/>entropy = 1.51<br/>samples = 21538<br/>value = [4530, 6836, 10172]>, fillcolor="#e2d2f9"] ;
27 -> 29 ;
30 [label=<entropy = 0.988<br/>samples = 1075<br/>value = [607, 468, 0]>, fillcolor="#f9e2d2"] ;
29 -> 30 ;
31 [label=<X<SUB>11</SUB> &le; 0.467<br/>entropy = 1.482<br/>samples = 20463<br/>value = [3923, 6368, 10172]>, fillcolor="#ddcaf8"] ;
29 -> 31 ;
32 [label=<entropy = 1.314<br/>samples = 3444<br/>value = [392, 981, 2071]>, fillcolor="#c7a7f3"] ;
31 -> 32 ;
33 [label=<X<SUB>11</SUB> &le; 0.533<br/>entropy = 1.506<br/>samples = 17019<br/>value = [3531, 5387, 8101]>, fillcolor="#e2d1f9"] ;
31 -> 33 ;
34 [label=<entropy = 0.983<br/>samples = 1496<br/>value = [864, 632, 0]>, fillcolor="#f8ddca"] ;
33 -> 34 ;
35 [label=<X<SUB>9</SUB> &le; 0.0<br/>entropy = 1.449<br/>samples = 15523<br/>value = [2667, 4755, 8101]>, fillcolor="#d8c1f7"] ;
33 -> 35 ;
36 [label=<X<SUB>2</SUB> &le; 14.5<br/>entropy = 1.432<br/>samples = 14322<br/>value = [2370, 4272, 7680]>, fillcolor="#d4bcf6"] ;
35 -> 36 ;
37 [label=<X<SUB>4</SUB> &le; 0.154<br/>entropy = 1.436<br/>samples = 14154<br/>value = [2354, 4270, 7530]>, fillcolor="#d5bef6"] ;
36 -> 37 ;
38 [label=<entropy = 1.357<br/>samples = 5333<br/>value = [711, 1513, 3109]>, fillcolor="#caacf4"] ;
37 -> 38 ;
39 [label=<X<SUB>4</SUB> &le; 0.231<br/>entropy = 1.475<br/>samples = 8821<br/>value = [1643, 2757, 4421]>, fillcolor="#dcc9f8"] ;
37 -> 39 ;
40 [label=<entropy = 0.982<br/>samples = 209<br/>value = [121, 88, 0]>, fillcolor="#f8ddc9"] ;
39 -> 40 ;
41 [label=<entropy = 1.459<br/>samples = 8612<br/>value = [1522, 2669, 4421]>, fillcolor="#dac5f7"] ;
39 -> 41 ;
42 [label=<entropy = 0.545<br/>samples = 168<br/>value = [16, 2, 150]>, fillcolor="#9050e8"] ;
36 -> 42 ;
43 [label=<X<SUB>9</SUB> &le; 0.013<br/>entropy = 1.557<br/>samples = 1201<br/>value = [297, 483, 421]>, fillcolor="#effdf5"] ;
35 -> 43 ;
44 [label=<entropy = 0.985<br/>samples = 217<br/>value = [124, 93, 0]>, fillcolor="#f8e0ce"] ;
43 -> 44 ;
45 [label=<entropy = 1.494<br/>samples = 984<br/>value = [173, 390, 421]>, fillcolor="#f8f5fe"] ;
43 -> 45 ;
46 [label=<X<SUB>8</SUB> &le; 0.024<br/>entropy = 1.566<br/>samples = 6313<br/>value = [1744, 2574, 1995]>, fillcolor="#e4fcee"] ;
22 -> 46 ;
47 [label=<entropy = 0.998<br/>samples = 1428<br/>value = [756, 672, 0]>, fillcolor="#fcf1e9"] ;
46 -> 47 ;
48 [label=<X<SUB>8</SUB> &le; 0.024<br/>entropy = 1.524<br/>samples = 4885<br/>value = [988, 1902, 1995]>, fillcolor="#fbf9fe"] ;
46 -> 48 ;
49 [label=<entropy = 1.413<br/>samples = 2046<br/>value = [260, 785, 1001]>, fillcolor="#e9ddfb"] ;
48 -> 49 ;
50 [label=<X<SUB>8</SUB> &le; 0.048<br/>entropy = 1.563<br/>samples = 2839<br/>value = [728, 1117, 994]>, fillcolor="#f2fdf7"] ;
48 -> 50 ;
51 [label=<entropy = 0.995<br/>samples = 464<br/>value = [251, 213, 0]>, fillcolor="#fbece1"] ;
50 -> 51 ;
52 [label=<entropy = 1.521<br/>samples = 2375<br/>value = [477, 904, 994]>, fillcolor="#f7f3fd"] ;
50 -> 52 ;
53 [label=<X<SUB>11</SUB> &le; 0.533<br/>entropy = 1.427<br/>samples = 1322<br/>value = [737, 252, 333]>, fillcolor="#f4ccae"] ;
21 -> 53 ;
54 [label=<X<SUB>11</SUB> &le; 0.467<br/>entropy = 1.223<br/>samples = 616<br/>value = [419, 93, 104]>, fillcolor="#efb185"] ;
53 -> 54 ;
55 [label=<entropy = 1.337<br/>samples = 451<br/>value = [277, 70, 104]>, fillcolor="#f2c09c"] ;
54 -> 55 ;
56 [label=<entropy = 0.583<br/>samples = 165<br/>value = [142, 23, 0]>, fillcolor="#e99559"] ;
54 -> 56 ;
57 [label=<entropy = 1.529<br/>samples = 706<br/>value = [318, 159, 229]>, fillcolor="#fae7da"] ;
53 -> 57 ;
58 [label=<X<SUB>10</SUB> &le; 0.048<br/>entropy = 1.475<br/>samples = 44438<br/>value = [20683, 16353, 7402]>, fillcolor="#fbece0"] ;
0 -> 58 [labeldistance=2.5, labelangle=-45, headlabel="False"] ;
59 [label=<X<SUB>2</SUB> &le; 7.5<br/>entropy = 0.958<br/>samples = 11340<br/>value = [7038, 4302, 0]>, fillcolor="#f5ceb2"] ;
58 -> 59 ;
60 [label=<entropy = 0.969<br/>samples = 10364<br/>value = [6256, 4108, 0]>, fillcolor="#f6d4bb"] ;
59 -> 60 ;
61 [label=<entropy = 0.719<br/>samples = 976<br/>value = [782, 194, 0]>, fillcolor="#eba06a"] ;
59 -> 61 ;
62 [label=<X<SUB>10</SUB> &le; 0.048<br/>entropy = 1.541<br/>samples = 33098<br/>value = [13645, 12051, 7402]>, fillcolor="#fdf5f0"] ;
58 -> 62 ;
63 [label=<X<SUB>11</SUB> &le; 0.267<br/>entropy = 1.546<br/>samples = 12677<br/>value = [2888, 4813, 4976]>, fillcolor="#fcfbfe"] ;
62 -> 63 ;
64 [label=<entropy = 1.439<br/>samples = 1802<br/>value = [291, 568, 943]>, fillcolor="#d9c3f7"] ;
63 -> 64 ;
65 [label=<X<SUB>2</SUB> &le; 0.5<br/>entropy = 1.554<br/>samples = 10875<br/>value = [2597, 4245, 4033]>, fillcolor="#f9fefb"] ;
63 -> 65 ;
66 [label=<entropy = 1.391<br/>samples = 722<br/>value = [147, 151, 424]>, fillcolor="#c3a0f3"] ;
65 -> 66 ;
67 [label=<X<SUB>2</SUB> &le; 10.5<br/>entropy = 1.554<br/>samples = 10153<br/>value = [2450, 4094, 3609]>, fillcolor="#f0fdf6"] ;
65 -> 67 ;
68 [label=<X<SUB>9</SUB> &le; 0.0<br/>entropy = 1.546<br/>samples = 9354<br/>value = [2184, 3909, 3261]>, fillcolor="#eafcf2"] ;
67 -> 68 ;
69 [label=<X<SUB>11</SUB> &le; 0.332<br/>entropy = 1.537<br/>samples = 7583<br/>value = [1653, 3105, 2825]>, fillcolor="#f3fdf8"] ;
68 -> 69 ;
70 [label=<entropy = 0.992<br/>samples = 67<br/>value = [37, 30, 0]>, fillcolor="#fae7da"] ;
69 -> 70 ;
71 [label=<X<SUB>4</SUB> &le; 0.077<br/>entropy = 1.535<br/>samples = 7516<br/>value = [1616, 3075, 2825]>, fillcolor="#f4fef8"] ;
69 -> 71 ;
72 [label=<entropy = 1.463<br/>samples = 1757<br/>value = [268, 719, 770]>, fillcolor="#f9f5fe"] ;
71 -> 72 ;
73 [label=<X<SUB>4</SUB> &le; 0.153<br/>entropy = 1.548<br/>samples = 5759<br/>value = [1348, 2356, 2055]>, fillcolor="#effdf5"] ;
71 -> 73 ;
74 [label=<entropy = 0.968<br/>samples = 124<br/>value = [75, 49, 0]>, fillcolor="#f6d3ba"] ;
73 -> 74 ;
75 [label=<entropy = 1.543<br/>samples = 5635<br/>value = [1273, 2307, 2055]>, fillcolor="#f1fdf6"] ;
73 -> 75 ;
76 [label=<X<SUB>9</SUB> &le; 0.013<br/>entropy = 1.536<br/>samples = 1771<br/>value = [531, 804, 436]>, fillcolor="#d3f9e3"] ;
68 -> 76 ;
77 [label=<entropy = 0.973<br/>samples = 340<br/>value = [203, 137, 0]>, fillcolor="#f7d6bf"] ;
76 -> 77 ;
78 [label=<entropy = 1.523<br/>samples = 1431<br/>value = [328, 667, 436]>, fillcolor="#d1f9e2"] ;
76 -> 78 ;
79 [label=<entropy = 1.539<br/>samples = 799<br/>value = [266, 185, 348]>, fillcolor="#ece1fb"] ;
67 -> 79 ;
80 [label=<X<SUB>10</SUB> &le; 0.095<br/>entropy = 1.383<br/>samples = 20421<br/>value = [10757, 7238, 2426]>, fillcolor="#f8ddca"] ;
62 -> 80 ;
81 [label=<entropy = 0.917<br/>samples = 5661<br/>value = [3780, 1881, 0]>, fillcolor="#f2c09c"] ;
80 -> 81 ;
82 [label=<X<SUB>10</SUB> &le; 0.095<br/>entropy = 1.47<br/>samples = 14760<br/>value = [6977, 5357, 2426]>, fillcolor="#fbe9dd"] ;
80 -> 82 ;
83 [label=<X<SUB>2</SUB> &le; 0.5<br/>entropy = 1.557<br/>samples = 4776<br/>value = [1288, 2031, 1457]>, fillcolor="#ddfbe9"] ;
82 -> 83 ;
84 [label=<entropy = 1.39<br/>samples = 354<br/>value = [73, 73, 208]>, fillcolor="#c2a0f3"] ;
83 -> 84 ;
85 [label=<entropy = 1.548<br/>samples = 4422<br/>value = [1215, 1958, 1249]>, fillcolor="#d3f9e3"] ;
83 -> 85 ;
86 [label=<X<SUB>10</SUB> &le; 0.143<br/>entropy = 1.317<br/>samples = 9984<br/>value = [5689, 3326, 969]>, fillcolor="#f6d2b9"] ;
82 -> 86 ;
87 [label=<entropy = 0.869<br/>samples = 2723<br/>value = [1933, 790, 0]>, fillcolor="#f0b48a"] ;
86 -> 87 ;
88 [label=<X<SUB>10</SUB> &le; 0.143<br/>entropy = 1.41<br/>samples = 7261<br/>value = [3756, 2536, 969]>, fillcolor="#f8decc"] ;
86 -> 88 ;
89 [label=<X<SUB>2</SUB> &le; 0.5<br/>entropy = 1.542<br/>samples = 2062<br/>value = [571, 931, 560]>, fillcolor="#cff9e1"] ;
88 -> 89 ;
90 [label=<entropy = 1.419<br/>samples = 155<br/>value = [34, 33, 88]>, fillcolor="#c7a7f3"] ;
89 -> 90 ;
91 [label=<entropy = 1.525<br/>samples = 1907<br/>value = [537, 898, 472]>, fillcolor="#cbf8de"] ;
89 -> 91 ;
92 [label=<X<SUB>10</SUB> &le; 0.19<br/>entropy = 1.245<br/>samples = 5199<br/>value = [3185, 1605, 409]>, fillcolor="#f4c8a8"] ;
88 -> 92 ;
93 [label=<entropy = 0.819<br/>samples = 1250<br/>value = [931, 319, 0]>, fillcolor="#eeac7d"] ;
92 -> 93 ;
94 [label=<X<SUB>10</SUB> &le; 0.191<br/>entropy = 1.328<br/>samples = 3949<br/>value = [2254, 1286, 409]>, fillcolor="#f6d1b7"] ;
92 -> 94 ;
95 [label=<entropy = 1.531<br/>samples = 976<br/>value = [303, 445, 228]>, fillcolor="#d5fae4"] ;
94 -> 95 ;
96 [label=<X<SUB>10</SUB> &le; 0.238<br/>entropy = 1.16<br/>samples = 2973<br/>value = [1951, 841, 181]>, fillcolor="#f1bd98"] ;
94 -> 96 ;
97 [label=<entropy = 0.776<br/>samples = 651<br/>value = [502, 149, 0]>, fillcolor="#eda674"] ;
96 -> 97 ;
98 [label=<X<SUB>10</SUB> &le; 0.239<br/>entropy = 1.232<br/>samples = 2322<br/>value = [1449, 692, 181]>, fillcolor="#f3c4a3"] ;
96 -> 98 ;
99 [label=<entropy = 1.49<br/>samples = 500<br/>value = [192, 221, 87]>, fillcolor="#ecfdf3"] ;
98 -> 99 ;
100 [label=<X<SUB>10</SUB> &le; 0.286<br/>entropy = 1.095<br/>samples = 1822<br/>value = [1257, 471, 94]>, fillcolor="#f0b68c"] ;
98 -> 100 ;
101 [label=<entropy = 0.654<br/>samples = 434<br/>value = [361, 73, 0]>, fillcolor="#ea9a61"] ;
100 -> 101 ;
102 [label=<X<SUB>10</SUB> &le; 0.286<br/>entropy = 1.187<br/>samples = 1388<br/>value = [896, 398, 94]>, fillcolor="#f2c09b"] ;
100 -> 102 ;
103 [label=<entropy = 1.446<br/>samples = 302<br/>value = [122, 137, 43]>, fillcolor="#effdf5"] ;
102 -> 103 ;
104 [label=<entropy = 1.05<br/>samples = 1086<br/>value = [774, 261, 51]>, fillcolor="#efb184"] ;
102 -> 104 ;
}